295 384
<PAD_OR_OOV> -0.060069125 0.04268505 -0.043090187 -0.018706482 0.013836551 0.0022181354 -0.013846772 -0.046899326 -0.027973818 -0.028881663 0.013443917 0.05179842 0.067887604 0.05239 0.013024167 0.035899498 -0.049992226 0.0134372655 -0.056649346 -0.0046786624 -0.06993621 0.06125293 0.03469903 0.073703244 0.00058621657 0.067884594 0.012380576 0.04742187 -0.07465922 -0.034763813 0.020668875 -0.001229728 0.0758051 0.056432135 -0.062350117 -0.07214347 0.07179566 -0.03477686 -0.01618606 0.03539728 -0.027677346 0.075445555 0.04892204 -0.087739855 0.08023606 -0.041036304 0.07271609 0.035895355 0.04175042 0.030479005 -0.013033547 0.040325414 -0.021330578 0.045949657 0.0886369 -0.053516578 0.04767768 -0.031810895 0.07627638 -0.0013309559 0.061143517 -0.0028362565 -0.05773435 -0.036674418 0.034381386 -0.07877386 -0.06276901 -0.01955991 0.057447314 -0.02054587 -0.08003635 0.037014335 0.0365397 0.0573963 -0.05081772 -0.0055106 0.07154112 0.07508603 0.0074266763 -0.061647058 0.01739209 -0.0648927 0.02108741 -0.085049145 0.023628414 -0.056559414 -0.055385705 -0.03639386 0.057082232 -0.060770202 -0.07992037 -0.051006496 -0.02098187 0.03378779 0.05639888 0.042470485 -0.04025095 0.041187704 0.074531585 -0.07653297 0.059650164 0.060760114 -0.06536512 -0.067802325 0.019928144 -0.083929084 0.059774235 -0.04094555 0.030323217 -0.016529163 -0.03069769 0.043630056 -0.083746 -0.0473946 -0.066707246 0.06908626 -0.024765655 0.0053787194 -0.05455969 0.027650569 0.04738869 -0.089527346 -0.022205412 0.07079754 -0.030895697 -0.03843411 -0.025552582 -0.08144567 0.060770866 0.017955165 0.011124095 -0.01263956 0.025944808 0.04475149 0.063145444 -0.032731257 0.074321665 0.039753765 0.025544878 -0.06759919 -0.07359936 0.057405904 -0.060904466 0.03448743 0.026413139 -0.0631406 0.003943434 0.06798497 -0.050659228 0.018582964 0.0017957034 0.057355 0.07624184 0.039236628 -0.030342354 -0.06335735 -0.09223513 0.07226528 -0.027873747 0.06254916 -0.08895044 0.014686881 -0.058019515 -0.07512104 -0.04226304 0.03564825 -0.007741917 -0.08610937 -0.007134322 0.08569232 0.030913437 -0.038341034 0.06851145 0.009515305 0.06866329 -0.0064514116 0.022087127 0.06101107 0.08373313 0.03656487 -0.011491645 -0.034617297 -0.049798436 -0.03643638 -0.010348074 0.02841734 0.010627434 0.082154945 -0.08875555 0.03199219 0.08115051 0.065659724 0.04021827 -0.06594264 -0.003099158 -0.019098703 -0.04577749 -0.0012566482 0.06378907 0.06285159 -0.07543015 0.005197902 -0.0023676485 -0.064213894 0.049127933 -0.04664445 -0.09302427 -0.06854264 0.08280478 -0.017086681 0.025524054 -0.09319343 0.023801748 0.06515319 0.0778249 -0.0742755 0.07546217 -0.070986934 -0.019079477 0.023729347 -0.06808253 0.048597887 -0.036431793 0.018202908 0.07965583 -0.05578936 0.06597343 0.07734373 0.067070775 0.036900926 0.037994407 -0.054658413 0.0013585554 -0.08977709 -0.041336175 0.0675867 -0.039767068 -0.040064935 0.041451085 -0.06082068 0.054155722 -0.070996165 0.055862498 -0.008158985 -0.08608147 0.039448205 0.006728179 0.013220032 0.020975832 0.0625273 0.013207463 -0.046808556 -0.0043326733 0.053314373 -0.024015121 0.0025307036 0.05273718 -0.0033770301 -0.009857206 0.072569 -0.016623568 0.065729454 -0.054783046 -0.035616234 -0.004295001 0.005420451 0.009632991 0.0061481767 0.01850017 0.039723095 0.07367599 0.021501793 0.04854919 -0.049025808 0.032145064 0.07658917 0.026908306 0.07149715 0.06491001 0.06020151 0.020532677 0.059413414 0.0007614525 0.03246762 0.003028518 -0.02933513 0.08240509 0.05041264 -0.07135629 0.0740799 0.03383085 0.07407737 0.058658745 -0.019573828 0.05669186 -0.015665028 -0.0679816 -0.028211834 -0.021713646 0.011655971 0.07393397 0.030583283 -0.019227766 -0.092257515 -0.016350728 0.01659389 -0.07994134 -0.036147714 0.012080159 0.06952157 0.0066247955 -0.04356436 -0.014619557 0.028232485 0.07970588 -0.03869614 -0.021471975 0.011995532 -0.067334756 0.036756538 -0.03166601 -0.068926744 0.05697031 -0.04370102 -0.030614706 -0.0099211745 -0.05832865 0.05834391 -0.0110367825 0.093205556 -0.07690354 -0.057626244 -0.0004094832 0.04416676 0.0049705077 -0.03136431 0.027432296 -0.08065122 0.06373621 -0.085301526 0.057574283 0.07275278 -1.8787803e-05 -0.08027012 0.038312174 0.08629836 0.08139744 -0.03644209 -0.074234314 -0.025582734 0.030808425 -0.051737525 0.075170144 -0.058440614 -0.09147546 0.08489181 0.08508612 0.040456597 -0.0017474355 -0.010696018 0.012425007 -0.046733834 0.01686297 0.055474207 -0.033232998 0.021427378 0.06067923 0.026579898 -0.01650876 0.0145359775 0.0039956956 0.07981003 -0.04090404 0.026060937 -0.06418145 -0.046242803 -0.03848891 -0.066110976 -0.0005278537 -0.015754215 0.029656602 0.055236038 0.0531674 -0.017765809
lgammaf 0.007800004 -0.037582073 0.09304896 0.019327013 0.063379124 -0.072388895 -0.058981873 -0.06443899 0.06987799 -0.047955327 -0.049242754 -0.08946322 0.06276333 0.007006509 -0.020541731 -0.08601838 0.06066078 0.014516388 -0.0136972265 -0.04627745 -0.017332418 -0.08261964 -0.06769708 0.06276109 0.0042359615 -0.029757086 0.08936017 -0.04123201 0.08835759 -0.06129647 0.008472828 -0.023329921 -0.040688153 -0.086829945 -0.06783988 -0.057817828 0.02511274 -0.054071106 0.06296336 0.016228046 -0.007065632 0.07912271 -0.084306024 0.038845997 -0.061757065 0.031686462 -0.030353418 0.023446038 0.048940416 -0.0025333532 -0.064651035 -0.020842645 -0.07498012 0.06082791 0.010064694 -0.023635453 -0.013795893 -0.028391557 -0.015060504 -0.0748091 -0.08467366 -0.0036647322 -0.044787522 -0.06568418 -0.0113364225 0.006373933 0.020344105 0.062222883 0.058125783 -0.05686875 0.067028336 -0.04263586 0.0017217781 -0.026558353 0.040708713 -0.07758598 -0.038903143 0.06891978 0.028111242 -0.05070648 0.07089128 0.08453201 -0.056025993 -0.029234972 -0.009324317 -0.07272249 -0.026573582 0.048600648 0.0056000785 -0.043715484 -0.06833855 0.044005968 0.052111097 0.0018489013 -0.0026856903 0.0059741884 0.031146841 0.05181764 0.06267357 -0.085019626 -0.00020331086 0.07488744 -0.055940144 -0.0802969 0.051172223 -0.010300134 -0.06847598 0.027036607 -0.04331886 -0.08266785 0.05888553 -0.061558776 -0.0549748 -0.015303044 -0.050015666 -0.046956934 0.0120620355 -0.042604826 -0.01074945 -0.07665157 0.021644736 -0.013695606 0.072896995 -0.04133187 -0.025183208 0.07985106 -0.035528947 0.00654015 0.056917243 0.056900505 0.029017648 0.037510652 -0.04106303 -0.049957994 -0.012727374 -0.010617106 0.06737566 0.013160773 -0.08117373 -0.0037260945 0.025777575 0.052929115 0.005567991 -0.01853055 -0.08662253 -0.092075735 0.013253651 0.043430544 -0.010908446 0.056287993 0.044219196 0.04290145 -0.07972242 0.010839447 0.0064114104 -0.014810505 -0.05708673 0.034065682 0.08231266 -0.018638294 0.066054784 0.07667219 0.04517929 0.047188576 -0.08446425 -0.027174847 0.005316017 0.0077418555 0.039060626 0.07187269 -0.049924817 -0.055738974 -0.08287976 -0.04679029 -0.062378883 0.020904548 0.039864954 -0.06855424 0.082995154 0.065542355 -0.046857778 -0.013306772 -0.03107168 -0.033945706 0.013153399 -0.051319115 -0.027268028 -0.009849998 -0.038266174 0.0052188733 -0.090802066 0.004209309 -0.067015424 -0.04902888 -0.035501454 -0.0162914 -0.049640093 0.0006007044 -0.06345984 -0.009288248 0.073879845 -0.06543718 -0.06792906 -0.0039552427 -0.015995905 0.043292694 -0.020548526 0.08974925 -0.010628127 0.07937147 -0.020342818 -0.026889114 0.03226134 -0.029675636 0.07519294 -0.053602707 -0.0840914 -0.049478687 0.018826766 0.081850745 -0.046090193 -0.020593122 0.016526215 0.017340202 0.029979132 0.030795634 -0.025672289 0.06569781 -0.025596946 0.05832157 -0.015296379 -0.0242749 -0.009230252 0.03155507 0.0433709 0.038740914 -0.03736556 -0.04432314 0.0014885694 -0.089632645 0.06701868 0.023824036 -0.047113076 0.008718014 0.056016427 0.059329372 0.074580975 0.06152216 -0.07917051 0.07283828 -0.06622988 -0.054304603 -0.0021963483 -0.070313305 -0.024061352 -0.03405083 0.06884737 -0.021619728 -0.07556024 0.0049067168 0.015910422 0.02583792 0.06818207 -0.08395734 0.08598814 -0.053303033 -0.08480766 0.022999998 -0.0715627 -0.04661992 0.034259584 0.087937206 -0.023663197 -0.040336765 -0.049253985 0.06432859 0.023796227 0.08038526 -0.038173385 0.042988658 0.032255705 -0.07519404 0.08258853 0.011454098 -0.04764948 -0.031126255 0.022356551 0.06528171 -0.010116234 0.011041505 -0.035334982 0.007041597 -0.08542764 0.039950714 -0.013098972 -0.05367466 -0.02808003 -0.007399158 -0.081571504 -0.07821505 0.07842952 0.018225629 -0.046759184 -0.05109805 -0.053228512 -0.027689656 -0.016654965 -0.011842907 -0.00871964 0.056499112 0.015255472 -0.09131168 0.016896576 -0.06392503 0.06625039 -0.055667385 0.06744968 -0.035295144 -0.013434303 -0.075149044 0.074449554 -0.050986383 0.044821292 -0.04160106 0.028715692 -0.013435123 -0.012855021 0.07202684 -0.017576475 -0.052887216 0.0066448105 -0.080183595 0.041662574 0.021582406 0.032825816 -0.034114912 -0.07176647 0.06827754 0.064774 0.026550533 -0.052057907 0.049244426 0.034947775 0.066260986 0.023896666 0.054195207 -0.06518178 -0.040397096 0.03612939 0.0074713603 -0.059917767 0.08974711 0.049801916 -0.007048728 0.06227139 0.0142341 0.004514796 -0.024974056 0.03916181 -0.09248651 0.0034558729 -0.08086589 0.07094588 0.020594785 -0.012855278 -0.019942079 -0.061585914 0.014559593 -0.0014334115 -0.017558718 0.05763955 0.03740708 -0.07644177 0.020802958 -0.06565034 0.0064940588 0.020114372 0.08503469 -0.005331472 -0.060295716 -0.037718307 0.07873838 -0.07291328 0.015466497
funcname -0.017941775 0.003819104 0.034627162 -0.07213163 0.08258101 -0.05397658 0.053174805 0.09221736 0.03389457 0.017861916 -0.02261663 0.06643177 -0.05677798 -0.027048822 0.015291162 -0.016949438 -0.0076778936 -0.049145874 0.022006141 0.026920557 0.044686157 0.060738724 -0.04665601 0.08775829 -0.052457962 -0.042925596 -0.0056281323 -0.01346497 -0.06954753 -0.08250835 0.034351 -0.020588465 0.048183355 -0.0867653 0.012133315 0.03781442 0.021288412 0.045286268 -0.059085123 0.03212558 0.052720476 0.0076994225 -0.07626343 -0.03443964 -0.051027454 -0.08802771 0.03193578 -0.048942212 -0.01109761 -0.046789262 0.0524222 0.025963249 0.0020313368 0.06500012 -0.050747927 0.07635128 -0.014902527 0.061027773 0.0060525225 0.04396008 -0.03471464 0.0056424015 -0.03757211 -0.065151095 0.011287532 -0.06709526 -0.05430715 -0.01512611 -0.03790347 0.02730432 -0.027019782 0.058197014 0.0818735 0.03762042 -0.03288831 -0.056555916 0.08131074 0.054508917 -0.0202743 -0.0266157 0.0106921755 -0.090430856 -0.06726353 0.039548162 0.08891114 -0.04044589 0.030676015 0.069237255 -0.0029981474 0.07447096 0.06350898 -0.02063666 -0.05237435 0.0143272625 0.022643771 -0.060673065 -0.034337215 0.050347522 -0.07823824 -0.08064984 0.07660202 -0.010720431 -0.08999641 0.053536203 -0.025678653 -0.045556057 -0.064723335 0.030925592 0.0084212115 -0.04624451 0.02151396 0.011991663 -0.022312833 -0.016027011 0.08146873 0.003674747 0.07572945 -0.024955517 0.051936343 -0.081178226 0.021814266 0.06398486 0.036087275 0.027003778 0.05057268 0.089227766 -0.03749441 -0.06205931 -0.03039313 0.05357631 -0.0105874175 0.0110955145 -0.043174684 0.01793488 -0.068470456 0.06013833 -0.005761262 0.013156487 -0.00842175 0.046206325 -0.008344774 0.047346365 0.0024260278 0.03131541 -0.04473794 -0.013331593 0.04448745 0.070496045 -0.0054708757 -0.046856873 -0.08535982 -0.0088073965 -0.05361312 0.029610692 0.075372085 -0.039083462 -0.06919988 0.0457361 -0.039904144 -0.038247064 -0.08969315 0.052191377 0.050614778 -0.07743189 -0.066253215 0.016434101 -0.019471103 0.0886632 0.061591055 0.010830784 -0.04307136 -0.0696413 -0.052715402 -0.078773566 0.006247493 0.05285243 0.027963908 0.08647038 0.008166088 -0.06392462 0.011935217 0.027002383 -0.024881322 -0.07308284 -0.06897696 -0.08850169 0.0115969125 0.07576413 -0.040399365 -0.074892655 0.012060988 -0.044408076 -0.035714712 0.05762678 -0.06690785 -0.02782375 0.07817245 0.050570585 -0.07559684 -0.032990772 0.06901048 0.08008453 -0.08171537 0.09157819 0.021364793 0.07404671 -0.015025673 -0.06358635 -0.026839057 0.05485375 -0.0454128 0.078283 -0.03916504 -0.064593084 -0.060167693 0.033881716 -0.06177038 -0.024682084 -0.08461263 0.050382312 0.074651614 -0.07844033 0.051521324 -0.09067089 -0.04323892 0.062202163 -0.010401167 0.037143648 0.0092289485 0.045577057 0.009591119 0.04121137 0.074581 0.0065204846 -0.0014382851 0.07311202 0.0010170618 0.093772635 0.072271995 0.0013853754 -0.04295845 -0.014692815 -0.0045624673 0.0241911 0.044095643 0.07827535 0.028848158 -0.008923387 0.056017734 0.026230782 -0.058546502 0.06610736 -0.05327597 0.090165675 0.03285401 -0.054409508 0.023336574 -0.01962018 -0.041294564 0.023653194 0.03166877 0.030269139 -0.002846979 0.08749721 -0.03881506 -0.0700222 -0.07848585 -0.058183514 -0.082776055 0.06771981 0.004023337 0.08618091 0.015152806 0.058606643 0.04960205 -0.03526129 0.063953295 0.015705206 0.036296416 -0.0048123025 -0.07657166 -0.07406196 0.007829598 0.087743275 0.009139672 -0.086267464 0.07835011 0.075887024 -0.04427144 0.033450693 -0.0014596416 -0.07441968 0.009312723 0.06302113 -0.06811552 0.018789448 -0.02443261 -0.060540356 -0.053515874 -0.06734063 0.077372044 -0.048214067 0.04709787 0.053231582 0.068425015 0.07617359 0.08559282 0.0511225 -0.010751817 -0.008890432 0.014247278 -0.014116249 -0.07778954 -0.039921924 0.02488457 -0.057950858 -0.014433491 0.026992053 -0.044457566 0.022648431 -0.032326933 -0.07993214 -0.033478793 0.08778203 -0.049769975 0.085575186 -0.008954933 -0.010193561 0.03187261 -0.053303406 -0.024864387 0.06702299 0.060119286 0.034818467 -0.0033126678 -0.0561266 0.045214485 -0.0054422906 0.0035005917 -0.0732128 0.030431094 -0.03692765 -0.0197775 0.06680103 -0.024812546 -0.07454005 0.049825255 0.02298654 -0.057873342 -0.02142236 -0.09047637 0.051823106 0.07316095 -0.045189552 -0.06257935 0.0088245645 0.03368267 -0.007720951 0.08050712 0.049535926 -0.058394257 0.03439802 -0.0023806854 -0.07961217 -0.081690244 -0.08243393 -0.05262307 0.02060618 0.007457464 0.020720525 -0.017861607 0.043975137 0.06314277 0.054191858 -0.0038918536 0.013818355 -0.059412997 -0.0764934 -0.029936666 0.013622393 0.06719314 0.004522641 0.0034877597 -0.048205893
feenable|test -0.027122613 -0.027605813 -0.010992994 -0.025540125 0.024060417 -0.06761399 -0.03466118 -0.023316817 0.09280663 -0.07078331 -0.080663465 0.052492224 -0.0782608 0.067024134 0.07823977 -0.0689382 0.05622668 0.032867763 0.04258835 -0.056821793 0.051930144 0.008212658 0.07198481 -0.006193169 -0.030180706 -0.07217712 0.017434899 -0.039498996 -0.01634406 -0.00766729 -0.03492379 0.0012104192 0.069948785 0.048914786 -0.042380996 -0.015027391 -0.012891862 0.010158821 -0.035852216 0.08667344 -0.079567656 -0.01121779 -0.021745928 -0.050959736 0.037846304 0.003259986 -0.04885981 0.0609469 -0.052424338 -0.013240575 -0.071778454 -0.049619693 -0.08232562 -0.06167467 0.02235436 -0.037845667 0.06190848 -0.055670217 -0.07388644 -0.0132655 0.010254516 0.032666717 0.0054892735 0.08632363 -0.06294752 -0.037125926 -0.060193673 -0.016006475 0.01024147 -0.05789237 -0.03325556 0.03721851 0.0642112 0.005341261 -0.03200442 0.0005048964 -0.031696904 0.08639481 0.09400194 -0.043940734 -0.058388077 -0.05394225 0.07877155 -0.037262257 -0.06714009 0.0867702 0.004602451 -0.028587436 -0.007474554 0.032235485 -0.078778096 0.019838832 0.06827296 -0.05070366 -0.0172245 -0.038658507 0.007253673 0.06773462 -0.0905478 0.019215276 -0.06348743 0.022658134 -0.053773653 -0.026060058 0.058143485 0.012662091 3.8047554e-05 0.09253668 0.064623475 0.04883559 0.021411046 0.013600671 -0.062188536 -0.073290616 -0.005939922 0.08447895 -0.060837656 -0.04127657 -0.014868429 -0.07479559 -0.0663873 -0.027613886 -0.05549131 0.004524065 0.013709056 -0.08569647 -0.01786444 0.03132853 -0.05951542 0.061430033 -0.08763155 -0.06619862 -0.056532834 -0.03985766 0.03322319 -0.060122073 0.010491156 0.092922725 0.047003847 0.07977453 -0.0082223425 -0.03979615 -0.001302011 -0.06900045 -0.06670028 -0.0018321285 0.015054012 -0.024860391 -0.052027673 0.07698371 -0.06028953 -0.06248399 0.09000277 -0.061368108 0.01427564 -0.032989487 0.033692706 0.045407884 -0.08918338 -0.08740705 -0.012403405 0.021547928 -0.007855992 0.05032908 0.041034874 0.04501157 -0.077612765 0.055259645 0.052796163 -0.07594255 0.08940239 -0.059457656 -0.08424902 0.08029275 -0.046035763 -0.025948407 -0.029280026 -0.0033825561 0.027835809 -0.015332101 -0.07659226 -0.024811342 -0.007884394 -0.091570385 -0.008498084 -0.03970944 -0.091943674 -0.09091326 -0.06529391 -0.012957203 -0.05359821 0.056023575 0.047563642 0.05407978 -0.013715689 0.0028960248 -0.0439337 -0.03222768 -0.016816435 -0.007631747 -0.023556149 -0.036309924 0.052564353 -0.03798847 0.047411162 -0.07712001 0.016747827 -0.06403534 -0.035798974 0.050467275 0.06754597 0.022060733 0.09012679 -0.039665487 0.036149815 0.06448859 0.03369662 -0.079665944 0.013825193 0.029321285 -0.018515505 0.0031871102 0.046130065 -0.0012190085 0.03332382 -0.015657905 0.08069019 -0.009108602 -0.09029666 0.07923006 -0.002797917 0.056057394 -0.017506566 0.04410399 -0.019821353 0.01336257 0.043240387 -0.07682763 -0.052409973 0.036472954 -0.011601202 -0.038883958 -0.06186251 0.025507616 0.04232181 -0.041141275 0.029331092 0.049117748 0.03796236 0.03932671 0.08024641 -0.056193523 -0.01647003 0.05330834 0.08609635 -0.078987725 0.079064526 -0.032689624 8.631521e-05 -0.07821393 -0.024274465 0.035651047 -0.020691544 -0.030088264 0.0038896552 -0.07007977 -0.072788015 0.074172385 -0.06387432 -0.029872684 0.034513045 -0.016296918 0.034066785 0.048417848 0.002316041 0.034091026 0.06069459 0.029073464 0.06382372 0.08681919 0.06992263 0.0686982 -0.07571745 -0.032415282 0.060696673 -0.023622984 -0.027273571 -0.027944826 0.03631788 0.021194577 -0.0816061 -0.049493052 -0.07729254 -0.03388676 -0.0037918496 0.06437924 -0.014220743 0.044119954 0.076238856 -0.07994529 -0.015278696 0.05544387 0.011829184 -0.092415296 0.003215963 -0.08831576 -0.017033424 -0.018299608 0.0141635705 0.021394342 0.028290972 -0.011434472 -0.04327219 0.0760778 -0.063639045 0.042962175 -0.07843964 0.09324364 -0.052534923 0.045557074 0.020577194 -0.0782566 -0.08090341 0.033062797 -0.009614512 0.050180458 -0.080441035 0.03275264 -0.05340807 -0.07681905 -0.060121432 -0.018254284 0.06135533 0.07827105 0.0671893 0.018763319 0.06293265 0.054547027 -0.08054586 -0.07067661 -0.057371985 0.047580454 -0.09054979 -0.010787005 -0.055320337 -0.07532013 -0.087133124 -0.06474869 -0.014974671 -0.02001693 -0.07260757 -0.0056924173 0.0057469625 0.023199378 0.027002703 0.008981201 0.004491086 0.026863374 -0.045179877 -0.037271332 -0.0174697 -0.019708429 0.021178873 0.067469664 0.044996075 -0.073121265 -0.0040376233 -0.07647828 0.06810164 0.028044585 0.044753723 0.050738946 -0.0129259955 -0.0064027477 -0.074677855 0.013280751 -0.0482177 -0.058707286 -0.07436327 -0.07425703 0.06919693 -0.061968993 0.045951135 0.030395688
ctanh -0.04551646 0.0012467859 0.05935988 0.039233036 -0.085086055 -0.042122897 0.035582777 0.079600275 -0.00970321 0.048377648 0.024746403 -0.0057747858 -0.010949987 0.0015731417 0.07746405 0.07102248 0.01240019 -0.08072808 -0.04829799 -0.007697326 -0.07456119 0.07181658 -0.008691441 0.054393854 -0.07534588 -0.016571764 0.015577493 -0.084542334 0.030333618 0.03376427 0.05078332 -0.022714607 0.094045125 -0.060011633 -0.025000691 -0.08934459 0.017365217 -0.045999188 -0.066564046 0.0050392426 0.03573773 -0.053645372 0.087314785 0.02816446 0.043798737 0.053135227 -0.051929757 0.05377758 -0.06654877 0.09239741 0.09031781 0.005309549 -0.00989502 -0.065162025 -0.07629607 0.021505056 0.0160185 -0.03127696 -0.03665086 0.07036292 -0.06865917 0.025382739 0.0517844 -0.08047914 -0.03672613 0.053210396 0.061350424 0.05215067 -0.007587189 -0.04463575 0.0028694957 -0.077085815 -0.046736225 0.00012163271 0.07743883 -0.052433524 -0.042935662 -0.04017553 0.07373448 0.0033506616 0.084892124 -0.035527706 0.058309246 -0.030815007 0.011693907 -0.044836845 -0.018677438 -0.013051524 0.08322118 -0.057718355 -0.0116014015 0.076835714 -0.083279826 -0.062863335 0.07327595 -0.0065961247 0.07651149 0.077266835 0.018253371 -0.01179623 -0.049968675 -0.050025295 0.09124267 -0.046329953 0.010376692 0.066364974 0.061520103 0.04648639 0.0029365115 0.06607022 0.07238421 0.08422669 -0.031604998 0.036992826 0.031511713 -0.04363344 -0.015623009 0.009668701 -0.025247654 0.011509881 0.022854272 -0.049132735 0.06430137 0.058636695 -0.013685313 -0.057681482 -0.013742283 0.024378452 0.07696522 -0.016167993 -0.047296233 0.061502803 0.048651356 -0.037325107 -0.023067074 0.018294409 -0.008811295 -0.026892213 0.015129518 0.059906583 -0.0727667 -0.07437908 0.022247743 0.07027485 -0.07417288 0.023760293 0.08118178 0.08018377 -0.05071391 -0.04371196 -0.03578545 -0.04085488 -0.06750897 -0.03569118 -0.07428932 -0.032259315 0.0040875217 0.05846435 0.058635976 0.04133918 0.0006056001 -0.00095556903 -0.043118358 0.04965947 -0.04779276 -0.08290491 0.013630571 -0.024957616 0.02371733 0.033514597 -0.052457582 0.0032934851 0.0133872805 -0.045059018 0.06726731 -0.0649248 -0.06313396 0.07405521 0.07196254 0.035024464 -0.06767604 0.05315913 0.06861106 0.0670622 0.06635038 0.051689837 0.06348693 0.03533254 0.050576515 0.043901093 0.0828609 -0.069345556 0.021369893 -0.04932152 0.042720646 0.0210588 -0.09014026 0.047561277 0.015141864 -0.031628475 0.08436735 -0.04251305 0.041988045 -0.07461995 0.031319126 -0.025542611 0.014163782 -0.0051303925 -0.036117848 -0.017862197 -0.020006856 -0.011396304 0.0691676 0.06896465 0.08058768 0.029795427 0.0678382 -0.0046447273 -0.06256103 0.03688761 -0.003061156 -0.04436129 -0.05311512 0.035581015 -0.08639957 0.09002908 -0.077675976 -0.052713532 0.07166583 0.082205564 -0.06617701 0.029092683 0.06684217 0.06175094 -0.024203315 0.0632421 -0.009815028 0.030837422 -0.07134499 -0.079947606 0.081281714 0.025980804 -0.04750415 0.0018984802 0.05313305 -0.04119292 0.052120354 0.0675583 -0.06079626 0.065470465 -0.0731704 0.083039865 0.00037749222 -0.057352025 -0.006705527 0.06783581 -0.06564328 -0.04530955 0.06331237 -0.056296505 0.077313185 -0.041430335 -0.015897416 -0.007535625 -0.093323044 -0.030543208 -0.037713785 0.06228661 -0.0006883616 0.06163793 0.05580702 0.022143546 0.025669223 0.06751215 0.015032822 0.07093105 -0.037353512 0.06251137 -0.049275093 0.018100398 0.026917936 -0.011635125 -0.010948433 -0.03877273 -0.084956594 -0.045881707 -0.0355544 0.012148915 0.03356342 0.015876304 -0.056085225 -0.051875614 -0.016246628 -0.048931193 0.015475343 -0.049656156 0.012205729 -0.08057789 0.06627115 -0.07317075 0.042214252 -0.0049367677 0.07238913 0.044574942 0.08075407 -0.01133437 -0.029299561 0.07379088 0.07640376 -0.0030205569 0.0006126741 0.0819107 0.033638857 -0.030525628 -0.013792363 -0.0707781 0.002237936 -0.040409543 -0.06882157 -0.058018155 0.044851743 0.07270138 -0.016883023 -0.0028451772 -0.08384627 -0.04612827 0.0040263007 0.008433165 -0.06909635 0.027011344 -0.08329707 0.007140601 -0.032072727 0.010597893 -0.033402126 -0.049984213 0.06761576 -0.042918086 -0.044133894 -0.030492375 0.06656482 0.05533943 0.022660367 0.053155072 0.0016036727 0.08848083 -0.061991192 -0.07340628 0.0033555985 -0.020345083 -0.08097797 0.025606606 -0.02283236 -0.041948263 0.02195188 -0.009316656 0.060206607 -0.020071758 0.045442555 0.057193983 -0.049015418 0.006749006 -0.0592153 -0.0027278708 -0.014099301 0.061069276 -0.035760988 -0.016750928 -0.014512201 0.014732934 0.08548502 -0.01881299 0.035780378 0.040451296 0.0010245768 -0.012033464 0.016068572 -0.070611276 -0.050779577 -0.04836311 0.041029792 0.03540987 -0.022725644 0.056942124
output|generic|value -0.021613574 -0.014313639 0.07531638 -0.041609857 0.04777483 0.021777485 0.08192169 -0.015103635 0.00053772854 -0.060184248 0.027983733 -0.08090387 0.036698062 -0.06751207 -0.005652974 -0.020294065 0.08386265 0.07001144 0.024908068 0.029976372 0.067951635 0.05212738 0.03081893 0.021757416 -0.028253185 0.023862556 -0.028885039 0.008770103 0.02643097 -0.06024258 0.04441938 0.013613227 -0.047229365 -0.0014465008 0.044677492 -0.06331626 0.057859585 -0.019181557 -0.06945828 0.051547967 -0.013016903 0.0033315404 -0.046275508 -0.09040113 -0.049027447 -0.0008910144 0.042202685 -0.012282772 0.030267429 -0.036780246 -0.03829682 0.013199944 -0.036860965 0.07557752 -0.036053203 -0.00040696084 -0.07835014 -0.054335218 0.07287569 -0.026471602 -0.007327249 0.036512103 0.075678565 -0.060454536 0.07085386 -0.028607259 0.006651381 0.01598784 -0.057136014 -0.057118766 0.028646363 0.08989981 0.055785242 -0.054894343 -0.068528086 -0.04088133 0.07436266 0.049424004 -0.010167232 0.08718087 -0.023614042 0.05427347 0.0039223917 -0.06629289 -0.028786398 -0.08305213 0.009802786 0.08554172 0.07336548 -0.0069624227 -0.008526434 -0.08529164 0.021936757 -0.020622235 -0.08816286 -0.054282304 -0.014636557 -0.020031998 -0.032221034 -0.00020335487 -0.059290122 0.051860254 0.04524448 -0.012970959 -0.03436281 -0.019686189 0.06412706 -0.06365454 0.07036453 0.06319531 0.08694716 0.052796677 -0.00042060245 -0.00058084936 -0.08591204 0.030667195 -0.0030689193 0.0417169 0.007596638 0.023469418 -0.07008443 0.038603872 -0.03264818 0.09187833 0.032687213 0.063805155 0.046835788 0.021232832 0.0031485255 0.0011206327 -0.026341535 -0.075634286 -0.009679959 0.03760764 0.028694276 0.08974073 0.08149284 -0.07399794 -0.01038645 0.07146282 0.08434276 -0.050213102 -0.07084046 -0.07373187 0.060572244 0.017762184 -0.0054593836 0.078857645 0.0026555227 0.04573048 -0.06990248 0.034823548 0.05470118 -0.017202973 0.02897629 0.067073315 0.06986109 0.041141413 -0.019473862 -0.0546563 -0.022084644 0.043701846 -0.08628737 -0.035223823 -0.038128942 0.04165816 0.08292177 0.013216342 -0.03278445 -0.034476165 -0.031280134 -0.056367714 -0.06446206 0.024683028 0.07109505 0.015977904 -0.087443046 0.09253807 -0.010883542 -0.04402192 -0.039705742 -0.04063759 0.04940749 0.033004712 0.049820118 -0.03245042 -0.07659107 -0.03718337 -0.035471026 -0.006343476 0.032727584 -0.02460178 0.086824924 0.012179045 -0.045200683 -0.022009736 -0.06320636 0.08439784 -0.036532875 0.023892025 0.060282495 -0.03346165 -0.019811556 -0.06341313 -0.026429411 -0.055937935 -0.08911738 -0.03492223 0.027563414 0.03987864 0.09022405 0.012531819 0.06879583 0.0032454813 -0.024532262 -0.062141787 -0.006098521 -0.037048727 0.043485627 0.077466816 -0.057290442 -0.004935306 0.071479775 0.00018353836 0.056511782 0.01825201 0.04564147 -0.042659875 -0.08062683 -0.018071163 -0.0201569 -0.047753505 -0.050487243 -0.07066487 -0.0006406237 0.07006048 -0.0534199 0.0075506475 0.027162677 0.07537666 -0.07089797 0.024907673 -0.08222772 0.018370299 -0.04270341 -0.0184553 0.076065205 0.052764557 0.069578476 0.061728 -0.03670481 0.05790939 -0.04481614 0.032161586 -0.07109319 -0.003126209 -0.032579128 -0.05675716 -0.04494065 0.075792186 -0.068665266 -0.024206912 0.0767706 0.040761635 -0.0824424 0.08116241 0.08589917 -0.07763495 -0.054115202 0.021487849 -0.05522137 -0.07888805 -0.056651782 -0.028297804 0.04338915 -0.059306573 -0.01087063 -0.04303448 -0.011108041 -0.08516901 -0.08086717 -0.03519372 0.0496268 -0.06685966 -0.05774007 0.0018171287 0.013527744 0.08077404 0.06383105 0.087199554 0.018060498 0.009696154 -0.033794135 -0.07121765 0.0376613 0.041084934 -0.056477617 -0.04907212 0.0030534654 0.06141604 -0.039498527 0.014630899 -0.06752865 0.082749195 0.059062097 -0.011509537 -0.0027966762 -0.07183258 -0.063866116 -0.074508175 0.046388682 0.07884133 -0.07604902 0.029225962 0.051681288 0.021986378 -0.05944122 -0.056737788 -0.019362224 -0.045849785 0.06719692 0.039962728 0.052339002 0.057533726 -0.08186467 -0.013778731 0.025274064 0.04464134 -0.08806462 0.013724333 -0.009205187 0.03707187 0.05494076 -0.051360995 0.07600397 0.0008938152 0.07411654 -0.05868707 0.083917804 -0.052619744 0.024146369 -0.074724846 -0.08968081 0.0713589 -0.05459313 -0.033422768 0.04037876 -0.062373698 0.027740382 0.07928387 -0.06932893 -0.062713176 0.028058168 0.078725085 -0.054205228 -0.005686023 0.06780439 0.048237327 0.0043283524 -0.0032209316 0.054861616 -0.0062365998 0.07421742 -0.052986722 -0.035199627 -0.019077893 -0.0305527 -0.07166276 0.07113214 0.07812046 0.085395 -0.047469538 -0.036781553 -0.015906377 0.009489255 0.012255906 -0.03997172 0.08273211 0.09361176 -0.03629217 0.034649152 -0.009996056 -0.058110494 0.06210764
feraiseexcept -0.08265738 0.020560406 0.07352462 -0.030356597 -0.06431393 0.05459919 0.04122638 0.0145244505 -0.062210985 -0.06992626 -0.07881725 0.09147722 0.009724085 0.039847303 -0.029781764 0.013023472 -0.051461484 0.016191687 0.034096483 -0.07077591 0.077466495 0.017271556 -0.008666349 -0.07498594 -0.0025932305 0.05344093 0.052037105 0.040906925 -0.07809136 -0.015729506 0.086784594 0.06950004 -0.08044565 0.05308779 0.083602086 0.05466233 0.047065873 0.07359729 0.066376984 -0.0831647 0.047588523 0.06597072 -0.01293277 0.018263683 -0.024334654 -0.0127495 0.039754216 -0.013983055 0.028500762 -0.024313368 0.02083311 -0.011671692 -0.048961867 -0.08212519 0.040090706 -0.083089516 0.06234363 0.048270043 -0.054461855 0.07029726 -0.051712047 0.0436222 0.046775885 0.021307098 0.047655556 -0.08164576 -0.042993885 -0.018525925 -0.03323019 0.03946854 0.050135665 -0.08245132 -0.06376418 0.030164393 -0.086706154 0.003717765 -0.02471045 0.07966431 -0.05536226 -0.03361271 0.007846424 0.041101318 -0.08223853 0.05441133 -0.057511337 0.036482472 -0.076235175 -0.06546434 0.057558544 -0.07744107 0.014684264 0.09335186 0.020038582 -0.031328067 0.032763742 -0.03561905 -0.041917585 -0.07358363 0.077264786 -0.02354143 -0.051357165 0.07663411 0.07410439 -0.005418707 0.06994319 -0.045589805 0.0857897 -0.012673096 0.08408383 0.0895764 -0.021921057 -0.028737608 -0.07885039 0.029714841 0.04430861 -0.014091752 0.04351929 -0.020470846 0.08664897 0.036001407 -0.02326773 0.00581737 0.043277487 0.017415067 0.0065156096 -0.015447827 -0.027308818 -0.07729351 0.05680634 0.064943716 0.015851134 -0.080488615 -0.037473567 0.039786536 0.04581422 -0.046899643 0.042455256 0.03155061 -0.03804131 0.05987516 -0.0043138927 -0.025524443 0.03294986 0.06684867 -0.004372763 -0.042096186 0.05875207 0.0054496145 -0.045260154 0.056605928 0.057267662 -0.06576428 0.041664794 -0.066437796 0.074976355 0.031650353 0.039817125 0.020537158 -0.0055078827 0.004705599 0.03958793 -0.04151223 0.08415113 -0.054212537 -0.030457467 -0.051498905 0.075525634 0.01521221 0.045114752 0.023140665 0.027191723 0.030385315 -0.070096 -0.009646704 -0.004366551 0.013495752 -0.0376291 0.023137202 -0.07079554 -0.010788077 -0.029416312 0.014905272 0.003250555 0.076040916 -0.028218163 -0.035074066 -0.06686705 -0.023109809 0.04348713 0.05023326 -0.062464874 0.04514949 0.05304691 -0.053977087 0.06913453 -0.05580964 0.023148092 0.0495186 0.07791959 -0.062205743 0.04518748 0.080854915 0.06404766 0.04492065 -0.04016232 -0.07483588 -0.017917184 0.009332811 -0.05086851 -0.010843036 -0.059152223 0.0631574 0.07653627 0.034012895 -0.022569867 0.046141118 0.04811224 0.018692557 -0.051013 -0.012544501 -0.07631182 -0.0060354164 0.0042603365 0.06319068 0.03324184 0.0710714 0.09239698 -0.08296764 0.05883076 0.06279271 -0.06285589 0.07937818 -0.036547285 -0.010992657 0.0068627982 -0.06423436 -0.020389518 0.031369735 0.064051285 0.08218672 0.072927155 0.007217377 -0.0736669 -0.06729335 0.06690047 -0.03802649 -0.053404815 0.027678987 -0.0155981835 -0.01047652 0.013195621 -0.07759688 0.06876129 -0.08008331 0.080792986 -0.026281675 -0.0080533875 -0.0049708784 0.023296788 0.087873936 0.055774685 -0.0357588 0.053232756 0.014505261 -0.08551208 0.03128148 0.073924616 -0.0852869 0.009113614 -0.040817227 0.054237302 0.008995771 0.04488164 -0.015777566 0.06385386 0.0625675 -0.027048977 -0.077855065 0.026845112 -0.0018851277 -0.0147468 0.03711237 -0.023579692 0.03617483 -0.06457784 0.07960862 -0.05197712 0.04053291 -0.0752687 -0.055266876 -0.08573024 0.066238 -0.016875079 -0.018051581 -0.09085058 0.07850531 0.014887007 0.039367374 0.010909107 0.04502466 0.06749174 -0.04017178 -0.02230387 -0.04540045 0.080371425 0.06919168 0.09198467 0.080716975 0.021309854 0.07809751 0.026572373 0.046129603 -0.009613341 0.06480585 -0.026852803 -0.06295729 -0.01195842 0.07676453 -0.07178729 0.08148142 -0.09210873 0.05244949 -0.0012936338 0.027591078 0.06664295 0.009883387 -0.036460046 -0.035385784 0.036690954 0.043454234 -0.068772815 -0.07939832 0.014687821 -0.024655733 0.035283435 0.049684253 0.00733889 0.028498985 -0.012137498 0.0024604457 0.015381405 0.08306475 0.08497234 -0.08657189 0.010321444 0.010007654 -0.07741348 -0.06359378 -0.08430905 -0.035328083 -0.035683744 -0.0060416916 0.060363468 0.064652905 -0.043604318 -0.076808855 -0.04059229 0.08791298 -0.07389976 0.0059861206 -0.034879375 0.09058666 0.03313603 -0.022615312 0.06733908 0.038470313 -0.03951649 -0.05403281 -0.04974197 0.03321762 0.05211358 -0.022795036 0.039633986 0.029062409 -0.02824908 0.07284692 0.03215608 0.019733196 -0.018519877 0.044492446 -0.047957387 -0.082740396 0.090198815 0.08680977
lgammal -0.026175799 -0.07510535 0.0381236 0.022810094 0.024245344 0.07337921 0.08954188 -0.01600933 0.059115976 -0.06144303 -0.056509618 -0.08795312 -0.007479692 -0.02236619 -0.054028425 0.04276851 0.015088194 -0.06268929 0.07919732 0.087906405 0.072547264 0.029318603 -0.0054448224 -0.066034876 0.041884754 0.007369862 -0.07379161 0.06775515 0.020939931 -0.03224134 0.05203523 -0.020054545 0.018082531 -0.046698805 0.092494845 0.040056653 0.079770885 0.045831762 0.0538831 0.041955482 0.029275833 -0.048889987 0.006118501 0.08309803 -0.0734542 -0.023969978 0.05707129 0.052319683 0.08988651 -0.03691426 0.047079436 0.046488155 0.047213662 -0.08428241 -0.0018687309 -0.025726268 0.055005603 -0.050222762 0.04025322 0.04263621 0.025102172 0.041680872 -0.0068282117 0.05438759 -0.018497366 -0.0052036904 -0.052964333 0.010015562 0.058316037 0.06692169 -0.01172184 0.020011082 0.00861295 0.052440412 -0.05345856 -0.03924953 -0.030738313 0.065611236 0.07923545 0.009814578 -0.053938143 0.058854535 0.08637655 -0.0873391 -0.008532004 -0.022701386 0.0073671723 0.08607843 -0.007476752 0.030554695 0.03832473 -0.047798365 0.036599286 -0.06694668 0.042118438 -0.0027537663 0.0006859795 0.059965264 0.03925497 0.032385815 -0.08128288 -0.025114775 -0.05215546 -0.041332662 -0.016213898 0.020153107 0.050425656 0.04938912 0.029131297 0.0812657 -0.053464964 0.011251409 0.085440286 0.065821566 0.07656519 0.053851068 0.015494071 -0.03943416 0.025564965 -0.010987199 -0.043715067 0.070062794 -0.072211996 0.09011732 -0.08078355 -0.04308556 -0.070150115 0.07914569 0.06627305 0.09360008 -0.021745186 0.0916196 0.0765494 -0.053346153 0.06890726 -0.051212218 -0.03427718 -0.012267824 0.041452732 -0.016056774 0.0047437055 -0.025548542 -0.04114526 -0.013465527 0.020679059 -0.08935465 -0.010191902 0.013478195 0.059809875 -0.06707844 -0.015710631 0.06338901 0.063028075 0.055940073 0.006845541 0.019536987 0.070250235 -0.07250127 -0.072112486 -0.07557402 0.031730305 0.025699003 0.019286772 -0.05174427 0.02602177 -0.067285895 -0.0358955 -0.05909486 0.0534504 -0.028559668 0.05734982 -0.070195585 0.084225126 0.033868425 -0.03566384 0.0909502 -0.059587017 -0.040153306 -0.0026394003 0.027501663 -0.023791691 -0.022310298 0.04404996 0.045755785 -0.005837798 0.015763167 0.022574246 -0.011334762 0.01636775 0.06341404 -0.07771847 -0.044484384 -0.06742763 -0.042702984 0.07633634 -0.0020408845 0.078683056 -0.08076945 0.04293764 0.052387934 -0.047430336 -0.05921793 -0.0015059342 0.0076330625 0.054723077 0.07862295 0.08085448 -0.04608925 -0.020939074 0.063036814 -0.02236557 -0.021903377 -0.025875872 0.03244828 -0.06447783 0.0011307676 0.043684687 0.06840309 0.08425335 0.022220062 -0.06859352 -0.051025495 -0.049417235 -0.012073689 0.0031227698 -0.017435962 0.012057139 -0.01574924 0.0693124 -0.045114238 0.0446097 -0.054226033 -0.04076644 -0.023163589 -0.020722779 -0.06009055 0.08962225 -0.03780903 -0.0012126459 0.053342804 -0.056609903 0.0070044855 0.03053601 0.015166069 0.0077872546 0.055050343 -0.02372581 0.024723541 -0.0059999973 -0.028338019 0.051882032 0.04482919 0.04227897 0.046831958 -0.0036612505 0.0021547654 0.031044059 0.05203251 -0.038348004 0.06583085 0.06285672 0.049303308 -0.038757708 0.06673639 -0.08226669 -0.08076361 0.054649174 -0.028133214 -0.028345965 0.021702552 -0.04233176 -0.072229974 0.020761427 -0.021968247 -0.06879256 -0.048141863 -0.062099453 0.06623454 0.035816252 0.048520897 -0.06553173 -0.010363134 -0.0015167281 0.007511896 -0.079978436 0.03611244 0.025190383 0.06212966 -0.03213763 -0.030729605 0.07711402 0.05043867 -0.05991867 -0.066789776 0.03843127 0.03195042 0.009333098 0.033950444 -0.028311769 -0.08018711 -0.05410021 0.069521055 -0.06349007 -0.03857777 -0.077344775 0.00533428 -0.046380073 -0.02197464 0.01828738 0.05964291 0.053565003 -0.03806272 0.06219319 0.037188582 -0.020259682 -0.015282647 -0.01970656 0.07266391 -0.00025058916 0.029506769 -0.08397617 0.042307623 -0.070994355 0.027060572 0.04098587 -0.0075626886 -0.013963796 -0.06990728 0.0045296163 0.008589122 -0.079738505 0.007838441 0.04540564 0.04827601 -0.06220242 -0.040689133 -0.055693943 -0.06239666 0.024913864 -0.029231403 0.042198107 0.010050304 0.012225203 -0.020049714 -0.08135727 -0.063542746 -0.059497252 -0.008162501 0.08875326 0.05410357 -0.026412439 -0.048861198 0.022936791 -0.05090985 0.016307052 -0.009123177 -0.07191572 -0.025285918 0.015586881 0.04847745 -0.05559661 0.060988225 -0.070264585 -0.048699196 0.044462375 0.048561405 0.023544686 -0.010244444 -0.037531685 -0.05121641 -0.06813725 0.011318143 0.056670245 0.056956585 0.044125132 0.0020491665 0.020843001 -0.05242062 0.048793036 0.0796377 0.07155166 -0.057542626 -0.042925987 -0.050544135
test|m -0.02241094 -0.053724498 -0.073736556 0.08779664 0.06465909 -0.05464784 0.08961772 0.032844786 0.07500961 0.07430426 -0.05773896 -0.06408526 0.042401064 -0.08646176 0.022890698 0.090130195 -0.028940102 0.057741847 -0.044176403 -0.038273633 -0.033407055 -0.08807921 0.051422015 0.08282453 0.047004197 -0.07691329 -0.033927616 -0.0050202664 0.07838149 -0.054993175 -0.057667896 -0.085560694 0.037945762 0.043877374 0.012065775 -0.0640411 0.05215993 -0.049851667 0.07833302 0.043267846 0.010370791 0.06685638 0.006106425 0.019951422 0.039699946 0.024175871 -0.033377092 -0.037841775 -0.06777277 0.07932274 0.03890863 0.07514157 0.020040303 0.0045874664 -0.07132473 0.0107940035 -0.058368865 -0.019367179 0.081902444 0.07750087 0.071852736 -0.04155144 -0.03780228 0.011475073 0.08086307 -0.076735824 0.06904979 -0.030784257 0.05714412 0.092962995 -0.015645696 -0.06049779 -0.04079482 0.0047588106 0.04992365 0.023683744 -0.00705114 -0.045940343 -0.06775171 -0.08621389 0.08005582 -0.023913547 -0.07898952 0.024830889 0.049157355 -0.013969681 -0.020360496 0.031721756 0.022404665 -0.008888577 -0.009851821 0.088729486 0.05083722 0.07574717 -0.058799304 -0.08409616 -0.068555325 -0.050296053 -0.084824696 -0.046289288 0.0040995763 -0.023807338 0.08397258 -0.00079737906 -0.045709208 0.012805741 0.016482204 -0.07019214 -0.004366421 0.022158949 -0.087111965 0.09371222 -0.026347604 -0.0045942524 -0.03350971 0.061869 -0.020242887 0.054593183 0.055248193 -0.03309028 0.080420196 0.07551913 -0.013848546 -0.04621681 -0.04568964 0.02735198 0.045596547 0.039248466 0.023071969 0.049195427 0.03910503 0.02887837 -0.035289157 -0.07330798 -0.056374703 0.06187264 -0.08246701 0.041302327 -0.028846495 -0.08462428 0.04292098 -0.049172245 0.04219433 -0.03589626 -0.036071472 0.047906484 0.043186206 0.023524651 -0.003889719 -0.029610371 -0.025501626 -0.07042139 0.028419916 0.07483064 -0.02841978 0.07638486 -0.066985056 0.06025171 -0.026591241 0.022216551 0.07836252 -0.03858325 0.066959694 -0.004955871 0.024584744 -0.061977662 -0.03633769 0.09246349 -0.00411283 0.0686881 0.012089108 -0.0045899586 -0.04287933 -0.04269821 0.07378642 0.043220997 0.0063720928 0.01738667 -0.004451428 -0.022187807 -0.029908799 0.020647965 -0.0040115183 -0.026083 0.07701389 -0.018419813 0.014466818 0.048202462 -0.07617711 -0.023851285 -0.04544367 -0.03696873 -0.06864117 -0.03398431 -0.019370647 0.06902687 0.03204508 -0.05386582 0.026412234 -0.037447352 -0.085481375 -0.08000426 0.058577705 0.023977933 -0.08523807 -0.011467383 -0.08074298 0.03908009 -0.089611776 0.038182437 -0.04004601 0.08096826 0.018064262 -0.010893466 -0.071586706 -0.025675025 0.012680315 -0.04244041 -0.013279499 0.004018515 0.050509833 0.055490624 0.037407104 0.0008253954 -0.035346985 0.03375718 0.041151524 -0.03847022 0.014256063 -0.0010982802 0.021635322 -0.04488651 0.034777228 0.0736573 -0.06733563 -0.044602603 -0.06687207 0.03718926 -0.069667846 -0.024762731 0.032710154 0.061529163 -0.035835624 -0.09181523 0.013515035 -0.08612665 0.035958454 0.079521045 0.048279263 -0.05555974 0.08884622 0.07124659 0.02101322 -0.05763834 -0.08236818 -0.038450498 0.005776167 0.0358233 0.06776894 0.04249575 -0.07850602 -0.05841051 0.060327813 -0.05704055 0.08077974 -0.012434408 -0.04870679 -0.033382505 -0.012001109 -0.08506241 -0.04166718 0.017973902 -0.09064834 -0.08164285 0.019793259 -0.006220553 -0.018111726 -0.069885254 0.027074533 -0.022352215 0.07908747 -0.06556185 -0.09008252 0.09003238 0.017415117 -0.06355028 0.041366696 -0.023956932 0.033421077 0.09228604 -0.039106462 -0.050915286 -0.051688332 0.029267125 0.03787437 -0.033920445 0.06418157 -0.08100182 -0.09094666 0.079501964 0.07803169 -0.08501519 -0.07192391 0.09201926 0.024470164 -0.060608335 0.08253914 0.0460314 -0.037635572 0.08169725 -0.06955482 0.014781472 -0.0070174267 0.017043078 -0.045731686 0.045248345 -0.01595638 0.037667 0.042223822 -0.031732924 -0.0691564 -0.07253426 0.018934648 -0.075034074 0.05091959 -0.030781375 -0.020870043 0.025605213 0.02371196 0.0539915 0.08067152 -0.08769811 0.06791293 -0.0814667 0.04218307 -0.031674765 0.00982972 -0.043364253 -0.002141804 -0.021435283 -0.062976845 -0.06590375 -0.020555528 -0.07259553 -0.08135536 -0.04144511 0.040960662 0.016910674 -0.07802868 -0.008467869 -0.0003103275 0.029330129 0.017185587 -0.047191557 -0.008705987 -0.007600553 -0.07779147 -0.060607444 0.05813672 0.07026702 0.0076634036 -0.024423894 0.066402 -0.02959471 0.022017514 0.048281956 -0.0128460415 -0.04482921 -0.02370862 -0.017694255 0.0019808845 -0.012128242 -0.048720684 0.033864673 -0.07285944 0.046899647 -0.061312243 -0.04799153 -0.009118277 -0.0555971 0.026987111 -0.071142614 -0.06455918 -0.01170935
cexp -2.4066772e-05 -0.024768643 -0.013832415 0.041653115 0.07735483 -0.010195761 0.066376895 0.0012306453 -0.047219027 -0.07840201 -0.011382876 -0.015185198 0.051247664 0.08020331 0.042032916 0.032923386 -0.018625734 0.0883353 0.042373948 -0.0719165 -0.018607689 0.07131854 0.079350784 0.027298987 0.06035185 0.03668665 -0.043542705 -0.016451355 -0.05000331 -0.01440102 -0.009264619 0.075332865 -0.049401466 0.054046348 0.064520374 0.06726268 -0.07514929 -0.06632778 -0.0020707708 -0.04076429 -0.075404756 -0.0010443691 -0.053742502 0.046782427 0.029480163 0.0043176045 0.010356579 -0.029628385 0.06940703 0.034604944 0.0190989 -0.013439247 0.04507036 -0.05767072 -0.028220028 -0.06646784 0.008214506 -0.05727967 0.022871036 -0.023984103 0.04779559 -0.07569547 0.0045891344 0.08553355 -0.019953718 0.05350138 -0.016137438 0.09238723 0.06682245 -0.01092783 -0.07758458 0.003797634 -0.0744496 0.0278319 0.0537113 0.026248688 0.07830079 0.017224798 0.024015507 0.013873878 -0.0054757725 0.07792547 0.031940512 -0.036351983 -0.029300597 -0.07804684 0.06761755 0.014517593 -0.045520216 0.06650932 -0.04139037 0.025395192 -0.052779876 -0.00870285 -0.06701269 0.013636922 0.055882674 -0.050375063 -0.062479466 0.074819855 0.05241379 0.079513036 -0.056884896 0.076665305 0.054008417 -0.03034864 0.027910324 -0.03576911 -0.041023925 -0.06679869 -0.074699 -0.0072358428 -0.071857125 -0.022273883 -0.0414981 0.062414464 0.0111110695 0.07072216 -0.0209381 0.006390075 0.00893386 0.06518953 0.022916697 -0.015577406 0.012203747 0.06300107 0.085575975 0.05831362 -0.026187759 0.055537388 0.07383213 0.0008311567 0.086171836 0.09354856 -0.0788543 -0.008528909 -0.016580986 0.0035221078 -0.062146176 -0.054415837 0.03965866 -0.058690242 0.027337348 -0.052905664 -0.051582202 0.0024989215 0.041401144 0.016906042 0.010381157 0.07695682 0.083761334 0.080982454 0.04803621 0.0645405 0.041599695 0.06718051 0.07531395 0.052859206 -0.048231263 0.031884372 0.011341179 0.05321457 -0.057969693 0.067519866 -0.05922867 -0.07407423 -0.07464019 -0.009296312 -0.008777756 0.050445464 -0.018398324 -0.084479176 -0.015247834 -0.028612316 -0.08681626 0.00026925112 -0.0575209 0.019104397 0.06512613 0.028617108 -0.026954131 -0.001548069 -0.03110938 0.069218576 0.028068662 0.07085624 -0.0503803 -0.0645343 0.00893888 -0.017560566 0.02486084 -0.0075985664 0.018622166 0.057749677 0.011396933 0.014014939 -0.059980147 0.057889357 0.045377675 -0.06950225 0.041828267 -0.06972606 -0.03473824 0.07995357 0.07835464 -0.011948995 0.06039549 0.06658137 0.041529007 -0.058638413 0.006395377 0.023541255 -0.033179134 0.08494732 0.042678736 -0.077452146 -0.062404905 -0.055569205 0.040364306 0.08138607 0.003255142 -0.09164009 -0.020439526 -0.067484856 0.021061981 -0.024853949 0.048656642 -0.03533095 -0.02177641 0.04990484 -0.06308506 -0.01933339 0.056605462 0.00468982 0.03324586 0.030991461 -0.03482528 0.03425315 0.027070258 -0.035362374 0.018272053 -0.016785577 0.007780792 0.013136688 -0.036542516 0.017886832 0.024716748 0.020897334 0.017170971 0.06396527 0.015843444 -0.011693166 0.08498126 0.06385714 0.0036125383 0.05017709 -0.0018027545 0.089103945 -0.0045225294 0.014453487 -0.015195874 -0.014275931 -0.09309998 -0.013265394 0.058365162 0.028829258 -0.08451911 0.08870114 -0.086337306 0.009066576 0.0071575763 -0.0874862 -0.013535996 0.0630928 0.05761821 -0.0029908794 -0.0022688222 0.004064146 -0.05914983 0.0914981 0.02127049 -0.029654374 0.0783852 0.010027484 -0.06856173 -0.021663018 -0.00811432 0.009135752 0.010752903 0.037596323 -0.01613137 0.0013557991 -0.092886634 0.06817684 0.016729575 -0.058080208 0.005404933 -0.0034362846 0.027713783 -0.0305413 0.051690485 0.044823915 -0.035139892 -0.025415363 0.048839197 -0.007936393 -0.010045061 0.07144613 -0.038026072 -0.030393325 -0.075681455 0.0036795535 -0.021068297 0.045767743 0.03991113 0.06782533 0.073529385 0.0019657402 -0.03148614 0.023170177 0.07202324 -0.049528576 0.060856618 -0.019241655 0.07181499 -0.020107998 0.07632873 -0.074031025 -0.08202166 -0.05710175 -0.08002432 -0.018192535 0.065020494 0.07147517 -0.05243289 -0.00346479 -0.014558471 -0.019548584 0.044859048 -0.014310049 0.0064623686 0.004188099 0.07994906 0.022491768 0.05560837 -0.06738764 0.021171672 0.06629071 -0.057966817 -0.071830496 0.011215021 -0.07319806 0.08123487 0.04936035 -0.055349726 -0.049234007 -0.069954135 -0.0542009 -0.051172778 -0.028172648 0.03339672 -0.04239883 0.0626843 -0.022022998 -0.09267073 -0.039055604 0.061626453 -0.057242062 -0.030729158 0.0099194255 0.09330136 0.024846015 0.024396034 0.010519631 -0.017189337 -0.018410249 -0.057446208 0.087649256 -0.08085524 -0.0016338703 0.05613122 0.04727548 -0.032191593 0.040701948
fmodl 0.09158921 0.07926488 -0.016135668 0.08118898 0.059623215 -0.031860456 -0.0010125352 -0.02674786 0.074328706 0.035707023 -0.035836186 -0.020860327 0.008331007 0.029557724 0.022074964 -0.077968754 0.0021692826 0.03643302 -0.03160142 0.07335469 -0.04209906 -0.014070078 0.050429285 0.028622657 -0.06797031 0.039542157 0.038828906 0.020930883 -0.05763927 0.034870483 -0.06611962 -0.09100403 0.08558088 0.055461902 -0.06723239 0.04359531 -0.052325852 -0.0046515376 0.087946795 -0.089699924 0.014824143 0.03219137 -0.039566617 0.041211538 -0.06747631 0.05011542 -0.02821078 0.07903444 0.008755691 0.053209428 0.0700057 -0.03830375 -0.053723313 0.025956197 0.0017582405 -0.034993928 -0.030473597 -0.0057027303 -0.077417955 -0.030004306 0.045831762 -0.01264089 0.021513982 -0.0772379 -0.017875675 -0.07267893 0.05755423 -0.03979153 0.068265624 -0.071721576 -0.0021213111 -0.08543674 -0.040805593 -0.07407975 0.06472618 -0.001553659 -0.08068962 0.007300187 0.007948491 0.028743165 -0.06311268 0.020944174 -0.06030509 0.025868697 -0.017092668 0.056255445 0.0290057 0.031014271 -0.039972834 0.08777443 0.041418195 0.032024197 0.03251869 0.079505034 -0.0700005 -0.026056174 0.051048793 0.036498442 -0.046545252 0.030831983 -0.058088873 0.060366627 -0.06320524 0.06681896 0.00010452472 -0.054701485 -0.009705443 0.08040452 0.06835459 0.014307362 -0.0784581 -0.027241817 0.08422219 0.076801814 -0.012530317 0.010139478 -0.030259356 -0.08327669 0.051315147 -0.0591568 -0.055679508 0.0101431385 -0.05335853 0.0749985 -0.072361864 -0.06397899 0.040423423 -0.012028165 0.032205734 0.029356804 0.060505174 -0.08573617 0.068443194 -0.071977675 -0.0070179948 0.06550153 -0.046871934 0.08005448 0.068550184 0.090455756 0.018907739 -0.0029825894 -0.072949156 0.050669022 -0.08192618 0.014873674 0.026754092 -0.045992978 0.06901384 -0.030486092 0.0074360725 0.06578398 -0.061635435 -0.010639816 -0.076379925 0.054278743 -0.019757234 -0.0065811216 0.051693358 0.0052246014 0.09221456 0.08053688 -0.0507924 0.06764059 -0.037869524 0.006676987 -0.072840475 0.020450247 -0.055945758 -0.03803594 0.018480845 0.045659058 0.08333812 -0.040149234 0.013733433 -0.06370657 -0.0715652 -0.08349844 0.040103003 0.08000287 0.0054512513 -0.029473875 -0.036483962 0.081851564 0.009285378 0.08329302 -0.009423521 0.004656595 -0.036088318 -0.030292453 -0.035847634 0.0427503 -0.010666831 0.07698556 -0.022394614 0.033601806 -0.018779334 -0.061526034 -0.065586604 0.023241322 0.008948489 0.039286252 -0.07318802 0.06070189 0.017373402 0.017838938 0.07157532 -0.069231674 0.058597594 -0.005512464 -0.01826645 0.026446696 0.02444846 -0.074570954 -0.023336519 -0.02307755 -0.05938846 0.0142108165 0.014952409 0.059585016 -0.05109294 -0.07071674 0.0021715332 -0.028836625 0.057811927 0.024890404 -0.027752146 0.025836317 -0.0530352 0.06815255 0.065346844 0.03233862 0.06745933 -0.04523548 -0.028592775 0.051565547 0.07547877 -0.063698426 -0.015077947 -0.021466522 -0.02958778 0.0043662013 -0.08467319 -0.02434238 0.036320012 0.03285 -0.078548454 -0.061723415 0.0036025457 0.045226455 0.0071819006 -0.078890584 0.027864905 0.06594271 -0.045796957 -0.074358076 0.08986563 0.021552647 -0.057047997 -0.0183718 -0.032829702 -0.044027098 0.07500491 -0.03920847 -0.056749195 -0.058020998 -0.009518072 0.0802863 -0.08501321 0.016766863 0.01762412 0.027244737 -0.049360648 -0.00022975414 0.07689256 -0.07653039 -0.08269598 0.052251123 0.0686368 -0.06600652 0.08809136 -0.07794401 0.047406387 -0.020990463 0.0071350234 0.042561438 0.054992236 -0.016791536 0.014989528 0.037000116 0.08935298 0.048617754 -0.03847663 -0.06832296 0.016828788 0.049254593 -0.023981573 -0.051003985 -0.04738972 0.003297543 -0.019007452 -0.086620435 -0.02217804 0.046815306 -0.048558623 0.024104556 -0.013120278 0.027513927 0.0071961153 -0.00066539156 -0.06914106 0.08314374 0.08393172 0.08347661 -0.023878153 -0.016069265 0.06774792 0.07912358 -0.05421686 -0.024791757 -0.019644883 -0.055651613 -0.08007742 -0.025456218 0.019104246 0.08200142 -0.0068812924 0.00058959523 -0.08310347 0.06610519 0.07766573 -0.022276133 -0.07359525 0.065044284 0.05162487 0.07455738 0.090876736 0.04566419 -0.0002626864 -0.018675474 -0.050153915 -0.05272558 0.032313805 0.067194045 0.030399531 0.07720882 0.017578555 -0.061294522 0.01803725 0.03962596 0.06893408 -0.024443345 -0.049799502 0.013055341 -0.0096706 -0.0049180426 0.046521954 -0.048423003 -0.02252155 -0.063973136 0.020770261 -0.05896068 0.06006489 -0.08835293 -0.028611165 0.041114215 0.078129195 0.036437213 -0.0076747667 0.05208381 -0.07713868 0.06292317 0.024659421 -0.0061359564 0.03255515 -0.040274013 -0.024835939 0.05283284 0.024917878 -0.061956555 -0.052945368 -0.06595181 -0.005669802 0.080396995
print|max|error 0.038722076 -0.023005687 0.060698394 0.071743116 -0.031716242 0.07420467 -0.0033556125 -0.076684825 -0.05014391 0.06631811 -0.03203734 0.058147013 -0.0012744708 0.04216789 -0.0149185285 0.06418452 -0.049331386 -0.029498596 0.08836258 0.00049570476 0.011296511 -0.011566342 0.078607425 -0.07485495 -0.07627945 -0.054151345 -0.040514328 0.037344217 -0.07384614 0.091997705 0.003722341 -0.07456666 -0.0037030727 -0.050135285 0.08185888 0.07215476 0.048471015 0.0015381317 0.0011068266 -0.026740642 -0.0779279 0.024072178 0.040706202 0.07599592 0.018651968 -0.056475174 0.012553273 0.08387716 0.0063037616 0.07695491 -0.028115302 -0.062344324 0.0085742865 0.05212543 -0.0706266 0.042414602 -0.052643966 -0.019378332 0.03635798 0.042225353 -0.055904854 0.036657296 0.090498134 0.039674133 0.029356439 -0.06800192 0.078170255 0.083229974 0.06733588 -0.012184165 -0.07067639 0.01976979 0.03712767 0.0059410874 -0.04088432 -0.08769961 -0.04426363 -0.07309936 0.03910959 0.059146922 0.03895386 0.07302646 0.07127555 -0.083085 0.07955627 -0.039214138 -0.06426817 -0.091400646 -0.038000073 -0.06311719 0.061650235 0.057804953 0.09330175 -0.07815557 0.020290095 0.0072039654 0.011929796 0.06697712 -0.03630191 0.010921776 0.01569764 0.04741481 0.05754703 0.047141608 0.019213561 -0.052284993 -0.049359817 0.058662817 0.063332886 0.054421928 0.072079524 -0.0011457868 -0.035096765 0.06069885 -0.09258713 0.07121944 -0.022785183 0.023427011 -0.056909867 -0.0441489 0.0031238555 -0.00823237 -0.008667592 -0.0143423835 0.031363726 -0.06441909 0.05432296 -0.055548374 0.07990794 -0.07356769 0.009563638 -0.07648984 0.07302153 -0.025732622 -0.02458308 -0.01647155 -0.02585763 -0.07618712 -0.017840413 0.06651555 -0.038492315 0.008760918 0.035830688 0.06859292 -0.07464489 -0.07573287 0.0334656 0.007012856 0.028784355 -0.021213327 0.017440028 -0.06624842 -0.012044707 -0.078878865 0.03569628 -0.06886312 -0.08256188 0.05693111 0.0044653155 -0.056568496 0.020629803 0.0037410294 0.08194979 0.040778402 -0.059476566 0.08962073 -0.03330045 -0.028813992 -0.08320897 0.07258491 -0.05771022 -0.026034089 -0.0068854457 0.008708013 -0.02339556 0.08125796 -0.07079181 -0.009513538 0.008995312 -0.0025175293 0.06270142 0.052439135 0.06772643 -0.06464422 -0.03738498 0.020428661 0.008497253 -0.010564303 0.087241955 -0.0038672932 0.090911314 -0.0012337635 -0.01967013 0.056082025 -0.09198272 0.08222835 -0.07466627 -0.08738214 -0.05112476 0.009155898 -0.014551407 0.07416502 -0.023501176 0.082125455 -0.07793735 -0.07436077 -0.051233593 -0.02393077 -0.024564512 -0.079815954 0.08186693 -0.03610197 0.03998739 -0.010367017 -0.029882107 0.056761745 -0.09368745 -0.034454454 0.023276426 0.019841865 -0.07476869 -0.08160972 0.0052762893 -0.051188726 -0.06805552 0.064206116 0.08830724 -0.067533255 -0.043436132 -0.0073785484 0.0034851723 -0.020209065 0.08251156 0.0143496115 0.058199514 -0.006689458 0.035558548 0.049457673 0.058878355 -0.043342903 0.029209508 0.086989835 0.09197927 -0.03197965 -0.050125092 0.037631243 -0.032620374 -0.04766105 0.012279113 0.022445787 0.084885724 -0.033270437 -0.029849691 -0.018038502 -0.007972665 0.023397746 -0.08047226 -0.05499699 -0.02535399 0.019592233 0.051722195 0.021801986 -0.010712103 0.05633029 0.061080888 0.022074236 0.06338529 0.018662244 -0.05084666 -0.010216945 0.055230863 0.0046965266 0.0298811 0.014067297 -0.054228067 -0.059397228 0.075738706 -0.05315906 -0.09310219 -0.04670482 -0.025625197 0.054350484 -0.062236007 -0.015827358 0.042690497 -0.06425236 -0.040683348 -0.06601081 0.06448777 -0.05329837 -0.067997366 -0.05556765 -0.045413774 0.045703515 -0.011786804 -0.066820756 -0.03618186 -0.037263643 0.050935272 0.008026026 0.08123263 -0.07617345 -0.07252572 -0.06198069 0.036145415 0.04982912 -0.030903844 0.07792962 -0.011159346 -0.030897249 -0.09101238 0.03589431 0.061908696 -0.058636766 0.071005195 0.05276919 -0.043986917 -0.016787998 0.0016733138 -0.015148712 -0.04143492 -0.05694006 -0.024955876 0.01893574 -0.015190938 0.030453209 -0.040180817 -0.044527788 -0.02616368 -0.039401975 -0.04724731 0.06800991 -0.06511723 -0.06936199 -0.0070785442 0.0055794246 -0.063851245 -0.048982773 -0.035293832 0.06232466 0.006649252 0.06292275 0.016642181 0.011951995 0.05668882 0.010789191 0.0030385754 0.03787558 -0.07625204 0.057914265 0.025025003 -0.041728154 0.07175442 0.07000519 0.076157436 0.082030125 -0.06957225 -0.081225395 -0.010558598 -0.052055657 -0.05424554 -0.06484812 0.0815092 0.069714725 -0.07727147 -0.053632163 -0.030679844 0.035025027 0.039271574 0.07478195 0.082682826 -0.05000221 -0.040947583 -0.0115159275 0.048396118 0.026607811 -0.06458098 -0.06879549 -0.06806366 -0.07339935 -0.020315403 0.01373379 0.04048241 0.012518698
scalb 0.005429943 -0.00580089 -0.052320942 -0.018954718 0.016377674 -0.013346048 0.04075108 0.0699255 0.0005764015 -0.06108235 -0.012127284 0.07661281 0.0085672485 -0.077957615 0.051687755 0.076699644 -0.014946773 -0.014889538 0.049444295 -0.04503953 -0.03464222 -0.049066104 -0.040502988 -0.07553588 -0.007875432 -0.05893936 0.021112503 -0.05697618 0.081311546 -0.011967313 0.0616979 -0.08070204 -0.035327997 -0.047515605 -0.0582545 0.013116585 -0.028867254 -0.053373493 0.011619155 -0.07726604 -0.06706458 -0.073343165 -0.055617414 -0.074327946 -0.036663342 -0.04042643 -0.057103653 -0.03332314 -0.06667694 -0.021913646 -0.05639657 -0.08229456 -0.005438538 0.04358807 0.011298382 0.0015785822 0.0013763951 -0.031391293 0.07166395 0.08235326 -0.06912273 -0.075544626 -0.031004129 -0.049051687 0.024916906 0.008756983 -0.044666138 -0.07309211 0.0038993615 0.044308364 -0.08639761 0.020963518 -0.0035337936 -0.010808259 0.041759726 0.04435984 0.049890865 -0.015336363 0.06695503 -0.036440793 -0.016851254 0.06351312 -0.032947585 -0.060547233 -0.015293938 -0.07953903 -0.078798786 0.02951046 -0.08467388 0.089958355 0.088340886 0.09346832 -0.039699547 0.032799546 -0.0005391505 0.061212555 0.0010942083 -0.0840939 0.04962718 -0.060139053 -0.041356858 0.067611106 -0.018329525 0.051060345 0.04997844 -0.04016284 -0.019962218 0.016991109 0.08109789 -0.015610431 -0.08490405 0.0015435749 0.020267513 0.019295495 0.048172045 0.011705427 -0.048482668 0.04459501 -0.08801278 0.0009890727 -0.060428597 -0.072175935 -0.03929492 0.060265616 0.0006893175 0.083583534 -0.06669354 0.054318774 0.008913554 0.0045391526 -0.027644385 0.0037060315 0.07122669 -0.046999313 0.05159262 0.024300858 0.07921471 -0.057433117 0.014065735 0.0072840797 -0.026677221 -0.057366632 -0.0067421813 -0.0041542468 -0.004479938 -0.04514602 -0.07702707 -0.033178322 -0.006889736 0.0002725185 -0.022841733 0.0402444 0.007785209 0.024999112 0.017154105 -0.0136491405 0.008454192 0.041804966 0.054802045 -0.04749048 -0.02728877 -0.026296042 0.0073950477 0.050241616 0.055814236 -0.06559409 -0.05319089 -0.013921355 0.053913772 -0.044651605 -0.04699942 0.0074158437 0.07823689 -0.054960404 0.064348795 0.003466146 -0.057117205 -0.07274854 -0.027894327 0.0021047194 0.062429864 0.031311486 0.06596431 -0.022812145 -0.06610822 0.061454937 0.03976837 -0.053190526 -0.0020158933 0.05836372 0.016145311 0.033163704 -0.0013195061 0.07606221 -0.010523039 0.0812374 0.036386497 -0.07412667 -0.0376747 0.067129515 0.08330779 0.023741454 -0.063186444 -0.05819759 0.031526655 0.049942482 -0.06045513 0.021902222 -0.026498996 -0.051588688 -0.033307817 -0.086116225 -0.0070693553 -0.07312116 -0.019344633 0.0649888 0.02486414 -0.09097472 0.053168565 -0.030549342 -0.004769687 -0.078580335 0.020936335 -0.064549096 -0.03776831 -0.021454887 -0.05940064 -0.020039292 0.07323806 0.044268645 0.028978894 -0.0476849 0.0695439 -0.019198881 -0.08042688 0.023166507 -0.044697087 0.027294794 0.03824301 -0.06537221 -0.0035834243 0.027237447 0.0044038887 -0.02363058 -0.09128963 0.059436504 -0.014845519 0.02065078 -0.01828822 -0.059186485 0.053219356 -0.039175276 -0.013051437 0.07860002 0.009582226 0.013931518 0.03211363 -0.028947745 0.03667054 -0.0610338 -0.09219696 -0.056237925 -0.02628082 0.02256208 -0.045374062 -0.03880954 -0.06706581 -0.057971686 0.0010159994 -0.05392524 0.08285015 -0.08519664 -0.041241586 -0.048677325 -0.00669585 -0.05832296 -0.06145224 0.0054481816 0.023568463 0.025625322 -0.034481123 0.082888216 -0.0572941 0.090232536 -0.008074834 -0.038824532 0.019426627 -0.015531679 0.025027588 0.07253844 -0.04484385 -0.015794761 -0.07440627 -0.04790025 -0.05602671 0.07369319 -0.045285914 -0.005533368 0.091157116 -0.039165337 -0.033607315 0.084565975 -0.058883872 -0.063077174 0.020904498 0.03097844 -0.093892284 0.07342783 -0.059131317 0.005053685 0.07047343 -0.06420658 -0.03594139 0.021729799 0.009743897 -0.087706394 0.004001899 0.03676106 0.020160306 -0.08009814 -0.08338837 -0.0045777983 0.042959053 0.038696285 0.009929456 0.046404917 0.03860428 -0.033402808 -0.064989306 -0.026080074 0.023789752 -0.051873203 -0.043763272 -0.04838738 0.032395814 0.025005477 -0.023792606 0.064075544 -0.014519483 0.08134076 -0.04408538 -0.036514856 0.07729712 -0.066735506 0.05684835 0.0039513865 0.030423097 -0.09098374 0.03274317 -0.015287793 -0.033356294 0.050756466 -0.020030785 0.021285426 -0.07631314 -0.04754493 -0.063931696 -0.081189245 0.07900604 -0.060085427 0.027177285 0.030582873 0.0013558674 -0.022960339 0.051450666 0.0012497131 0.04655133 0.0639954 -0.02326441 -0.060787342 0.05724747 -0.07919596 0.01252245 0.05535143 -0.07968354 0.04023946 -0.07271866 -0.03190635 0.012714651 -0.0061307456 -0.0216361 -0.065902114 -0.080687754 0.053430773
adjust|real 0.012195614 -0.02548033 0.021891238 -0.074725345 0.03882578 0.06306261 0.084213436 0.04891309 -0.016374677 -0.056087926 0.052019022 -0.0076503875 -0.009075969 -0.018564425 0.0102862995 0.045524675 0.059291538 0.07583728 -0.036067374 0.051142275 -0.056863986 -0.06064336 0.092369564 0.062385593 0.0054658297 -0.04769015 0.053488664 0.022051126 0.076461054 -0.072519496 -0.0047962256 0.02102123 -0.05618122 0.06768255 0.0062510306 -0.0241492 -0.033146404 -0.019476747 0.018613772 -0.0060045724 0.027174227 0.022196332 -0.012444428 -0.041667417 0.07977475 0.049056865 -0.0034062795 -0.005776656 -0.040285863 -0.015904838 0.079822876 0.025916334 -0.074892834 0.0656737 -0.008774872 -0.03234612 0.060038537 -0.030201407 0.0798535 -0.014086818 -0.0027072334 0.0010583214 0.06978564 -0.060506515 0.057265736 0.00026432477 0.05079305 -0.042780828 0.03467792 0.010260949 -0.055022325 0.01512121 0.048612595 -0.0021450191 -0.09300014 0.022813579 0.03842974 -0.053036626 -0.07014819 -0.04698179 0.018386528 0.0473437 -0.07062179 -0.08365748 0.037572604 0.04991756 -0.044423524 -0.017686091 0.0102831805 0.08215298 0.05139137 0.045763496 -0.03375844 0.03337698 -0.014934681 0.08689455 -0.044974513 -0.043109365 -0.08272988 -0.055534784 0.06830908 -0.0696469 -0.045750342 0.0011380223 -0.07340549 -0.04424108 -0.018145105 0.0043541538 0.06581466 -0.050062485 -0.07386841 0.036975995 0.020815646 -0.004222339 0.007760385 0.02603421 -0.011115866 0.06040524 -0.07843769 -0.022712654 0.0637891 -0.061908003 0.014502369 -0.011076355 0.027761199 0.03780532 0.0007556349 0.07370607 0.00074719894 0.009972653 -0.07100785 0.023409113 -0.03468565 0.01617982 -0.0005095716 -0.050520908 -0.07593296 -0.030292828 -0.07465722 -0.04861209 0.082726665 -0.074687265 -0.028018642 0.07752449 0.031043606 -0.011787895 -0.054059703 0.055853005 0.03490516 -0.05819034 0.065314606 -0.060754962 0.03070166 -0.04200098 -0.0063998452 -0.046416868 0.022050612 0.008614805 0.0052679973 -0.047856867 0.004857846 0.022105712 0.079385616 -0.02051744 0.018147012 0.06596434 -0.06677277 0.024642661 -0.027947625 -0.03803121 0.0005476319 -0.046752222 -0.049103286 -0.03608926 -0.01630904 -0.010473787 -0.049337056 0.047243126 0.017987886 0.035318192 -0.077078074 0.052826494 0.058273144 0.008605093 -0.07399057 -0.019916322 -0.07185557 0.0054731667 0.033413976 -0.083175965 0.043971978 -0.043453276 -0.03777893 0.042864896 -0.067940086 0.06074485 0.027554724 0.038438454 -0.012875646 0.04353106 -0.0418431 0.0062864237 0.015875293 0.0881641 0.00059469824 -0.049038216 0.071968116 0.06912645 -0.062425595 0.059945587 0.050909393 -0.021062944 -0.07264636 -0.017403923 -0.01822721 0.09182107 0.014677948 -0.03809575 -0.026371183 -0.011038955 0.049359065 0.053386055 0.050400786 0.0617512 -0.01466548 0.08163568 -0.021868458 0.005523801 0.008250756 0.027516685 0.082797416 0.0685392 -0.08296853 0.08009884 0.023572754 0.0378449 0.05198086 -0.016969526 -0.05022646 0.07820539 0.03183666 -0.09248174 -0.047585182 -0.015292265 -0.0020204037 -0.043757595 0.05075774 -0.03622725 -0.055017665 -0.044908363 0.0049845246 0.037460133 0.044575002 0.0302051 0.031689554 0.04383988 -0.07958356 -0.0022282167 0.07635565 -0.07370243 -0.024338277 -0.020093199 -0.07749621 0.06857143 0.0886871 -0.055199806 0.0018306104 -0.0070821345 -0.0498659 -0.08229157 0.06847071 0.08174748 0.07323165 0.05581368 0.03333346 0.05351682 -0.011903619 -0.059853747 0.03704131 0.04947639 -0.025501056 0.0025568027 -0.056062814 -0.054852214 0.027256953 -0.09131078 0.039114945 0.0004680134 -0.06510994 -0.046995774 0.06281186 -0.036414396 -0.08450765 0.041455645 0.042902306 0.022577561 0.06042503 -0.068729356 0.07194993 -0.07176614 0.07030919 0.02637926 0.021292655 -0.054870132 -0.05976379 0.076291434 0.049119685 -0.0709014 -0.043527927 0.026222931 0.014330156 0.007458419 -0.07730885 0.041233286 0.017531361 0.017191112 0.07606707 0.00021338766 -0.051108025 0.04568339 -0.04318882 -0.039068636 0.05841248 -0.053819798 0.024711639 0.09145921 -0.09149288 0.049384214 -0.0026635835 -0.043132227 0.04150588 -0.07428348 0.07717945 -0.0010813539 -0.011642709 0.0702741 -0.04488428 0.010772143 0.004787981 0.0044011325 0.003762212 0.07740805 0.090299584 -0.010754282 -0.049913466 -0.07103414 -0.0131155215 -0.08284703 0.057486407 -0.06978019 0.066096656 0.08392642 -0.009730672 0.07740972 0.036805913 0.022851788 -0.073344134 -0.036662064 -0.08669149 -0.050537597 -0.06278394 0.04058858 -0.07367135 0.03146891 0.018174054 0.091254264 -0.025694504 0.07663968 0.06570454 0.07992921 0.049178574 0.05567849 0.021368371 -0.05889979 0.0039257146 0.07564564 -0.06428635 0.035950102 -0.018777512 -0.046538886 -0.07758741 0.06211354 -0.048416637 -0.07274897
test|fesetexcept 0.0005277166 -0.016270509 -0.0048447736 -0.02337762 0.0078636035 0.05451752 0.0407535 -0.055854194 -0.0017028386 0.03695935 0.057344183 -0.029561885 0.079123035 -0.03147742 -0.061029516 0.029292118 0.06665531 0.053639896 0.0477056 0.06324376 0.022369446 -0.033470638 -0.07729736 0.01611503 -0.07706444 -0.056841597 0.058648985 -0.055250835 -0.062026076 -0.053155754 0.010020346 0.05539685 -0.005188347 0.0036701695 -0.000150287 0.07334782 -0.017837202 0.00363838 -0.0034227194 0.01533372 -0.018268017 0.050078504 0.02138406 0.0252411 0.033198792 0.0670184 -0.014446418 0.015210593 0.022243025 0.028007867 0.030690227 0.01320505 -0.005247325 -0.038296733 -0.00977217 -0.006170811 0.0043529156 0.049066696 0.043607086 0.020177344 0.008424515 0.010130617 0.081961825 -0.033324573 -0.06382293 -0.045575004 0.019478709 0.07348739 0.08892133 -0.017840406 -0.07577229 0.0084601985 0.046623033 -0.05896663 0.049671292 0.08190672 -0.076230004 -0.051093493 -0.043612555 -0.054440856 -0.045198705 -0.011474954 0.019362556 0.027000057 -0.069539875 -0.004471425 0.036170337 -0.069120735 0.0123589365 -0.051596224 0.04874603 -0.057378832 0.07045259 0.030597162 -0.0119018415 0.041486148 -0.045022506 0.049788754 0.061269395 0.018035386 -0.05796976 0.07979544 0.03312485 0.035816304 0.048971478 -0.08430756 0.0795048 -0.01281509 0.046276733 0.04937811 -0.0463563 -0.018942384 -0.074820146 0.06155895 0.044006176 -0.023110181 0.06807504 -0.03530799 -0.004592972 -0.07816598 -0.08056339 -0.007081368 0.004108957 0.0217771 -0.06243804 -0.00079157355 -0.079183996 0.010248432 0.083255894 -0.035380866 0.07398774 0.060361926 -0.07383786 -0.0045368094 -0.063887425 -0.034498528 -0.010284781 0.028799118 -0.0024733036 0.08123728 -0.07500508 -0.054518256 -0.042733725 0.0011690888 -0.0764387 -0.0737277 0.069708906 0.03451761 -0.0046162317 -0.04790093 0.07117854 0.012198624 0.019375052 0.05797223 0.04965049 0.046122525 -0.086106524 0.024524191 -0.055741206 0.030629756 0.07191874 0.08644456 -0.054149933 -0.06583259 -0.06848818 0.03858113 -0.060729302 -0.08600277 0.038489282 -0.080094196 -0.090465814 -0.07673082 0.023019474 0.0512505 -0.02651592 -0.0076863924 -0.028191727 -0.048856076 -0.009695169 0.03158185 -0.041966252 0.030559765 -0.034960207 -0.01058822 0.016619878 -0.045892768 0.021657433 -0.029943453 0.043695368 -0.062801614 0.050610557 -0.039562933 -0.071936995 0.021211706 0.061315108 -0.054493085 0.09290219 0.0742284 -0.0427319 -0.014101289 0.010093756 0.0035705392 -0.067320965 0.08683021 0.04657093 -0.07873601 0.07353692 -0.0738147 0.051923122 -0.07898694 -0.0427375 -0.033235464 -0.052998602 0.07701057 -0.032410394 0.030252535 0.021306003 0.030524222 -0.06628358 -0.08853518 -0.002446678 0.044339836 0.015826495 -0.025281735 -0.0007253659 0.001500203 0.014683501 -0.043899957 0.03909326 -0.03909296 0.08620041 -6.027863e-05 -0.047542803 0.08339767 0.043041356 0.046321444 -0.016513966 0.028901288 -0.04770285 0.055343848 -0.05729637 -0.013111144 0.06905956 0.06717546 -0.019126844 0.07604537 0.046953328 -0.06357712 -0.061349988 -0.031165194 0.016604679 -0.042649657 0.06887065 0.08378517 0.020163788 0.014719187 0.07459841 0.029603688 -0.05414748 -0.048316933 0.08158814 0.034554042 0.016252553 0.02894373 -0.07016086 -0.04521631 0.053863328 -0.029753592 -0.026276417 0.07261386 0.016978309 -0.04189873 0.033544462 -0.058210142 0.073699705 -0.009427089 0.0045867483 0.014623131 0.067537636 -0.030583756 -0.008016099 -0.0041015428 -0.08371597 -0.090275355 -0.0019830368 0.018948074 -0.0473494 0.019020256 0.033928387 -0.027725078 -0.0071811145 0.032624036 0.022352053 -0.03774234 0.021332605 0.072557785 -0.03523047 -0.060257 0.04233551 -0.0751902 -0.066760026 -0.0039148834 -0.092393816 -0.056448568 0.019116571 -0.069967404 0.052488044 0.03448145 -0.058948644 -0.002473843 0.03128113 0.07272042 -0.03361411 0.03342414 -0.07491767 0.070829526 -0.052414063 -0.029225236 0.08068788 0.07380263 0.059459407 -0.06264013 0.04372382 0.06886766 0.032372575 0.0744002 -0.07945261 0.049118046 -0.04433916 -0.026705747 -0.004250917 -0.056546852 -0.058316857 0.02097372 -0.076082595 0.076862514 0.08704149 0.044565108 -0.045866154 0.06802288 0.0011889567 -0.06387369 -0.057643827 -0.026676154 0.032226466 0.07098837 0.018001191 -0.003723999 -0.072102234 -0.0267776 -0.017565185 -0.005406122 0.035590604 -0.08437403 0.018631635 0.08828734 -0.03823299 -0.017350681 0.07711482 0.07309607 0.03834794 -0.056595895 -0.07188175 0.074049376 0.07353002 0.064626694 0.042954795 -0.046954207 -0.07579867 0.005422144 -0.013984345 0.06982509 0.08192543 0.034348667 0.045780353 -0.003667459 0.032452885 -0.059131924 -0.072549514 0.037247892 -0.039487932 0.0040820576 0.044448096 0.04523871
run|tests -0.026793132 0.038887404 0.043667916 -0.042158246 -0.06519123 0.061052848 -0.0056814924 0.0863603 0.015550741 -0.07172332 0.0096677 -0.019654248 -0.029830037 -0.07731009 -0.0037251739 0.048814166 0.011185652 0.029316908 -0.06199959 -0.06548194 0.047103252 0.04983313 -0.06278221 -0.0834667 0.055095457 -0.07267038 0.07999324 -0.08027925 -0.0066915886 0.05570527 0.04349855 -0.035956357 0.055475652 -0.059571743 -0.012663806 0.004484564 -0.035838556 0.03969648 -0.038534947 -0.040007085 -0.06368684 -0.05708707 0.018917687 -0.018317569 0.033441305 0.06526772 0.07634242 0.06711738 -0.069262944 0.0653384 0.052542992 -0.047589544 0.043312587 0.08906117 0.09146303 0.004046879 -0.052563496 0.015594823 -0.027877945 0.013696176 0.08614423 -0.04584512 0.070489265 -0.029154947 0.02589926 -0.03211869 0.027356092 -0.026937021 -0.08062415 -0.012689712 -0.018815888 -0.010007835 0.05946386 -0.033914596 -0.07223305 -0.09275797 0.013705365 -0.024024446 0.043861624 0.0735552 0.0014533091 0.043707855 0.001283204 -0.050809853 0.023540994 0.0648371 -0.03837557 0.07419254 -0.050844714 -0.0015813664 -0.025091115 -0.073564164 -0.048880342 0.04693751 -0.059639994 0.08143174 0.06523682 -0.02021849 0.060934663 -0.011417962 0.041279756 -0.07281123 -0.07517206 -0.038488172 -0.018834114 -0.026666146 -0.02100437 0.021025524 -0.06268506 0.016345683 -0.04023919 -0.036226187 -0.090285055 -0.049206786 -0.084766194 -0.05433777 -0.01492434 -0.0063713253 0.07678676 -0.012269763 -0.07896637 0.014121358 -0.056470457 0.011372518 0.0675895 -0.028223839 -0.07321782 0.052652463 -0.040147677 0.07890616 0.07705369 0.006392235 0.047171764 -0.089637086 0.04613346 0.008060623 -0.07317969 -0.08923257 -0.048525404 -0.06794939 -0.0058541256 -0.06436604 0.071682185 0.067309216 -0.016220054 0.06535109 0.05422071 0.07384229 0.016763499 0.06393999 -0.06714723 -0.021915188 0.011088103 -0.010894625 -0.008377995 0.014263611 0.009157275 -0.079512954 0.026067114 -0.07245092 0.0033014226 -0.042588137 0.043849275 -0.024846526 0.072948046 0.07463737 0.013379849 0.0021736496 0.027865821 0.08577799 -0.08184753 -0.02310638 -0.08243161 0.026838634 -0.071753204 -0.05611469 0.011185883 0.030138662 0.036850262 -0.091714755 0.070996284 0.08254478 -0.007841406 -0.012554991 0.034069207 -0.066941544 0.0615626 0.061769485 -0.0509153 0.062430535 -0.0042155916 0.024647783 -0.0039998707 -0.033591535 -0.050414648 0.026515065 0.0822637 -0.014037535 0.08282293 0.03551441 0.08254849 -3.122841e-07 0.02484173 -0.0022625697 -0.08212711 -0.07233258 -0.051928777 -0.08883852 0.058568858 0.0362555 0.055228673 0.016904734 0.06405215 0.032227844 0.006810204 0.07332072 -0.023076216 0.073903374 -0.05175878 -0.059546158 0.04067403 -0.018480822 0.0005175512 0.068911545 0.054250482 0.005409603 -0.009295166 -0.06875342 -0.011913128 0.06013786 0.03232598 -0.08382242 0.0757895 0.08794516 0.07221939 -0.05893509 -0.0800012 -0.054942265 -0.02550334 0.09037265 -0.045655172 -0.023596406 0.05992953 -0.067069925 0.034068804 -0.07436678 -0.029124187 0.06697586 -0.034655694 -0.026413206 0.015448217 0.021952232 0.08646808 0.03802604 0.073180586 0.073573954 -0.018773893 -0.0048303423 0.0177898 -0.053870622 -0.01710495 0.008810468 -0.008031594 0.012242708 0.0873829 -0.0577597 0.042828135 -0.023910265 -0.060565934 -0.01036619 0.030375928 -0.012048253 -0.016603008 -0.029857956 -0.03806671 0.06286286 -0.06530072 -0.03745357 -0.033949926 0.06019801 0.04801391 0.08657918 0.02013609 -0.0151685765 -0.002458165 0.014091337 0.0071361717 0.027146054 -0.003760464 0.06763287 -0.028927254 0.007971484 0.008586385 0.06215023 -0.046965852 -0.028562358 -0.026729139 0.08149657 0.02435088 -0.07626715 0.045224722 0.014292934 0.003723979 -0.045615576 -0.047813844 0.08302739 0.04172207 -0.026369356 0.026396109 0.044551175 -0.023062097 -0.061358586 -0.0696273 0.016679758 0.036734592 -0.0046621095 -0.06773433 -0.03567296 -0.04675029 0.0672551 -0.08329852 -0.04197717 -0.06487686 0.013517126 0.04737544 0.04104142 0.054079846 -0.07273685 0.04827302 0.022898262 -0.068581134 -0.054776017 0.02255134 -0.022162806 0.03537635 -0.0034780295 0.08947704 -0.016325468 0.006287065 0.06725266 -0.06244883 -0.045019086 0.030684937 -0.02357835 -0.08287573 0.06682283 0.036376264 -0.032320466 0.016489739 0.03313771 -0.077685595 -0.090007596 0.039534524 -0.038725704 -0.046567068 -0.07650233 0.0682529 0.01856939 -0.01593941 0.023174325 0.052935686 0.06149567 0.089854605 0.078928605 0.075251505 0.062557176 0.047902305 -0.009581621 0.0782309 -0.02644844 -0.04845344 0.07067723 -0.0052871048 -0.06297387 0.04967513 -0.067352965 0.010347055 0.020379484 -0.035333186 0.020802734 0.093271196 -0.034806315 -0.011220055 0.04274475
check|complex -0.081241645 0.06883374 0.023672163 -0.06335721 -0.02815477 -0.06470162 0.014317064 -0.034352586 -0.03844762 -0.0137561 -0.024047837 -0.060044486 0.05923345 0.055808276 0.012884996 -0.037141815 -0.056990642 -0.06820473 -0.002325143 -0.018368939 0.05895543 0.08449748 -0.012344778 -0.05880738 -0.06365486 0.060924035 0.034348298 0.018319894 0.07106896 -0.032973535 -0.072087556 0.04397822 -0.028441217 -0.017773507 -0.07607664 0.06417727 -0.0137023255 -0.019337961 0.053235058 -0.03776984 0.07296327 -0.020897163 -0.08480176 -0.04679342 -0.0070440196 0.03092529 0.035217736 -0.056365613 -0.041347846 -0.056279294 0.04624001 0.014672247 0.007903766 -0.05501614 0.029942147 -0.022533515 0.07098062 0.0539272 0.048828986 -0.011772796 0.07137276 0.04961205 0.006363381 0.0030575355 0.04663028 -0.06762248 -0.060266577 0.055296913 0.020258175 -0.0064818407 -0.043320127 0.014052448 0.03047049 -0.06463186 0.07419897 -0.056320317 0.029061854 -0.00200049 -0.034404896 -0.042342685 -0.059732147 0.06068699 -0.015268294 -0.047642138 0.056348834 0.046022166 0.08775733 -0.03500639 0.07140355 -0.040362403 0.056960363 0.07248187 -0.06384939 0.043480285 -0.0004173548 0.04134269 -0.042683072 0.040970728 0.05763553 -0.09201154 0.03062547 -0.07409058 -0.035194676 0.045752417 0.07547866 -0.022245422 -0.074922524 0.052531704 -0.07206067 0.002013171 -0.035158526 0.069379866 -0.018506404 -0.06570793 -0.02921848 0.01778799 -0.050321665 -0.04963601 -0.009051648 -0.06476689 -0.050062276 0.004760209 -0.07018765 -0.00055646 -0.06689851 0.010134103 -0.04305703 0.03375207 -0.06895116 0.08642831 0.06766389 0.08303518 -0.005445255 0.06266095 0.090569995 -0.065553926 0.06695162 -0.076084524 -0.0039050234 -0.0010817945 0.021634642 0.006447155 -0.074649915 0.011242282 -0.071093686 0.08172199 0.04860965 -0.0557267 0.043882273 -0.07962761 -0.04003382 0.059381068 0.07545746 -0.07085156 -0.025348414 0.059778694 -0.033620574 -0.016804326 0.06205613 0.011656549 -0.06422358 -0.044145565 -0.038660105 0.019945493 -0.061668452 -0.01288379 0.07866254 0.086531155 0.073955834 0.055602353 0.05499038 -0.01911962 0.010262589 0.06803323 -0.06874342 -0.015155896 0.058551766 -0.019285833 0.020494077 0.035370722 0.018528994 0.07100564 -0.05565454 0.044641644 -0.066401 0.01154785 -0.038410578 -0.017635275 0.08564604 -0.013903271 -0.03559967 0.04257091 -0.06787288 0.06101802 -0.091991596 -0.080987744 -0.027848303 0.056440078 0.08409549 -0.073637836 0.04080922 -0.0017041431 0.047233567 -0.048142795 0.04724424 -0.024295406 0.07002873 0.017867263 -0.074773066 -0.020327913 0.027063528 0.065549 -0.012864384 -0.0389692 0.07839709 -0.024803104 0.07876014 -0.061998744 0.0057108095 -0.08699251 -0.04267707 0.07378522 -0.04797401 0.01600596 0.018552579 -0.05962102 0.081504874 -0.065276384 -0.031413954 0.033014886 -0.042441204 0.07730634 -0.0522612 -0.029204266 -0.044338904 0.025172386 -0.04058551 0.0605058 0.022277812 -0.03489957 -0.06645392 -0.022872036 -0.045512773 -0.03177823 -0.041132964 -0.067792155 0.023085296 0.0661915 -0.06233622 0.017365139 0.085293755 -0.08892014 -0.07214172 0.03937665 0.06688933 -0.04653898 -0.066570595 -0.05387669 0.054747824 0.05158383 -0.068047106 -0.047864713 -0.02949272 0.034083553 -0.030399581 -0.015147391 -0.049877815 -0.013511213 -0.033390686 -0.08844502 -0.083937034 -0.062396746 0.05488112 -0.020352896 0.0384904 -0.051954046 -0.027076388 -0.07480942 -0.016318278 0.06443418 0.038806286 -0.008411486 -0.010201208 -0.03205877 -0.016753899 0.042701256 -0.018787824 0.073330276 -0.036033083 -0.028074363 0.025736405 -0.043334942 0.034373462 0.0051634577 0.05958188 -0.0051659276 -0.0806685 -0.07572915 -0.04676664 0.023861412 0.046770312 0.0792282 -0.025399629 0.0460524 0.060729742 -0.049998686 -0.0291131 -0.065209456 0.03217268 0.032120936 -0.04837385 0.07008798 0.0010552296 -0.034950074 -0.0014819123 0.088046774 -0.04213833 0.000587813 -0.04123528 0.013663195 -0.047266077 -0.09039734 -0.061632425 -0.08846894 -0.07210136 -0.080863394 0.043339215 0.004188192 0.08663256 0.008897267 -0.032814454 0.04903822 0.0658908 -0.03142523 0.03927349 -0.0025165982 0.0029943583 -0.039922368 0.045759756 0.07479408 -0.04940152 -0.057677045 -0.019938068 -0.014450518 0.041476153 0.022379203 0.07466028 0.041011706 -0.020317655 0.066681266 0.028231343 0.052592292 0.086806044 -0.044945642 -0.008178061 0.07471353 0.040828533 0.024362795 -0.056646034 -0.017290154 -0.026219318 0.023355931 0.073021665 -0.04309186 0.018052427 -0.0933392 0.072590806 -0.080134474 -0.076794334 0.017167289 -0.047057427 0.05481627 -0.0450722 -0.02963744 -0.03904286 0.06928335 -0.058288053 -0.0436095 0.07637302 0.023777604 -0.07497179 -0.08937641 -0.07158496 -0.029310454
check|int -0.047528677 0.068804026 0.08818968 -0.07813057 -0.001628906 0.01802064 0.0780519 -0.060758136 0.07544463 -0.06291713 0.012998054 0.030174805 -0.08567744 0.05992046 -0.08560306 0.01958623 0.068824954 0.07552523 0.0055357264 -0.07662556 -0.08263484 -0.016120557 -0.027221305 0.07393115 -0.03813256 0.06586955 0.008922971 -0.06345747 -0.06962003 -0.00020045968 0.061035793 0.06520267 0.043896966 0.043433614 -0.0722491 -0.049998906 0.06270891 -0.026385497 -0.0007215859 0.07754025 0.043412466 -0.054083038 -0.06957742 0.04915898 0.0011332431 -0.031854197 -0.025266398 -0.07457411 -0.0575933 -0.023368143 -0.020280158 -0.08016988 0.04640818 0.05019983 -0.04260769 -0.045162972 -0.043639537 0.038923588 0.017441351 -0.071880825 0.048073992 0.030718781 0.057250816 -0.08783146 -0.07534479 -0.06797656 0.047407556 -0.036284357 0.04622568 -0.030233998 0.08317769 0.018662348 0.054303702 -0.05689851 -0.07729673 -0.04961612 0.08356343 -0.060412694 0.08841984 0.044431143 0.07862235 0.042967513 0.068136305 0.018101972 0.0903957 -0.07762879 0.08578735 -0.029206911 -0.049594585 -0.029268378 -0.009039167 0.054398958 -0.06988133 -0.07028954 0.05120334 -0.034520775 -0.07335339 0.014970734 -0.069891445 0.07250763 0.016033147 0.06963434 -0.001976048 -0.068998575 0.03682267 0.03489381 -0.08862586 -0.010507118 -0.042656448 -0.06077308 0.014123596 -0.076706134 0.07323256 0.07920124 -0.09168705 -0.019700183 -0.06020653 -0.01604571 -0.0006566683 0.08062704 -0.0052436343 -0.052479684 -0.019545466 -0.045185495 0.054156158 0.08114667 0.06941513 -0.049145974 0.03754037 0.017934674 0.044065412 -0.063795194 0.06049482 0.032859564 0.037527617 0.07594011 -0.09084556 -0.022578657 -0.075751536 0.010887481 0.04296053 0.046281375 0.02397088 -0.07847208 -0.013690457 -0.0025680708 -0.011257499 0.07454609 -0.042996824 0.065556414 -0.01350155 -0.0024342996 -0.025657825 0.05657504 -0.0013227497 -0.003937955 -0.030416088 0.059350166 -0.045696925 -0.08789906 0.026915696 0.022468342 0.052645132 0.08299471 -0.014075298 0.071246944 -0.0010124664 0.06286025 -0.046535604 -0.047434714 0.076662965 -0.056068968 0.079207964 0.074281015 -0.036911592 0.00657412 0.07263256 -0.07100977 0.021568935 -0.0004406575 -0.011115134 0.06509237 -0.07247666 -0.046986874 0.019125028 0.06754808 -0.03529709 0.07875338 0.050699145 0.052376684 -0.07933565 0.04424271 -0.021929707 0.028480308 0.07349381 0.025864646 -0.06175803 0.049267337 -0.04188057 -0.035525847 -0.04345821 -0.06059753 0.06217299 -0.038265266 0.03924323 0.062804595 -0.005180629 -0.045308247 -0.02095223 -0.04838534 -0.043054845 -0.045061737 0.037565615 0.009143833 0.025560146 -0.029053157 -0.011764981 -0.06585158 -0.018236943 -0.011144329 -0.077053554 0.00065373536 -0.04607234 -0.07406066 0.0033876565 0.083246924 0.0050276946 0.08210963 0.0027527197 -0.036113866 0.05854187 -0.05625718 0.053727526 -0.070998564 0.08546738 0.076742694 -0.06407905 -0.06897297 -0.016551929 -0.026174044 0.0737913 0.0028133858 -0.044889983 0.023076657 -0.07998008 -0.044400364 0.084051505 -0.03299477 0.04180146 -0.0036515885 0.017567528 -0.03784982 0.043565355 0.077164836 0.080870196 -0.07859573 -0.007501865 0.054576755 0.0015000921 0.013915904 0.002759667 0.08411531 -0.015261531 0.03868024 -0.05188416 0.048513103 -0.03870406 -0.061629828 0.060574397 -0.012938806 0.07671748 -0.007455053 -0.023774354 0.051695846 0.058809496 -0.041609067 -0.030735815 0.059380326 -0.056768507 0.08323048 -0.0060984483 0.06942539 -0.06365101 -0.0091022765 -0.07895925 -0.09289998 0.04819624 -0.0076935138 -0.006907272 -0.069105074 0.016733747 0.07194078 -0.0189407 -0.06628761 0.003727954 0.0104345195 0.049993295 -0.0077400915 -0.009959612 0.06198199 0.061766803 0.023302374 -0.04263876 0.006363315 0.046955187 -0.054109965 -0.080491155 0.008621853 -0.03669405 -0.057936624 -0.06384381 0.0030246582 -0.047864698 0.08246169 -0.027886558 -0.07893232 -0.043254722 -0.06865234 0.01110677 -0.030164674 0.04163245 0.045284927 -0.006007308 0.034515053 0.0029394121 0.056865886 0.06415915 -0.07414895 0.026291605 0.06800635 -0.0133517785 -0.08890723 0.009185519 -0.05948503 -0.08116055 -0.07641298 0.025549496 -0.014406575 0.028851902 -0.011775684 0.06923015 -0.05572096 0.044216294 0.05782145 -0.011542423 0.07659976 0.06794434 -0.033640012 0.027329102 -0.0658179 0.07964185 -0.051153347 -0.04685987 0.0075511374 -0.07065388 -0.0101315025 0.024774875 -0.010875459 -0.037341204 -0.042296167 -0.06423671 -0.0838807 0.036519896 0.010392671 0.0845556 -0.06886108 0.032958787 0.009009808 -0.038835097 0.009075146 0.08165877 0.05655951 0.043158326 -0.042305242 0.022747096 -0.010425992 -0.022567261 0.055080984 0.07572293 -0.051220555 0.09217014 0.083485074 0.040907666 0.04767326
exp|f|compat -0.0047481377 0.068291 0.06390506 0.0476951 -0.066607386 -0.022887541 0.073479496 -0.009106795 -0.062154494 0.08303785 0.05120529 -0.05651456 0.052145164 0.07113609 -0.014651851 0.010169557 0.06693878 0.055196848 0.04412909 0.037561722 -0.059604418 0.053176343 -0.008002817 -0.07903444 -0.05074257 0.03221682 -0.03913945 -0.003211157 0.027796136 -0.00046560273 -0.0053960383 -0.0055294535 0.019585984 0.062051874 -0.08222407 0.027596023 0.016722575 -0.08544543 0.025780493 0.004806487 0.022835296 0.06488148 -0.08026922 -0.023666767 -0.06972294 -0.043564897 0.027437376 -0.030010238 -0.01706384 -0.011069125 -0.035326973 -0.02828197 -0.05216146 -0.059730187 0.006614362 -0.008795822 -0.065223984 -0.074815065 -0.06339659 0.07497665 -0.07967056 0.066015504 0.032944083 0.08719473 0.05711918 -0.029368805 -0.047122583 0.056441195 0.030990485 -0.07155521 -0.07942611 -0.012195715 -0.052036595 -0.005821758 0.0030843744 0.00586093 0.020218033 -0.04183074 0.026116047 0.044478316 -0.029066697 -0.070409365 0.022749772 0.062445745 -0.054325435 0.06856541 -0.027081415 -0.05928036 0.08212987 -0.018569088 -0.0714459 0.06819554 0.021541385 0.068756714 0.06851692 -0.085777886 -0.07788042 0.016491944 -0.035799492 0.07429516 0.06652291 -0.043381225 0.08496894 -0.049904004 0.0017437786 0.05631421 0.012964577 0.05129798 0.0435698 0.002252275 0.03265987 0.03130857 -0.0062483884 0.023718374 0.037768923 0.059622765 -0.007555791 -0.024776498 -0.05511322 -0.06694759 -0.04351168 -0.03185807 0.059274036 -0.018429574 0.05749539 -0.018058885 0.074309275 -0.0716859 0.026283436 0.03130662 0.0816883 0.05820236 0.042105846 0.045678493 0.0350191 0.080315575 0.077307634 -0.022978302 -0.028415209 0.039681047 0.028448867 0.064705536 0.04296042 -0.056107182 -0.011004424 0.07185055 -0.014452874 -0.016423851 0.021863246 -0.08041531 0.02146178 -0.056062095 -0.08780812 -0.03627875 0.049589988 0.06409277 -0.015022864 -0.06029765 0.055007424 -0.032472055 -0.06872158 -0.03582525 -0.01087415 0.03144076 -0.033233427 0.016288219 -0.014759666 -0.030545805 0.024314824 0.043272853 0.07717032 -0.032579035 -0.032044273 -0.06820841 0.007266951 -0.03932116 -0.091888815 0.0067858975 0.042777408 0.0061231637 0.0062197354 -0.01711285 -0.04496924 -0.021532513 0.008622794 0.067300096 -0.07308879 0.07352332 0.052491084 0.033374995 -0.014127616 0.041479263 0.06613168 -0.024705298 0.012848488 -0.06099969 0.042223383 -0.020596294 0.08263837 -0.06755106 -0.031792518 0.022422563 0.02044897 -0.0037851604 -0.07351032 0.013991883 -0.06696801 0.063579954 -0.07796501 0.008998286 0.07027797 0.0023820985 0.08824637 0.026037205 -0.011100744 0.039975777 -0.0018349746 -0.056273457 0.073398575 -0.06871731 0.02923154 -0.061284408 0.009077699 0.044669367 -0.04162488 0.042253222 -0.057383597 0.06955015 0.038048774 -0.040108126 -0.06328295 -0.011311136 0.04357612 -0.027112305 0.08665065 0.013223826 -0.071907155 -0.03814885 -0.07728733 0.014979779 -0.03757054 -0.0119600175 -0.026387293 0.05749653 0.071347296 0.009351211 -0.0011912596 -0.08696809 0.06296159 0.043019995 0.031214247 -0.07542921 0.0748823 -0.0372634 -0.03091425 0.07756666 0.07771564 -0.07926619 0.06497902 0.0168881 0.06534651 -0.016838176 -0.039769214 0.07546708 -0.018869547 -0.059910506 0.08148094 -0.020841792 -0.085252695 -0.057348628 0.07346085 0.08713352 0.02692971 0.006391783 0.08178618 0.05482249 0.010217173 0.022115195 -0.0416241 -0.056415733 0.07699769 0.08248276 0.06027318 0.04817084 0.03937288 0.08228616 0.0021248977 0.08320026 -0.063635066 -0.07458138 0.081744365 0.02571941 0.078779586 -0.009579959 -0.07718808 -0.05233615 -0.061162427 -0.076076925 0.025970701 0.07427794 -0.06109208 -0.025734928 -0.06176481 0.090583175 0.06405455 -0.0062276283 0.07460798 0.09198868 -0.04422206 -0.07101898 -0.038576093 -0.016172467 0.0016961854 -0.0047746096 -0.0063779647 0.085412376 -0.066330545 0.06303556 -0.02020412 -0.028340172 -0.016462715 -0.0071975933 0.0026625493 0.0069510723 -0.026752595 0.023268629 -0.08238685 -0.012321889 0.005158619 -0.03150416 0.0653203 0.027338123 0.03861216 -0.008590804 0.056283318 -0.0041939984 -0.07830749 0.057297017 -0.06815369 0.013889317 0.017690703 -0.05136093 0.011531554 -0.055654086 -0.06599211 0.004785323 0.00048309308 0.070106946 0.08727259 0.056086686 -0.061479047 0.09097516 -0.025149364 -0.0158908 0.0329575 -0.004653241 0.025873853 -0.036256492 -0.044813007 0.00031253824 -0.07467748 0.06777233 -0.034204654 0.061877985 0.041829333 -0.042360973 -0.015066391 0.01601726 0.0864692 -0.065513626 0.068461366 0.020034816 0.030326003 -0.00695662 -0.06978163 0.0052218265 -0.080697685 0.080189735 0.079069644 -0.015696423 -0.045539755 -0.01379404 0.015460923 -0.03062051
matherr 0.072933525 -0.08387981 0.067537494 -0.010509798 -0.065570116 -0.047905132 0.06029848 -0.027604125 -0.040649097 -0.06423248 -0.08325699 0.08822576 0.016748747 -0.009413631 0.05019477 0.07280214 -0.08458497 0.07947138 0.006509021 -0.075377874 0.00016521692 0.022259094 -0.012433935 -0.059339825 0.013933787 -0.08901704 -0.041194987 0.092673175 -0.034041874 -0.066478156 -0.09207835 -0.0711837 0.04573415 -0.08851038 0.04322673 -0.022093743 -0.068360716 0.05771778 -0.03667297 0.042946003 -0.06666163 0.074470766 -0.06253277 -0.04821946 0.008016574 0.0027840557 -0.07049603 0.06252335 -0.03185724 -0.085612714 0.05362287 -0.042629763 -0.06014833 -0.0703562 0.057180546 -0.024804607 -0.041195877 0.060904834 -0.0046750247 0.021399695 0.02280174 0.026744882 0.0018959814 -0.022111112 0.051788107 -0.047633864 -0.045483686 -0.032222092 -0.05266012 0.06831894 0.007960315 0.018791266 -0.0066031017 0.038578194 0.075719215 0.035599258 0.024656007 0.06499108 0.023798726 0.065792255 -0.0038807166 0.059876133 0.07202996 -0.0550124 -0.08447145 -0.018742224 0.05518124 0.05371678 -0.005775471 -0.04356075 0.008981288 0.015545946 0.00922613 -0.028396485 0.052569125 -0.07252846 0.034065526 -0.061632488 0.07499804 0.026816957 0.029103376 0.036729567 -0.06438912 -0.062160987 0.026826315 0.04995294 0.059747152 -0.06287316 -0.031866018 0.039542306 0.06998856 0.064342245 0.0043769726 0.03307191 0.021438839 0.008553281 -0.067408234 0.01822572 0.08707738 0.038944438 -0.01769492 -0.020529443 -0.058708 -0.012402648 0.043875076 0.076624684 -0.08534281 -0.06237593 0.018508628 0.056316815 -0.010746917 0.01936989 0.080861144 -0.085255355 0.018494278 0.04120385 0.051204655 0.06750777 -0.036361344 -0.063961625 0.014163715 -0.04016619 -0.011961139 0.067468345 0.067476906 0.022429978 0.02092495 0.08152579 -0.059444692 -0.04012372 0.004084375 0.059501667 -0.029735746 0.06429941 -0.009139769 0.0529469 -0.035350516 -0.017737852 -0.024564197 -0.06280468 0.09345862 0.040140375 -0.08137822 0.042202845 0.048794996 -0.04929775 0.06567513 0.005606106 0.004364049 -0.008963608 -0.08134471 0.041621882 0.0034731822 -0.03689438 0.00938125 -0.048008494 -0.03716026 0.07862166 0.018548079 0.061667368 -0.057264887 -0.05539975 0.009100123 -0.037206087 0.044350535 0.007819186 0.012406347 -0.041789003 0.025174703 -0.028820159 0.03236466 0.056154046 -0.0053521413 -0.0062644053 0.008353417 0.0510168 0.020090926 0.013203208 -0.008743815 0.0067048604 0.04054674 -0.06759169 0.010812325 0.0003394673 0.034744676 0.01876593 0.078150645 0.04711628 -0.058110654 -0.010464367 -0.061160892 0.011706013 0.08590268 0.07918452 0.010723392 0.037849244 0.053892788 0.03276494 0.02913532 0.048148755 -0.047516547 -0.07014599 -0.057087265 0.029547373 -0.07950838 -0.0072236946 -0.052561164 -0.0580518 0.0011400841 0.015039455 0.08165378 0.0010858204 -0.03781421 -0.0556078 0.01771355 0.015939593 -0.005419288 0.03627286 0.015120194 0.008325156 0.062012766 0.089504905 -0.048074562 -0.028587023 -0.068596184 -0.0745845 0.022077354 0.0327633 -0.07888098 0.07191395 -0.01895543 -0.01768262 -0.025776638 0.024998205 -0.0179039 -0.04586526 0.06388317 -0.059645347 0.02557658 -0.031946156 0.081313446 -0.024612674 -0.060418416 0.03179798 0.08947957 -0.007811816 0.043551482 0.075311534 0.008914858 0.050273128 0.011134835 0.025580285 0.017077457 0.02627411 -0.070580974 0.052524615 -0.0022545056 -0.02129227 0.08672866 -0.016558241 -0.061003864 0.009800352 -0.02351215 -0.036149375 -0.0768553 0.069229424 -0.06666319 -0.0010593763 -0.05487915 0.068589985 -0.048097778 0.01837438 -0.015719047 0.0317421 0.020847844 -0.044632684 -0.045533072 -0.013162004 -0.05270602 0.048916522 0.07207351 0.07019901 0.07194146 0.028103102 0.060068775 -0.019058146 0.008837326 0.049415383 -0.015832426 -0.013331935 -0.073582634 0.037585918 0.05821817 -0.011628155 0.06771387 0.086258665 -0.05187067 -0.0027579744 0.026684543 -0.07230547 0.07733814 -0.018161688 -0.049591023 -0.022665584 -0.01605889 -0.012372661 0.010610323 -0.07171494 -0.08407355 -0.05349851 -0.06986248 -0.0153739 0.031723816 0.090331905 -0.039651576 -0.0054887766 -0.08712022 -0.022786245 -0.035348702 0.015534154 0.0104286475 -0.033177838 0.0064544184 -0.0061409487 -0.009151964 -0.035947725 0.0326755 0.033255074 -0.076187916 0.06472357 -0.057363022 -0.09226601 0.014110492 -0.002255999 -0.029874004 -0.055851564 -0.021201933 0.08062086 0.077430174 0.008543698 0.05089034 0.047364116 0.0755772 0.073356636 -0.051846277 -0.08074745 0.060515583 -0.058188956 0.06527279 -0.05314715 -0.04857391 0.05209647 0.016022896 0.030255886 -0.08155495 -0.08156661 0.0629688 0.055805434 0.045198724 -0.034143113 0.08231216 0.049431287 0.04376572 0.03576487
main -0.054615892 0.06681668 -0.0773098 -0.024174234 0.081640124 0.04345726 -0.01627473 0.019499315 0.022582635 0.03968678 0.025397234 0.0239212 -0.065289885 -0.01614012 -0.019786382 -0.03885351 0.039745197 -0.07718748 -0.06542851 -0.004999826 0.019006565 0.065397486 0.07348155 -0.04267268 -0.04884951 0.089726515 0.030196639 -0.006219175 -0.015503777 0.072241336 -0.023303138 -0.07821865 0.07965911 -0.009903507 0.068188526 0.048952635 -0.07321775 -0.07952251 -0.02854718 0.014036642 0.054532494 -0.024926864 0.036032874 -0.032850504 -0.04356219 -0.012185336 -0.02409524 0.07561723 0.015789708 0.07342699 0.012509331 -0.024087455 0.013997319 -0.051839307 0.045289565 0.04171081 0.035734773 0.082611136 0.008724106 0.08015892 0.023794273 -0.06787025 -0.037108716 0.030682998 -0.0071442593 0.0375239 0.053685952 -0.06214382 -0.064768486 0.006956225 -0.07917631 -0.039109282 0.08699946 0.0040410087 0.026607886 -0.03649558 -0.06425888 0.05696606 -0.0674888 -0.014208363 0.016141392 -0.02576552 -0.07114967 -0.036374375 0.07252064 0.06963281 -0.008887983 -0.024275605 0.077257454 -0.03907695 0.04580469 0.006523211 -0.06740421 -0.026998777 0.07067438 0.08711341 -0.012835124 -0.00095918606 -0.013505034 0.053352877 0.04917191 0.032953978 -0.054777868 0.033457506 0.082069516 -0.009608164 0.060076304 -0.041267972 0.06650668 0.0030781599 -0.06743753 0.020679355 -0.037960045 -0.08045875 -0.03965876 -0.008251958 0.014348914 -0.04487045 -0.059284322 0.085551195 0.04065243 0.0057043196 -0.05396675 0.012906134 0.08743393 -0.04384303 -0.08229783 0.052616764 0.040443067 -0.081479155 0.021292161 0.0076853377 0.034289457 -0.036918953 0.0753076 -0.06128482 -0.06432098 0.03373747 -0.046029452 -0.04122391 -0.0056160986 -0.04430139 0.08091447 -0.08506662 0.02303918 0.06055713 0.055474486 -0.013491289 -0.07104723 0.040434837 -0.0012015312 -0.04587809 -0.06671964 0.01787936 -0.056741256 0.049623355 0.05625417 -0.025046658 0.06821774 -0.08982205 0.048080705 0.07571313 0.003154592 -0.035735343 0.0006005414 0.06689232 -0.050221317 0.06465311 -0.007125965 -0.04346113 0.034275886 -0.012782378 -0.07499055 0.051043343 0.082001254 -0.008522757 -0.06995278 0.053599555 0.02422754 -0.06943322 0.018121608 -0.0068021044 -0.029927216 -0.03435097 0.017360728 0.07651189 0.02331326 -0.085957006 -0.006377832 -0.086282186 -0.06145449 0.025259156 -0.0126934415 0.00076994894 -0.08662208 0.020383626 -0.076104715 -0.009205982 -0.05324146 0.054537978 -0.0076056765 -0.046882223 -0.04696407 -0.07184919 -0.019233119 -0.076895125 -0.0017232222 0.015669333 0.041689426 -0.08979113 0.05702663 0.02922216 0.0016985531 -0.060969085 0.012298766 0.011971714 0.009917646 -0.029005917 0.047012694 0.087184586 0.01725006 -0.02177024 0.03108187 -0.075831704 -0.00013986084 -0.051095728 -0.059039224 0.07225279 0.03328367 -0.045591403 0.034618057 0.08472879 0.08715237 0.01955833 -0.069520734 -0.057002556 0.052080538 -0.07488885 0.044791542 0.0405365 0.007988568 -0.07686471 -0.07062162 -0.043273315 -0.03291274 -0.051973782 0.076165095 -0.042558935 0.03076481 -0.038092066 0.034610823 -0.009899992 0.053789053 0.04953148 -0.05644883 0.09043501 0.043182645 0.07883161 0.052104644 0.044965044 0.05259933 0.040829007 0.022992957 -0.06851256 0.05074738 -0.06869633 0.040677886 -0.078495875 0.0138195725 -0.0062663765 0.077611454 0.05945915 -0.010912663 0.034298178 -0.04350152 0.0029428238 0.062365733 0.05673952 -0.05320821 -0.06005768 0.00037308267 -0.024031531 0.041212548 0.07632356 -0.03627096 0.049213618 0.007913784 -0.049179204 -0.01774003 -0.030778203 -0.08212655 -0.046084225 -0.03524095 -0.083781056 -0.06319084 -0.061426435 -0.02667419 -0.05472655 0.08305367 0.0073891357 -0.014442438 -0.027288593 0.006317644 -0.0025034214 -0.016427003 0.062990956 -0.036959566 -0.012840334 0.0737641 0.001982976 0.065495655 -0.06838827 0.04488823 -0.049820792 -0.031073011 0.005170533 -0.03404007 0.07124603 -0.048159603 -0.011478798 0.048904784 -0.08296322 0.006314171 -0.024800334 0.065839134 -0.02411741 0.008383906 0.053574443 -0.0334905 0.02084088 0.009824324 -0.06194041 0.047067534 0.058334727 0.067542955 -0.020542216 -0.046946228 -0.021163492 0.06325895 0.07968173 -0.064152114 0.073967375 0.042893574 -0.024055758 -0.044205695 0.053892404 0.0034414437 0.059216246 -0.02689873 0.019451445 -0.08540943 0.0420051 0.045544997 -0.01614767 -0.013806275 -0.058171973 0.0067992457 0.07487634 -0.078994334 -0.023156602 -0.08158709 -0.0051673353 -0.06412721 -0.04501477 -0.033244688 0.0039890576 -0.050833452 -0.02454926 0.042133637 0.023677051 0.033111844 0.020075588 0.009195233 -0.05204628 -0.05207925 0.035231035 0.08234649 -0.039216056 -0.054869477 0.047275286 0.0104603125 0.058590095 -0.033949666 0.06442361
