1126 128
<PAD_OR_OOV> -0.082168944 -0.0400607 -0.13040058 -0.15146287 0.02114448 0.14127035 -0.12749659 0.09441021 -0.04224257 -0.047684796 -0.11339465 0.10117291 0.06198843 -0.10647935 0.03865105 0.039116696 0.08009526 -0.013449177 0.15116914 0.14816643 -0.058493942 0.045412764 -0.023712605 -0.034224816 0.093796566 0.08994904 -0.10589476 0.0713564 0.0472434 0.017754957 -0.048299752 0.07099016 -0.067917064 0.039992332 -0.15236205 -0.054404743 -0.114600725 0.09476955 -0.13795076 -0.14263214 0.08219789 0.124146596 0.1201293 -0.1284498 -0.038017593 -0.09827913 0.009591937 -0.05978079 -0.0049392134 0.04850845 -0.08549255 -0.0055271536 0.12222384 -0.13423826 0.1425967 0.08968116 -0.10980481 0.068473294 -0.101083994 -0.048545726 0.06879161 -0.01021938 0.10986687 -0.080864064 -0.1196029 0.119298264 -0.103019744 0.033376485 0.1255046 0.005653307 0.0091300905 0.090540856 0.10015689 -0.06693955 0.12166624 -0.0161857 -0.026185378 0.14999555 0.12881164 0.13574006 -0.05116491 0.08461909 -0.08552821 0.112898186 0.00049862266 0.1319067 0.009848461 0.1473691 0.08328724 0.08175726 0.053567424 -0.041056894 -0.03418427 -0.052614555 -0.1111205 -0.1409024 0.11046149 -0.038126945 0.013683617 0.067426786 -0.08103029 0.11782299 -0.117656015 -0.07375925 -0.030824818 0.069517925 0.026628792 -0.037823558 0.14328186 -0.1212414 0.029171318 0.14615999 0.12722145 -0.10350126 0.107677236 -0.021980777 -0.0019197613 -0.030012727 0.049628794 -0.11404924 0.11454938 -0.038396396 -0.0845396 -0.12286369 0.055822343 -0.10612249 -0.0021336228 0.12294115
any -0.09724302 -0.011055924 0.01440948 0.010744635 0.08149838 0.038067665 0.09533815 0.12581185 -0.10928212 -0.07882375 -0.058310173 -0.09672232 0.045631785 0.030625217 -0.15100725 -0.13861893 -0.14232658 -0.027357515 -0.055839535 -0.10830532 -0.03931369 -0.11927835 0.0012437924 0.079320475 0.026209822 -0.097524606 -0.13311033 -0.1342151 0.014751557 0.13777554 -0.144574 -0.07255071 0.008044124 0.15088524 -0.140609 0.12469675 -0.0027274028 -0.111890376 -0.13245682 -0.14667128 0.10226891 -0.04625672 0.08390195 0.04315061 -0.06319635 -0.024356239 -0.07830794 0.1293543 -0.048924215 0.07150136 -0.08609368 -0.0681621 0.12966478 0.07203091 0.066454686 0.038125783 -0.11476158 -0.081885636 -0.024831025 -0.010159339 -0.023486886 -0.055032693 -0.056969296 -0.07757951 0.017306415 -0.092022024 -0.12417418 0.038834453 -0.006926681 -0.03816754 0.1435466 -0.09037408 0.07351689 -0.042629167 0.02426822 0.01005744 0.14861374 0.100804 0.14865527 -0.05130944 -0.14882763 -0.12510438 -0.041659955 0.15090619 -0.106912725 -0.1219542 -0.011274913 -0.1190144 0.15627244 0.05932024 -0.07350636 -0.025599055 0.13474275 -0.10424932 -0.030429387 -0.044036027 0.13993949 -0.058024 -0.011272761 -0.038685836 -0.051973816 0.121971875 0.06315028 -0.042007007 -0.1081813 0.10564239 0.05639361 -0.0214776 -0.07210269 -0.028779786 0.017151533 0.055649545 -0.13392815 -0.082193375 -0.15631014 -0.04941919 0.1269146 4.7508882e-05 0.10451613 0.053791713 0.015553246 -0.10796443 -0.13309355 0.10759512 0.14889018 -0.12605192 0.058807347 0.037570927
int -0.039913338 -0.08797059 0.064136334 -0.036716 -0.14507182 -0.12533458 0.0017069282 -0.07677933 -0.14579347 -0.00916503 -0.13239142 0.123240836 0.12627102 -0.038983878 -0.14780228 0.056388266 0.13223052 -0.0871023 0.082787566 -0.14496957 -0.045355212 0.11323988 -0.045281 0.047696292 0.12393013 -0.114357546 -0.09477662 0.08337982 -0.047121525 -0.085517876 0.034841787 -0.1502481 -0.017672943 0.007837856 0.15316354 0.10239992 0.03853117 0.040497147 -0.005348495 -0.03235074 -0.08580516 0.10108302 0.09499103 -0.05999315 0.026961168 0.056015544 -0.040201806 0.07024632 -0.05330658 -0.031617064 0.09726768 -0.02358538 0.099388205 -0.04798534 0.13744082 0.035497796 -0.1280811 -0.0042784023 -0.0053772265 0.10065285 -0.1354366 0.14320026 0.012895412 0.12533188 0.020154301 0.029173333 0.0061297137 0.06412437 0.032484815 -0.09239478 0.047588523 0.01711249 0.0442901 -0.121824965 0.13123737 -0.033976894 -0.14731842 -0.03705874 0.059839323 0.0039185863 -0.14016294 -0.05708134 -0.11698513 0.12759128 0.037402783 -0.08822469 -0.09866594 -0.049698394 0.04165346 -0.0107984105 -0.009322277 0.036370814 0.10332956 0.026566688 -0.0029343977 -0.0032126796 -0.07510774 0.08240059 0.06900012 -0.14437148 -0.13883446 0.06880742 0.13004872 -0.12521823 -0.05157242 0.09233331 0.022417761 -0.07943916 0.0179692 -0.12736814 0.048678886 0.11145598 0.11686953 -0.066333726 -0.087816805 -0.05092566 -0.06676276 -0.1411067 -0.1149092 -0.13743934 0.05043028 0.07526159 0.0657178 -0.117452875 -0.11848759 -0.056676123 0.14609827 0.0631281
<E> -0.09102898 0.0924943 -0.0071580834 -0.08772621 -0.006916291 -0.08268977 -0.055488713 0.011020866 0.10619747 0.074153304 -0.13460758 -0.12438196 -0.13413595 0.061272424 0.027745008 -0.085218616 0.0168393 -0.12205654 0.0053350735 0.101813234 0.047059655 -0.0711648 -0.024182102 -0.052341223 -0.003862137 0.033035442 -0.13156478 -0.07087529 0.0026227357 -0.03007217 -0.015070319 0.052877277 0.12132865 0.1365381 0.054904796 0.05830879 -0.102638565 -0.016610064 -0.10775276 -0.061891817 0.09573411 0.1577523 0.01719206 0.03019872 0.11046947 -0.0711858 -0.044683956 0.08966054 0.10683109 0.13239662 -0.027015539 -0.10021157 -0.15718909 0.001163342 0.011140024 -0.097669646 0.1484817 0.042708922 0.042885046 -0.0862854 0.06140067 0.010088455 0.0010510727 0.095944025 0.046363063 -0.15708575 0.045301273 -0.06828632 0.09162241 -0.1049182 0.08650071 -0.038092084 -0.14661302 0.03183473 -0.009771543 -0.06135717 -0.0717754 -0.14578076 0.00086517073 0.15746424 0.06348667 0.010077371 -0.14428347 0.11476915 -0.13232869 0.14626189 -0.06035947 0.08698366 0.15305236 0.1494997 0.014441335 0.00797689 -0.054884434 0.12970993 0.078396775 -0.098171845 0.08497808 0.12152578 -0.14502192 -0.12473805 0.1065426 0.13858092 -0.14659376 0.06933563 -0.061187763 0.14188004 0.071499184 0.101320714 0.004649266 -0.069791526 0.10288287 0.10548379 -0.1391374 0.11504403 0.10436977 -0.032805447 -0.11760451 0.08987504 -0.11359629 0.044699274 -0.13305251 -0.05954955 -0.13752891 0.14722599 -0.08491019 -0.0039142226 -0.12822331 -0.10084209
float 0.127744 0.048103504 -0.07548281 0.10579481 -0.00048038887 -0.118711874 0.02653127 -0.06406743 -0.05459346 0.09805568 0.0051385732 -0.020575449 0.025161294 -0.07267128 -0.1157622 -0.13873203 0.04159777 -0.038342223 -0.101808675 -0.046815492 0.023650274 0.10162677 -0.012522437 -0.024672922 0.065930314 0.104485296 0.07116579 0.1092717 0.11314509 -0.14813784 -0.05126294 0.060118604 -0.09322258 0.06979682 -0.093209274 -0.10222061 0.08370093 -0.0940215 0.027353734 0.15142493 0.109445296 0.10430783 -0.034756944 0.15369707 -0.104724444 0.033136457 0.122661546 -0.050578315 -0.121319704 0.09282684 0.06550912 -0.043142583 -0.14480226 0.10547309 -0.036755614 0.12042974 0.053289197 -0.113279454 0.04627729 -0.100531876 0.068897024 0.09781337 0.15051717 -0.058837548 0.10831263 -0.059918143 0.04336973 -0.1354019 -0.14974631 0.07874858 -0.013982833 0.03631069 -0.14762875 0.039709236 -0.028195482 0.07602273 -0.07498874 0.032721113 0.14483717 -0.14625016 0.15413688 -0.11709666 0.093755454 0.094716705 0.08478965 -0.04342426 0.08389735 -0.0055102976 -0.14373012 -0.04766904 0.0023931607 0.0148081705 0.10066833 0.14125974 -0.018283378 -0.1113715 -0.07631524 0.054066062 -0.15517287 0.068855174 -0.025535828 -0.08413711 0.034727614 -0.110603504 0.018941266 0.047732607 0.119926654 -0.030467829 -0.045489877 0.105790146 0.091329664 0.037178595 -0.008299278 -0.045485877 0.096343696 0.11692185 0.13762687 0.1418003 0.11374979 -0.07854621 -0.021986939 0.038010497 0.12138503 -0.051433392 0.13729638 0.006037236 -0.086974874 -0.09364047
x 0.09193092 -0.052235585 0.11481442 -0.051560692 -0.017101472 0.028754525 -0.127652 -0.14686342 0.10908653 -0.14102627 0.15139414 0.010594219 -0.053948708 0.12351771 -0.008600221 -0.074256815 0.08240256 0.08680491 -0.11327342 -0.003660262 -0.099197485 -0.019188406 0.08719676 0.05634499 0.06576393 0.13723296 0.03656384 -0.0649732 0.14525634 0.058579274 0.11078676 0.08444342 0.1022877 0.10470585 0.12236323 0.032169033 0.14357516 0.12390225 -0.15336631 -0.1433763 0.11352977 0.11184143 0.15840976 0.06334369 -0.100809574 0.14687675 0.0516161 0.06532165 0.0391305 -0.122948356 0.029627573 0.0983818 0.13771918 -0.130899 0.027951457 -0.028368447 0.10401056 0.124577485 0.08771261 0.12151193 -0.13924997 -0.1012588 -0.09968971 0.043438558 0.15524414 0.004937111 0.10768534 0.12678477 -0.14892937 -0.0715952 -0.15224737 -0.08943002 -0.08289911 -0.02790864 0.09012825 0.02674117 -0.096678056 -0.019571401 -0.111239426 0.08067444 -0.05086306 0.14705463 0.052272312 -0.018982861 -0.028200217 -0.073645964 -0.029446652 -0.13831222 -0.041714165 0.12668407 -0.13371079 0.11287325 -0.016860045 -0.058156133 -0.14626947 -0.14380781 -0.016090116 -0.08939567 -0.031211244 -0.03722264 -0.14810996 0.12901577 -0.086698554 0.12031283 0.112856045 0.07513698 -0.009394562 -0.11709404 -0.11964864 -0.05336667 0.07560298 0.029595487 -0.096095234 -0.109616585 0.014874009 -0.12094224 -0.055595305 -0.03973745 -0.098830886 0.123392425 0.042742968 -0.12698857 -0.02935747 -0.079968326 -0.09969877 0.026407152 0.09417155 0.089508355
result -0.09140017 -0.021622224 0.014541973 0.14473741 -0.08627584 -0.11372448 0.14411817 -0.033834368 0.11778977 0.022266906 -0.051899493 0.062139306 -0.10198572 0.039498147 0.10793768 0.016932838 0.1352461 -0.1239452 0.13823967 -0.04448732 0.09107256 0.02585377 0.0051512276 -0.094771035 0.004175377 0.08819253 0.13102493 -0.06710536 -0.14650448 -0.08451666 -0.14313044 -0.063326225 -0.07598434 -0.02429577 0.1065117 -0.13206834 -0.059872348 -0.08017538 -0.038419746 0.007515379 -0.119951315 0.07324901 -0.13852718 -0.075466976 0.072338104 -0.1301164 0.027028041 -0.11223413 -0.047906663 -0.05655908 0.032190036 -0.0015950901 0.15437579 0.009179208 -0.0903244 0.016854087 -0.09910752 -0.047903005 -0.12521073 -0.0062903035 0.078464076 0.15629421 -0.043168772 0.060795747 0.1485625 -0.019701814 -0.034801506 -0.016730534 0.01116375 0.08245424 -0.07146611 0.07294501 0.048416417 -0.11359153 0.008354427 0.042930886 0.08188699 0.1170616 0.088893056 -0.08872219 0.08298071 0.052896228 -0.0023858517 -0.059945412 0.05492119 0.0877848 0.04409575 0.09608498 0.093548365 -0.04716963 -0.15182073 -0.015428635 0.13930699 0.04579359 0.050803453 0.029884359 0.14381196 0.03005138 -0.120857865 0.017650848 -0.15539917 -0.034020606 0.07876099 -0.15286347 -0.11587865 -0.07984798 -0.06110364 0.14572258 -0.043224867 0.044929318 0.15841642 -0.075596996 0.12975962 -0.10775389 -0.14797522 -0.12119261 -0.1296011 -0.041180123 0.09398535 0.008682116 -0.040529236 0.0008542491 -0.029653402 -0.11121187 -0.017623395 0.12232411 0.1094749 0.0062925164
long|double 0.14902872 0.010002604 -0.14343552 0.08679936 -0.03490639 -0.15475884 0.011244873 0.048115544 0.08852707 0.11155203 -0.063089035 -0.14818518 -0.11846354 -0.08900254 0.07874673 0.0021031077 0.011275601 -0.14805733 -0.14197038 -0.12842162 0.14520174 -0.14324677 -0.10364382 0.07615836 0.11081037 0.022564618 0.07282861 0.0636924 -0.14515461 -0.12570098 0.047769636 0.09831253 0.013775632 0.106709726 0.06013351 -0.06585773 -0.027508052 -0.14530182 -0.0017886048 -0.12867564 -0.070001274 -0.11925164 0.0038700069 0.07260319 0.13444719 0.11935968 0.015622453 0.03715474 -0.100009784 0.13096797 0.008207533 -0.07641573 -0.06653814 -0.04017413 0.10241982 -0.12638046 -0.102524675 -0.08598744 0.065585166 0.019535743 0.029366573 -0.038429853 0.117361136 -0.1269739 0.11004277 -0.1516873 -0.09006507 0.14347517 -0.028233087 0.119918145 -0.123685226 -0.046825916 0.15217617 0.10996841 0.0035969983 -0.011020571 -0.013544281 0.08913913 -0.05269894 -0.13812575 0.10344449 -0.06740134 0.13467652 0.00917301 -0.12372104 -0.11741466 -0.037626617 -0.103662804 0.02932779 0.06544052 0.078915894 0.07211618 0.07694864 -0.025747718 -0.13754562 -0.15801673 -0.12936886 -0.11202816 -0.04361349 -0.037237618 0.07091627 -0.14050987 0.087999135 0.05109374 -0.024978105 -0.0884731 0.0068853744 0.01101118 0.06338049 0.091123074 0.08333415 0.027888771 0.04662993 0.12423722 0.08442721 -0.098964795 0.040144224 -0.06337127 -0.06265658 0.14828894 0.03834029 0.14089175 0.088313684 -0.06956913 0.004627556 -0.09403519 0.072393775 -0.15162736
const|char|* 0.07945987 -0.14406976 0.0076354374 0.09509567 0.14436528 0.07633364 -0.1558397 0.12055558 0.07286899 -0.030527264 0.016533015 -0.054754406 -0.007866805 0.116327725 0.009395812 0.101802744 0.059803635 -0.14463471 0.014306208 0.11767595 -0.1564211 -0.14638598 0.008812671 0.14262907 -0.034227703 0.15304479 0.052097294 -0.013455597 0.0194175 -0.09905064 0.1229761 0.086430624 -0.077449836 0.13894394 -0.051554777 0.05255892 -0.0928903 -0.08229138 0.0035675112 -0.14723425 0.13932112 -0.12357126 0.053667497 0.12993798 0.07124024 -0.026117222 -0.040583413 -0.01914022 0.1476574 -0.053502087 -0.13140489 -0.08325864 0.054609954 0.12218001 -0.007966225 -0.1296508 -0.11052691 0.1238325 0.15679212 -0.09388303 0.10789099 0.02617824 0.05781395 0.026257643 -0.136442 -0.03839154 0.11618679 0.08351358 0.044845626 -0.06309551 0.118548416 -0.070215195 0.058758438 -0.083158076 0.04311792 -0.117474 -0.09960472 -0.009432013 0.09839331 0.13369969 0.03928255 -0.06280249 -0.0071530347 -0.068408884 -0.03387541 -0.11304516 0.020355243 0.112447865 -0.022452544 0.14714003 0.042161137 -0.116999336 -0.13688247 -0.059553843 0.0094311545 -0.06193582 0.091328494 0.08375063 0.08689898 -0.1011382 -0.011944823 0.02325851 0.0067959987 0.07792096 -0.10336134 0.14939965 0.0208371 -0.14059222 -0.08254324 -0.049460117 -0.07946078 0.107882 0.013597954 -0.0865287 -0.079153225 0.110810906 -0.041590065 -0.08106597 0.024071027 -0.019965831 -0.046219133 -0.0005633154 0.12621322 0.07241863 -0.07744956 -0.1535294 0.117851414 -0.08299301
printf 0.08127208 -0.008346165 -0.10158153 -0.081500605 0.048939236 -0.07586825 -0.014795172 -0.08907943 -0.10375129 0.11318798 -0.05950379 0.034622665 0.13030687 0.054413818 -0.04537539 0.0030624734 0.013431262 0.059433334 0.10207875 -0.1365261 -0.0037596177 0.041823115 -0.113682784 -0.049220342 -0.10572781 -0.10924396 0.05115512 0.14531583 0.07234523 -0.01143824 0.09673698 0.1356671 0.13882892 -0.03922288 -0.11792579 0.14015153 -0.11124805 0.00084940594 -0.044929482 -0.03447405 -0.05157369 0.07139375 -0.13965683 0.116549335 -0.0036134801 -0.017268462 -0.09476556 -0.037346847 0.092011675 0.0098634595 -0.07833039 -0.03641113 0.09289662 0.07155248 -0.020312838 -0.00880257 -0.08852056 0.018051134 -0.016247148 0.10848268 0.021266518 -0.051228944 -0.107551605 0.03306284 -0.0143602975 0.12328198 0.11718006 0.029092751 -0.15399401 0.016918484 -0.11504333 0.0595039 0.07922512 -0.0988692 0.08184748 0.006791758 0.07620498 0.07158651 -0.021547856 0.026607005 0.08500904 0.040938217 -0.06196693 -0.15251015 -0.15700386 -0.055378694 0.0091332765 0.0048717787 0.038099624 0.001327503 0.10654638 0.003944389 -0.1399847 -0.027830655 0.08943762 0.02027849 -0.01017175 0.12527895 -0.114663996 -0.034782313 0.07238804 0.077339455 0.060340587 -0.08692843 -0.07119999 0.14502272 -0.09759051 -0.09422563 -0.01543449 -0.14235812 0.13431609 -0.15336625 -0.027399892 -0.08859287 -0.040491484 0.04385169 0.12772427 -0.027353859 -0.035516307 0.09684014 0.13722362 -0.08431247 0.025813488 -0.1423295 -0.05987689 -0.021457896 0.116297334 0.11089101
METHOD_NAME -0.08374576 0.08522623 -0.048904084 0.0745066 0.07906844 -0.018374067 -0.1418762 0.15493527 -0.033613525 -0.10755207 0.14906459 0.038396448 0.036612637 -0.12053725 -0.069574155 -0.10473769 -0.0942605 0.0025730024 -0.13101633 0.01726766 -0.06027858 -0.07348758 0.02983886 0.008392036 0.1407821 -0.052570734 0.010200015 0.0712775 -0.077259645 -0.0639428 -0.111140214 -0.14883535 0.13157122 0.046270374 -0.14448379 0.009291225 0.040316585 -0.11002099 0.1148091 0.029604807 -0.12207424 -0.031513594 -0.14292596 -0.091467686 0.1166347 0.017440297 -0.07676781 0.08295342 -0.029284572 0.038414486 -0.016615275 -0.019571787 -0.025535407 -0.039628882 -0.091647804 0.11440378 -0.1538467 0.08082344 -0.011593201 0.10921076 0.030789768 0.11623633 0.042497776 -0.07034109 -0.082673594 0.054595616 0.12985407 -0.0681364 -0.06662713 -0.048123047 -0.10613173 -0.07201255 0.14765134 -0.12808475 -0.052578475 -0.0883222 0.09058407 0.02786003 -0.11468571 -0.012264948 -0.112285085 0.14848734 -0.05238694 0.03299751 0.1461433 0.037255075 -0.05146892 0.06494667 0.117730446 -0.07899465 -0.15405862 -0.006646432 0.06366709 0.14338537 0.12398941 0.1150798 0.06047141 -0.0904787 -0.13378821 0.094137244 -0.019770013 0.14617935 -0.13406326 0.05440192 0.04076564 -0.14800973 -0.14471875 -0.020900868 -0.11036631 0.033269346 -0.038132735 0.123179086 -0.15030527 0.14339574 0.13553007 -0.088650756 -0.09037907 0.14189012 -0.049276624 -0.10379754 -0.090610325 0.12290493 0.053439535 -0.14252013 -0.12658663 -0.025070397 -0.02557707 -0.13831271
exc -0.054316577 -0.14242122 -0.13789514 -0.15005508 -0.010154982 0.12867995 0.07526376 -0.050801054 -0.08645032 -0.06548069 -0.03298533 -0.116103485 0.08569149 0.14528985 -0.08766988 0.08282 0.06778164 -0.041650455 -0.1177809 0.15598398 -0.15673153 0.09568508 0.010888094 0.0042445473 -0.108543366 0.15237401 0.030537127 -0.021332948 0.062775984 0.09229451 0.082582586 0.12464488 0.066042356 0.08106344 -0.11805865 -0.050099492 0.098277666 0.041208975 0.021217542 0.030448662 0.12936069 0.06940849 0.0031282434 0.0068928762 0.09037736 -0.15413925 -0.08779492 -0.1543963 -0.09188601 0.08090835 -0.1140153 -0.12214135 0.06833478 -0.08272466 0.058013327 0.090176076 -0.059564967 0.062750295 0.027693236 0.09352133 -0.103438795 -0.11212657 -0.008984303 0.10150402 -0.033985253 -0.0014049963 0.12156892 0.052581135 0.0022056713 0.06102007 -0.050058458 -0.045632392 0.08823851 -0.04512363 -0.0691885 0.08209514 0.091952406 0.09166774 -0.06427407 0.049132768 0.15367745 0.025498929 -0.15033928 -0.10471309 0.08336424 0.040993486 0.01115723 0.07225443 0.0892572 -0.12489669 -0.12644854 0.11233903 -0.02165687 0.14337386 -0.03850577 0.09035685 -0.075725734 -0.07810419 0.14458627 -0.02160367 -0.111377604 0.15357316 0.10903549 0.09414165 -0.03404905 0.06802104 -0.1359044 0.11695317 0.14761953 0.08302934 -0.09443033 0.14593998 0.12200233 -0.10811037 0.024283467 -0.14121737 0.0072691003 0.12893821 -0.0077823377 0.10020336 -0.10980104 -0.04160795 -0.011489582 -0.010340123 -0.13778554 0.0017464247 0.01869777 0.09962898
y -0.027386563 0.056544818 0.08252991 -0.12746845 0.08980804 -0.14462458 -0.10582014 -0.112318315 -0.054905564 0.08198977 0.09571209 -0.010383317 -0.13392821 0.08261651 -0.02810042 -0.037655387 -0.13490538 -0.14373812 -0.13202783 -0.009834124 -0.044696897 -0.0410539 0.030650947 -0.07829324 -0.015040875 0.14923784 0.018629218 0.09253909 -0.0043878118 -0.12126349 0.083628714 -0.07063532 0.0039082128 -0.12960377 -0.11453069 0.0032410761 0.0899845 0.10659763 -0.07150157 0.04326617 -0.0673599 -0.12415543 0.12796402 0.07737551 0.10300499 -0.024136819 0.07402294 0.11924138 0.110309094 -0.07000296 -0.14485186 0.05118825 -0.12323398 0.11715838 -0.09573018 -0.06743949 0.015942335 -0.035435826 0.025869556 -0.076636516 0.016124178 -0.028451884 -0.15464735 0.14879094 0.08361067 -0.09263758 -0.041874412 0.0342654 0.06172545 -0.08914574 -0.024834486 -0.05794927 0.09351962 0.050833296 -0.04220291 -0.051675335 -0.118272655 -0.011013308 0.023785593 0.12697151 -0.06327854 0.115836166 -0.0648065 0.08582735 0.055999212 0.012921876 -0.07203089 -0.069477044 -0.10458869 -0.13323835 0.074386425 0.13178402 0.11172219 0.10480463 0.027779212 -0.060867622 -0.15760347 0.117782146 -0.026819887 -0.119449206 -0.15404859 0.011119389 0.029703062 -0.025897969 -0.040635906 0.13077396 0.061816037 0.047349613 0.03828246 -0.017612766 0.13557032 0.117414944 -0.15643017 0.028821869 -0.11999549 -0.008462899 0.11901676 0.14071865 0.15620081 -0.15162174 -0.1437737 0.078275785 0.086329415 0.034543272 -0.02098735 -0.14506206 -0.15158913 0.010114118
double -0.07831198 -0.057889868 -0.039444976 -0.00022038334 0.045187846 -0.12003068 0.020364128 -0.0886075 0.017588746 0.070540845 0.106724806 -0.1243527 -0.11768249 0.043394785 -0.10896941 0.053700656 0.11599633 0.13132752 0.024594354 -0.12232565 0.036924977 -0.06765569 -0.15422484 -0.08797387 0.063351765 0.06659758 -0.08639424 -0.020124288 0.0032859407 0.04662306 -0.090563826 -0.047659837 0.030162439 -0.10327124 -0.13760069 -0.14958821 0.0856605 -0.010537885 -0.061696082 -0.0870714 0.08066074 -0.1537096 0.06440743 -0.10809961 0.08701255 0.1322558 0.04275707 -0.078040175 0.10581705 -0.012912834 -0.14091687 0.10277385 -0.02252564 0.0190786 0.09245997 0.11973652 0.113939054 -0.09587979 -0.045067284 -0.021156395 -0.054044258 0.03082756 -0.11547575 -0.14400485 0.03290483 0.07670662 -0.11555758 -0.09365054 0.030760206 -0.11610068 0.14496937 0.07847788 -0.09393643 0.11763103 -0.13041364 -0.13589886 0.006470253 -0.08112592 0.14798604 0.12239931 -0.097338304 -0.03237186 -0.14446194 0.032966103 -0.05038299 0.06797917 -0.12137873 -0.09640411 0.12047098 0.060980644 -0.0406153 0.052496098 0.019646095 -0.124156885 0.04981578 0.013056541 0.08180767 0.061188653 -0.08687952 0.13299592 -0.08271018 -0.008181406 0.07840865 0.00109167 -0.025636371 -0.14194566 -0.0010005725 -0.01414066 -0.06692443 0.020086175 -0.10658505 -0.11044747 -0.08876035 -0.14368542 0.11391371 0.1481908 -0.005300281 0.084267266 -0.041413743 0.1446123 -0.15071246 0.08965094 0.08542177 -0.020654472 0.039584097 -0.004789507 -0.113744736 -0.1423432
test -0.13574646 -0.14408451 -0.01617714 -0.13117737 -0.050542355 -0.03350383 -0.12685576 -0.018679528 -0.052540407 0.090600304 -0.11016287 0.08793368 -0.12851422 0.03598485 -0.10182954 0.041688405 0.031167075 0.07871977 -0.07990668 -0.10975615 0.098290205 -0.036743797 0.000121354824 0.08163127 0.025171151 -0.13881536 0.02807741 -0.09991909 -0.030212637 -0.022281066 0.15502913 0.14720076 -0.036031164 0.13212363 -0.052010316 -0.1511759 0.119033515 -0.058618132 -0.047306035 -0.1066627 -0.021172736 0.110835284 -0.09827355 0.1191231 -0.0899738 -0.117761195 0.14425786 -0.0073229605 -0.000475317 0.01313997 0.10314131 0.11764063 0.12339901 0.043737665 -0.080174945 -0.12733719 0.032148227 0.008511745 0.09482299 0.050325654 -0.088549875 0.09646251 -0.059804104 -0.14926238 -0.044373576 0.00044878217 -0.12919126 0.042874955 -0.13356766 0.10659787 -0.069493495 0.13570005 -0.07783727 0.103417784 -0.1283858 0.12798578 -0.008601791 -0.03585862 0.14840735 0.008950319 0.06682784 0.1527413 -0.09524339 -0.108901165 -0.12224447 0.06863357 0.07879937 0.060100783 -0.016900385 -0.15146604 -0.074703395 -0.043711696 0.064517565 0.046969477 0.032317273 -0.026520872 0.12854096 0.07967018 0.05135086 -0.09257152 0.13076055 0.03413765 0.036032986 -0.14773215 -0.006355838 -0.03445238 0.14839208 -0.07789032 0.1166479 0.028443571 -0.057094097 -0.061544985 -0.015206919 0.08770814 0.05773475 -0.10478742 -0.15151167 0.1551424 0.12577641 0.15267377 0.079244494 0.1419918 -0.03363725 -0.09359719 0.1367183 -0.077414855 0.06120601 0.019642517
res -0.083216585 0.12824246 -0.07623617 -0.063923255 -0.12445988 -0.10171142 -0.09643 0.038612813 -0.027483769 0.12306658 -0.10031737 0.01938101 -0.10647995 0.065953106 -0.13358882 0.084036805 -0.0050403895 -0.046702802 0.0038887202 -0.026787356 -0.06941112 0.0050295014 0.08397502 0.09484147 0.05221847 0.08473536 0.06967138 -0.058565926 0.058769625 -0.05445106 0.019751187 -0.0032206294 -0.051969655 -0.14104547 0.08216697 0.07657175 -0.0042114398 -0.016908139 -0.09543084 0.05990589 0.058089558 0.09004305 -0.081740126 -0.107356615 0.1242799 0.113886304 -0.05662828 0.10907196 -0.0017006526 0.1388904 0.00013209946 0.14737332 -0.12905039 0.056369085 0.14067957 0.14573826 0.09931714 0.061183818 0.1382422 -0.015599465 -0.08864326 -0.053081553 0.10221114 -0.045348376 -0.0363863 -0.07627022 -0.10581503 0.07367812 0.049435433 -0.06862581 -0.04452821 0.08471945 0.10065095 -0.030634917 0.028441649 -0.13384016 -0.041106567 0.031253755 -0.049134787 -0.020940885 0.14030294 -0.058295123 -0.14856051 0.10540393 -0.096320234 -0.10664173 -0.0630465 -0.06112821 -0.059171937 -0.106695704 -0.14472164 -0.12959446 0.0034852675 0.11655655 -0.0676484 -0.09168359 -0.014721195 0.024843797 0.090336114 -0.049082667 0.13392484 -0.10143754 -0.11946238 0.07500405 -0.1484134 0.15247163 0.15084893 -0.14391433 0.045623645 0.09166138 -0.11987788 0.05917478 0.032372616 -0.049849845 -0.016091743 -0.057612304 -0.12698054 0.04118032 -0.14475624 -0.011798617 -0.10152284 -0.099935815 -0.14151649 -0.087740056 0.13924049 0.08027738 0.017257331 -0.08448148
operatorsassignment|or 0.023754347 -0.11366036 -0.14391276 0.046516627 -0.14275517 0.10854017 -0.0049684206 -0.06758675 0.032120887 -0.028677072 0.07332111 0.023991678 0.05930659 0.147695 -0.11488541 -0.020955808 -0.0032222616 0.06816974 -0.11602204 0.13630588 0.07830187 -0.035191536 0.04695242 -0.13176963 0.0932847 0.080493025 0.03438901 0.076903224 -0.07332364 0.05954294 0.03273238 0.10767343 0.04690639 -0.031917688 0.09668982 -0.11785006 -0.020591192 -0.115732215 0.04953525 -0.014329444 -0.019601773 0.03478094 -0.15287437 -0.08055598 -0.05452829 -0.12524825 0.109701365 0.08635799 0.009183986 -0.050740182 0.06057703 -0.12418401 -0.0909411 -0.12631573 -0.034335695 0.12841955 -0.070706375 -0.0034199306 -0.037994187 -0.14217699 -0.07496026 -0.08501746 -0.028455209 0.08464852 -0.1377375 -0.0953937 -0.12294267 0.13220921 -0.107384376 -0.12737466 0.11926313 -0.15833005 0.12088705 0.13584678 -0.07176888 -0.13403933 -0.030718775 -0.08297966 0.08765114 0.10433358 -0.06264689 -0.020798603 -0.13051912 -0.047298484 0.05322819 0.015521064 -0.09026787 -0.1439953 -0.13069373 -0.15363683 0.15574884 -0.06135854 -0.13473001 -0.03437399 0.09694715 -0.14018966 0.05461142 0.1536988 -0.083474815 0.01334567 0.15131448 0.090335324 -0.082109876 0.10539266 -0.084805645 0.0088942 0.12546676 0.14559682 0.12736781 -0.080185 0.057259392 0.13834955 0.14248528 0.048170447 0.012271402 -0.042773537 -0.09532672 0.11872023 -0.009062798 -0.014826849 0.069172345 -0.01210354 0.052574366 0.019480627 0.106954984 -0.009641928 0.016933843 0.010838275
ret -0.07795124 -0.056183606 -0.13745467 0.08389715 0.009864497 0.035495277 -0.023814907 -0.09895938 -0.03181809 0.018686084 -0.07086421 0.104831435 -0.06172716 -0.15654327 0.116514 -0.12200358 -0.0326315 -0.13813823 0.06297025 0.043215983 0.038818765 0.14527419 -0.07736866 0.028967176 -0.048788846 -0.07537032 0.09145936 0.055062395 0.090407915 0.083173536 -0.096791446 0.15880616 0.10054468 0.06672998 0.11335625 -0.01926038 0.02985085 -0.11389187 0.03551365 0.023831343 -0.050879028 0.12764798 0.03492058 0.0054670116 -0.03551374 0.015881408 -0.11835448 -0.0035568746 -0.040635988 -0.08073706 0.0054020425 0.0727418 0.15651065 -0.066652365 0.06472688 -0.13235626 -0.14237562 0.022314588 -0.086383484 -0.050501373 -0.0655015 0.09557321 -0.036330797 0.043189015 -0.1037027 -0.054057427 0.030121226 0.07796441 -0.14134933 -0.14648812 -0.012162272 -0.044428304 0.10708555 0.14544447 -0.14574653 0.15075539 0.042924795 0.15212996 -0.12952155 -0.07656369 -0.12520297 0.030965514 -0.11456384 0.11979814 -0.0032916535 0.0021473174 0.0074895634 0.10154868 0.10617628 0.14259747 -0.013935261 -0.10705899 0.02858351 0.07646572 -0.00163638 0.11961835 -0.13156742 -0.110875025 0.15338238 0.048582688 0.062094223 -0.08777921 -0.0822462 0.09998453 0.004248576 -0.11644192 0.03372914 -0.15002902 -0.117394045 -0.035931144 0.13961574 0.08711974 -0.034478925 0.054490723 0.02707316 -0.11415261 -0.11090205 -0.009908832 -0.13225232 -0.049865082 0.03613972 -0.07007676 0.108053505 0.121124946 -0.05132886 -0.06206806 0.026830306 -0.0690559
char|* -0.07392 -0.079155065 0.044563968 -0.014032236 0.021000177 -0.033444244 0.10460881 -0.12536262 0.059486084 -0.066239715 -0.12973842 -0.015395451 0.039230283 -0.12877046 -0.12649307 -0.13952096 -0.012549277 0.07894166 0.052945245 -0.07460321 0.11589857 0.13538721 -0.15293588 0.087028176 -0.08410488 -0.024533229 -0.10077875 0.071293555 0.14095835 0.0745044 0.038515404 0.038464278 0.08830373 -0.1390309 -0.010773075 -0.0437726 -0.12351631 0.021634612 -0.08589431 -0.11797684 -0.0002714384 -0.053061802 0.07077977 0.08517841 0.00064287905 0.021654546 -0.08621101 0.034332126 -0.15274148 0.027656501 0.08995811 -0.12864219 -0.08027533 -0.15185924 -0.10328227 -0.11833286 -0.14949957 0.05452933 -0.061751973 0.0015469012 -0.029839639 0.09133622 -0.04069173 0.10291768 0.08290852 -0.05698456 0.022144124 -0.11097434 -0.067162886 0.1405839 -0.07746916 0.103171594 0.0026352203 -0.13065533 0.04683792 0.15211268 0.07785504 -0.15807353 0.025100239 0.11186571 -0.13449317 -0.095657036 -0.00852609 -0.03278537 -0.09787624 -0.037337027 -0.12617391 -0.021034567 -0.022570912 0.06761789 0.12538259 -0.11713296 -0.097934105 -0.079123445 -0.13266349 0.021368966 -0.14482029 0.03984106 0.058704093 -0.06889085 -0.03280907 -0.023766609 -0.06038607 -0.13377762 0.0971898 0.09777958 0.11037827 -0.12752116 0.136922 -0.14859928 0.15185614 -0.13912469 0.043299824 0.13841985 -0.14481935 0.019320872 -0.0020401168 0.09627163 -0.0386866 -0.12910832 -0.139971 0.008270946 -0.04757558 0.14736357 -0.1407766 -0.08556524 0.10303287 -0.07308298
mp 0.015541136 -0.037060097 -0.08851056 -0.13742928 0.037983913 0.061787706 0.022794018 0.1471879 -0.050447714 0.11993644 0.09419959 -0.028219372 0.062392958 -0.010184022 -0.079914354 0.07126705 0.089084096 -0.06953711 -0.03194184 0.14059906 0.03361358 -0.10746355 0.05124391 -0.098257154 0.03398195 -0.12212185 -0.09109879 -0.00963866 -0.043119293 -0.0225058 -0.041424774 -0.1206268 -0.14391264 -0.07035446 0.09217983 -0.009669319 0.059209537 -0.08526931 -0.14282815 -0.09286706 0.004536869 -0.13200204 0.042074915 -0.117761634 -0.048544146 -0.08287474 -0.025520792 -0.12752242 -0.12863679 -0.013252063 0.06376104 -0.018001568 -0.041597687 0.14804502 -0.048789214 -0.1226773 0.14495708 0.08207073 -0.032805942 0.0024621035 0.0020962642 0.15133505 0.088982195 -0.14635621 0.08952308 -0.15661782 0.09785819 -0.107112154 -0.086369246 0.12438677 -0.115178876 0.11667849 0.12881379 -0.025198193 -0.08103397 -0.08619165 0.059249766 -0.10201767 0.10973289 0.14508305 0.1244854 0.103268184 0.1334664 0.054617457 -0.14992145 0.009093982 -0.028624848 0.10976023 0.119776644 0.14186846 -0.014942816 -0.012754305 -0.089038014 -0.037718214 -0.13316669 0.0004153028 0.14953558 -0.08610508 -0.033937972 0.00722093 0.11597393 -0.091164425 -0.03208814 0.05332391 0.049291592 0.03408944 -0.0067938715 0.10829375 0.032714415 -0.13165171 0.007243878 -0.07878764 0.1313834 0.14069755 -0.14265428 0.10818148 -0.049248166 0.113397345 -0.053165052 -0.1372585 0.084177345 -0.05525878 -0.0356506 0.031195493 0.020449027 -0.10385938 0.10422934 -0.10305353
static|void 0.06877071 -0.13217814 -0.13916835 -0.028988473 -0.007044218 -0.12684797 0.048673596 0.04695409 0.055042632 0.1034771 0.06088795 -0.036036033 0.05676214 -0.014808078 -0.077035196 0.062393885 -0.021266554 0.14165552 0.04844242 -0.007098896 -0.022398053 0.08808496 -0.01069063 0.1542947 -0.1268588 -0.005668962 0.07002799 0.15715207 -0.1553923 0.014339171 0.069062546 0.0015837322 -0.03408633 0.023242408 -0.03704448 0.0017801904 -0.08628438 0.052261233 0.021201603 0.039212745 0.013761617 -0.032683004 0.063468255 -0.14671887 -0.026736591 -0.06384546 -0.105539545 -0.029324284 0.089630894 -0.04014975 0.04304405 -0.07012875 0.006811025 0.1426902 -0.0796974 -0.1465442 -0.04647566 0.08496133 0.030184502 -0.04771864 -0.12533623 -0.029380973 0.042400368 -0.09676597 -0.0031079748 0.1482004 0.030297099 0.0568751 -0.022569232 0.11043022 0.09072432 -0.023146177 0.04898419 -0.13087957 0.038456835 -0.030269496 0.15485075 -0.010796609 0.045490753 -0.062389232 0.012649427 -0.015613903 -0.13511014 0.08172186 -0.1552457 0.070380986 -0.13198684 0.06345903 -0.15804797 0.041533336 -0.028496638 0.1120655 0.0765381 0.0404633 -0.05639631 0.017718058 0.08630969 0.015035984 0.057234425 0.1486191 -0.1368307 -0.006637835 0.12601334 -0.08819229 0.053953517 -0.15588182 0.101952694 0.13976043 0.008740975 0.12369611 -0.13249703 -0.026340349 0.07020961 0.0149530815 0.038999707 0.021258906 0.11521615 0.14252013 -0.011414899 0.017131753 0.02921879 0.0015220928 0.015104594 -0.08912421 0.12610637 0.071407735 -0.024743872 0.051436525
fe|all|except -0.016130168 0.046269573 -0.12447292 -0.10684257 0.063928075 -0.012229997 -0.00885494 0.03492513 -0.123761006 0.052904386 -0.040666383 -0.026530284 -0.050089255 0.08912226 0.10382663 0.11512763 -0.08773602 0.048703916 -0.069468655 0.0119584445 -0.14495209 -0.09010018 -0.015494711 -0.050520755 -0.12916182 -0.08862537 -0.03059852 -0.12536305 0.09100683 0.07896197 -0.08136296 0.01120412 -0.040174715 0.13456191 -0.07347111 -0.00066236616 -0.1476094 0.14084521 0.029410228 -0.11747371 0.08814831 -0.104115985 0.11009664 -0.13473713 -0.0062696543 0.011798768 0.024202729 -0.10559027 0.043390546 0.13023001 0.022805832 -0.09918918 0.061676208 0.080089256 0.14128521 -0.044396393 -0.115137085 0.023729837 0.14380768 -0.043982185 0.15232107 0.05918144 -0.09702258 0.14211842 -0.031039353 -0.05178881 -0.0072563095 -0.1500483 -0.13135523 -0.1067644 0.114465415 0.0988706 0.13023978 -0.06743814 -0.018219993 -0.079293124 0.054824643 0.095549025 0.14313261 -0.010887112 -0.06861175 0.081349954 -0.10045332 -0.082941025 0.046366658 -0.09191902 -0.08028307 0.030620748 -0.030436989 -0.06455661 -0.13759074 -0.1305999 -0.0014440438 0.035177246 0.045358963 -0.091939345 -0.020738818 -0.015339642 0.07530235 -0.12597387 0.069531396 -0.11607427 0.114323124 -0.029729221 -0.13337171 -0.11215997 0.014958278 0.015739694 0.09754973 -0.031220054 0.018796742 0.07717696 -0.12738419 -0.056216635 0.08458497 0.15555249 0.048797395 -0.1218333 -0.039346702 0.11643891 -0.10828945 0.09686876 -0.00089254626 0.08391879 -0.046512023 0.11519553 -0.13734354 -0.1334249
z -0.016438637 0.12034448 -0.02265693 -0.13353579 -0.0041101044 -0.0398505 0.056451604 0.1028644 -0.1390406 0.008698046 0.079503536 0.104505405 -0.060363818 0.030104624 -0.13809824 -0.018543437 -0.11442376 0.031804524 0.04552546 0.06927189 -0.12607148 -0.10529463 -0.07172377 -0.10306394 -0.12648588 0.03537996 0.10790105 0.04105388 -0.13972193 -0.081607595 -0.11281281 -0.094127856 -0.10824018 0.133269 0.102697656 -0.03855958 -0.13384025 0.06153611 0.0030491753 0.13589379 -0.08756244 -0.13424236 0.096996464 0.12936577 0.019348443 -0.039079353 -0.052031152 0.09883162 0.076354295 -0.059230838 -0.1522433 -0.14734152 0.005844943 0.017946783 0.10110671 0.006717239 -0.152868 0.1067398 0.032852806 0.042498175 0.09595107 -0.12141751 -0.031462498 0.10228644 0.016556779 -0.07368429 0.059090987 0.1361509 0.041452687 0.030406699 -0.0821417 0.08506683 0.14576916 -0.13745075 0.076375924 -0.13889565 -0.0031239076 -0.0422885 -0.15496263 -0.09529364 0.07211078 0.0757033 -0.027274963 0.07163174 0.023933345 -0.071779445 -0.015867766 -0.037392735 0.08344547 -0.15427823 0.10452128 0.12458743 -0.065224655 0.105652064 -0.12634057 0.053141795 -0.00375812 -0.14578845 0.095615044 -0.037165686 0.074407965 -0.06853263 0.09259391 0.14437342 0.12676589 0.029546255 0.02724571 0.031133316 0.09201214 -0.14461084 -0.14912522 -0.029009448 0.023352483 0.13067016 0.0033798073 -0.10606258 0.10140874 -0.14173585 -0.12193939 -0.14935899 0.062088113 0.017364502 0.15051943 0.045831155 0.11605927 0.15086904 0.10304325 -0.15301535
void -0.13245116 -0.005806476 0.112021334 0.0340134 -0.043265887 -0.02031587 0.09778654 0.12650649 -0.0766063 -0.09799036 -0.005683533 0.0024584618 0.084817916 0.017189007 0.054654647 0.15669318 -0.06773186 0.1511056 0.0054665557 0.09870405 -0.022719499 -0.07371181 0.124077775 -0.058979575 0.069516264 -0.051358905 -0.008669191 0.13215141 0.11829057 -0.023266416 0.015611414 -0.07113975 -0.06136158 0.02147606 -0.14166854 -0.13648786 0.06290843 -0.14242205 -0.1388792 0.13545622 0.05572677 0.08662181 0.038715824 0.15390411 0.111954965 0.107856445 -0.012464224 -0.01678452 0.036238886 0.15167011 -0.15503165 -0.08870967 -0.09002828 -0.022926066 -0.06520792 -0.1340123 0.028700264 -0.10949869 -0.036075585 -0.056764785 0.082484744 0.09539649 -0.115425594 -0.12128565 0.0118154315 -0.03704949 0.014059549 0.08860641 -0.01535968 0.07760551 -0.017677685 0.13327216 -0.03513353 -0.03687616 0.10381895 -0.050477155 -0.0049968036 0.12004005 0.04412684 -0.07190887 0.07020164 -0.053248882 -0.13395719 -0.14094794 -0.12919962 -0.01675351 -0.087847404 0.12919368 0.08147779 0.068426736 -0.08391798 -0.05651445 -0.12451998 -0.0027918066 -0.115509465 -0.00032591878 -0.10450685 0.08024985 -0.10631746 -0.06428941 0.08737591 0.13997203 0.1255438 0.00069973286 0.010790443 0.12615263 0.058303494 -0.14382486 -0.048830513 0.02196407 -0.062938936 -0.09095853 -0.03857685 -0.035707146 -0.123040594 -0.029512545 -0.049401518 -0.090867944 -0.090601586 -0.075173676 -0.12207659 -0.07251044 -0.09880164 0.0008551289 0.14030962 -0.11921656 -0.049787465 -0.14000899
i -0.124277644 -0.07568701 -0.061677046 -0.094674475 -0.09919175 0.018401839 0.057076026 0.11813945 0.11429301 -0.004933094 0.012322547 0.025225477 -0.1237386 0.10130412 0.089975424 0.13521007 -0.035461973 0.037354477 0.10960109 -0.06609308 -0.032088693 0.08038789 -0.09073777 0.039907128 0.013390835 0.032069664 -0.08965033 0.090894945 0.10423988 -0.013382858 0.1389495 0.0894602 -0.011026746 0.1018145 -0.116904676 -0.13038588 -0.089533776 0.1233356 0.12785155 0.069468215 0.14437363 -0.08344637 -0.12499829 -0.036014993 0.09832391 -0.07263371 0.13896121 -0.052156836 -0.02611057 -0.043344405 -0.035152756 -0.13272405 -0.05754835 -0.08175994 0.139751 -0.14256105 -0.15004627 -0.028977744 -0.11619817 -0.10364359 -0.14872299 0.000745736 0.115816265 0.010885552 0.056196176 -0.13087563 0.043064628 -0.074367315 -0.10817178 0.14674659 -0.09815735 0.077637784 0.0064834314 0.06915202 0.02572962 -0.115558214 -0.07810356 0.0888277 0.00049146084 0.030066362 0.11250986 0.13482274 0.07865104 0.028252887 0.08385105 0.1316853 0.15198863 0.12061486 -0.1328151 -0.0052523 0.03946518 -0.15099764 -0.0012708851 0.121854216 0.15797988 0.06141774 -0.13335021 -0.041647978 -0.055120796 0.12761106 -0.12498976 0.101283915 -0.008439338 0.023357762 0.09455309 0.11379387 -0.039952353 -0.14776978 0.0928444 0.114190266 -0.08542481 0.12163627 0.113712944 0.091749996 0.13342996 0.09308601 -0.09425808 -0.07226579 0.02750668 0.005038946 -0.09219317 -0.14742564 -0.002697185 0.007788228 -0.096971594 0.12301508 0.039551 -0.03627676
mpfr|t -0.13969077 -0.059383206 -0.024182588 -0.05290367 -0.03564418 0.0076114303 0.12963252 -0.120043084 -0.065388344 -0.10669614 -0.051754408 -0.048343834 -0.050014373 -0.00021765527 -0.042467788 0.003262924 0.12792961 0.11144046 0.07501678 -0.10695221 0.048661415 0.0118323 -0.035015997 0.027703784 0.021873213 0.04066097 0.1374565 -0.08311726 0.15073109 -0.11818887 0.09992319 0.14384235 -0.025885385 -0.09067417 -0.029779227 0.014215913 -0.13693546 -0.0015276988 0.11321393 -0.06683141 0.074612714 0.1198072 0.121323116 -0.15085424 0.10909657 -0.05962799 0.03603663 0.006410168 -0.08226162 0.077317886 -0.0025193905 0.124271244 -0.078914665 -0.035494223 -0.08970268 0.116764925 -0.13940129 -0.08793572 -0.022248162 0.11837515 0.079199985 0.09181937 0.13649496 0.0979803 0.053857412 0.053443294 -0.013243286 0.13730335 0.10497297 -0.091782555 -0.05339969 -0.14004807 -0.13685359 -0.08196412 0.05335418 0.10133002 -0.045036856 -0.017115958 -0.016588565 0.15320913 -0.07302004 0.10817037 0.018178942 -0.12340276 0.04493364 -0.032988016 -0.12755483 0.07213788 -0.10804638 0.012306387 0.060245883 0.07254562 0.079932936 -0.016830252 0.14868551 0.048287664 0.09116548 0.10682835 0.083230704 0.04032098 0.06999423 0.026852595 -0.055581257 0.050963648 0.14474924 -0.13253203 0.112035595 -0.09678973 -0.03702142 -0.11535728 0.14478947 -0.024602555 0.037633285 -0.06674504 0.12540169 -0.049609046 0.021530759 -0.14289749 -0.019179216 0.027495226 0.11519389 -0.039737016 -0.12778132 0.017627988 0.10635997 -0.10102774 -0.07432101 0.032433692
unsigned|int 0.10070659 -0.09555794 0.11981302 0.09436161 0.14351793 0.015981758 0.06724394 -0.11294613 -0.0066583897 -0.056022353 -0.079954006 -0.0068357172 -0.00888268 -0.05006293 0.14668743 0.14408591 -0.0056579607 0.054061566 -0.13341287 -0.123973206 0.11241938 -0.15472989 0.035800222 -0.029453967 0.13642146 -0.11889475 0.15503918 -0.07263959 -0.070845656 0.011980787 -0.09756518 0.0720964 -0.06452523 -0.025725797 -0.06398554 -0.085597135 0.13428979 0.03691086 0.012735538 0.086367875 -0.09242848 0.079128966 0.0010026146 -0.14197855 -0.07923677 -0.108984515 -0.09822528 -0.103550486 0.14215384 -0.11796525 -0.045101497 0.0752216 -0.11997549 -0.0637037 0.04391077 -0.11532804 0.011107517 0.009042986 -0.12539862 0.11457078 0.15510572 -0.03909506 -0.13833988 -0.14998767 0.08182353 -0.010585059 0.08337068 0.07823188 0.06261745 0.065537326 0.089674786 0.04376323 -0.05179607 0.0854637 -0.068014786 0.029246882 -0.031541415 0.051773235 -0.06281577 0.13730617 0.119972505 -0.11267487 -0.056327295 0.074391015 -0.090319626 -0.13728487 -0.044200145 0.05898579 -0.07327738 -0.14741972 -0.07189546 -0.07557051 0.0061823353 -0.007518897 0.081052266 -0.03305869 0.11610766 0.0946732 0.011361442 0.118202336 0.03598368 0.10781975 0.09008084 0.050127346 0.09498286 -0.04979 0.020477554 0.01518339 0.13448036 0.11306982 0.0923375 0.109492436 -0.046934146 0.0016786559 0.014195028 0.07973437 -0.11859296 0.13285074 0.13024688 0.13676164 -0.084858246 -0.051706318 0.110157706 0.11126998 -0.0931035 0.06890295 0.055564705 0.0012868084
mode -0.14709915 0.040267777 0.0946855 -0.04026259 -0.013718557 0.0922636 0.08519551 -0.043856177 -0.007162456 -0.07247354 -0.079431444 -0.014966619 0.03833062 -0.026163777 -0.06623265 0.056525197 -0.019535787 0.061047643 -0.10897625 0.006695945 0.1588368 0.11835272 0.13740028 -0.11066891 -0.025621219 0.09786579 0.10946718 -0.07503456 0.14689505 -0.008026331 0.024335377 0.119329125 0.056838922 -0.02248789 0.070455514 0.020494685 -0.10901197 -0.013284858 -0.07342207 -0.12289795 0.10169314 -0.060162067 0.077237315 -0.016117984 0.0043388987 -0.032055505 -0.06992961 0.09990365 -0.03213022 0.14907782 0.06124803 0.13655609 -0.105849065 0.1278059 0.10215332 0.11125988 -0.066118464 0.0175872 0.13950293 0.049170353 0.00922069 -0.119846076 0.119864285 -0.10922323 0.10805047 0.15163746 0.029531008 -0.07631263 0.007158058 -0.122761816 -0.10168276 0.040131852 -0.13087943 0.030193483 0.122725785 -0.016733164 0.14536491 -0.101787984 -0.042063363 0.1199143 -0.145996 -0.12869878 -0.053031944 -0.082716934 -0.0716171 0.12841646 0.010506748 0.10903388 -0.01949867 -0.14005375 0.021134524 0.02867066 -0.03998095 -0.1371149 0.0056237266 -0.09415885 0.06215518 0.13884959 -0.070498325 0.013024159 -0.007725835 -0.093893945 0.12071636 0.09514508 0.13144425 0.015931735 -0.04244735 0.12874839 -0.053380545 0.0749354 -0.11400793 0.0012408553 0.07755201 0.15211351 -0.113462925 -0.007685968 0.04173617 -0.13555446 -0.1435047 -0.05828599 0.10320463 0.10752462 -0.102068245 0.02779366 0.14210697 0.032513183 -0.062623255 0.085572876
cos 0.1526064 0.066886365 0.03411119 -0.0035971024 -0.07428317 0.108774856 -0.06843467 0.038005903 0.045490917 -0.0666463 -0.13834211 -0.0487646 -0.025767995 0.0005152899 -0.08180825 -0.052233312 0.08159371 -0.01170813 -0.06446072 -0.07802875 0.093109295 -0.07285192 0.09534783 -0.03262693 0.09764471 -0.0904487 0.016055321 0.03512771 0.13971855 0.05111286 0.066710725 0.14519866 -0.038565207 -0.14508055 0.082279526 0.08970668 -0.03398836 -0.037142634 0.1295039 -0.10008276 0.10752627 -0.12875657 0.13990209 0.048679415 -0.010435826 0.012295034 -0.09597619 -0.12783182 0.12394711 -0.05478173 0.03824763 0.06178143 -0.00012779358 0.09677428 -0.12203926 -0.06350647 0.053804256 -0.1371834 -0.008179418 -0.061651263 -0.09574787 -0.104421996 0.0453759 -0.009493603 -0.068644345 -0.065323055 0.024216037 0.023484051 0.10021404 0.10334891 -0.008393902 0.049404435 -0.047990486 -0.0570033 -0.12592362 -0.090349704 -0.10282682 -0.055955987 0.04583579 0.0018251626 -0.08561688 -0.14513023 0.06451021 -0.12096869 -0.0577629 -0.021216288 0.034029517 -0.10096138 0.12571858 -0.086755544 -0.06927537 -0.027335122 0.12518984 0.011867424 0.13575168 -0.08386526 -0.03998393 0.07906077 -0.05538027 0.092766985 -0.09546929 0.03246873 -0.013782501 0.12369779 -7.75879e-06 0.11577384 0.03189252 0.05771444 0.04697731 0.1479447 -0.015349056 0.08647255 0.10094178 -0.14296077 -0.13202512 -0.04703307 0.00983051 0.04457644 0.0075893663 0.087506436 -0.14660385 -0.04060537 -0.06671436 -0.13744411 -0.10006645 -0.13391577 0.1136281 -0.046381485
conj -0.0022640435 0.03668015 0.051546134 -0.15360394 -0.07938423 0.09620528 0.01346802 0.03728801 0.050009727 0.056669004 -0.094255805 -0.060517494 -0.06431854 0.09878851 -0.08782271 0.056529664 0.040952552 0.14115682 0.11588887 0.036349695 -0.11256309 -0.10724821 -0.1369011 0.056817353 -0.12794726 -0.091139115 -0.074513346 -0.1031078 0.022778012 -0.09693159 -0.088626504 -0.12324556 0.020141786 -0.1462145 0.02323355 0.0125692785 0.14149305 -0.07950132 0.032365452 0.10357507 -0.0116728395 -0.110301696 -0.11801844 -0.105574735 0.022474073 0.11708733 -0.0909541 0.051530126 -0.07389918 0.124946155 0.089374825 0.10985451 0.034075845 -0.08725363 -0.006580411 0.07206733 -0.11866206 -0.10994478 0.011396703 -0.13566005 -0.0066953325 -0.12045354 0.10144396 -0.013501078 -0.049140595 -0.06334749 0.056157134 0.08352952 0.06782588 -0.15429497 -0.10504965 -0.06123272 0.055946715 -0.107711546 -0.07932652 -0.06491032 -0.008018907 -0.0998116 0.008999557 0.049317393 -0.13354608 0.052772123 -0.0033488998 -0.06541086 0.049032032 0.119232215 -0.14316912 0.0068302564 0.027470285 -0.1372363 -0.13176185 0.07634571 -0.1463405 -0.04050667 -0.08245262 0.116292424 0.03866544 -0.12222301 0.13363586 -0.11444972 -0.11351883 -0.15838459 -0.0800689 -0.027183546 -0.14004898 -0.029535243 0.10853661 -0.0065880017 -0.13540182 0.05806289 0.11729864 -0.14115305 -0.03915556 0.071217634 0.14106154 -0.064830884 0.13921535 -0.022848785 -0.018258896 -0.1056898 -0.038632892 -0.1113085 0.07182872 -0.13572088 0.112331696 0.12656525 -0.04516583 0.023957726
size|t 0.015724398 -0.07383346 -0.025976237 0.079286665 0.087116785 0.1269539 0.111855276 -0.06517153 0.10099002 -0.14378908 -0.077898204 -0.019600496 -0.14260909 0.011273967 -0.12745963 0.13356206 0.026681496 0.054819103 -0.024706446 -0.00091849343 -0.13286602 0.09085604 0.102677144 0.078136474 0.053873412 -0.07671059 -0.0075566713 0.11540161 0.05564218 0.006370727 0.0070445677 -0.039303076 -0.08720782 -0.035637382 0.0759218 0.0017584618 0.06306767 -0.1576669 -0.1466219 0.08395778 -0.10924321 0.06617027 -0.13976148 0.08763281 -0.0042603496 -0.064065054 -0.15403782 -0.03247252 -0.1022396 -0.013560367 -0.00086657086 0.102154076 0.14231592 0.0010553249 -0.13584585 -0.07985659 0.059089314 -0.13041516 0.117163695 0.022248648 0.1082859 -0.03713383 0.022540206 0.02350127 0.116123565 -0.12505847 -0.14189634 0.0032687776 0.041902874 0.13794218 -0.075171776 -0.04355846 0.09966542 -0.085130885 -0.06566753 0.003012049 -0.14590403 -0.084063925 0.12043284 -0.04979772 0.11638557 -0.041956022 0.044227775 0.013459999 0.13300103 -0.026251748 -0.084840275 0.13549212 -0.043216605 0.1093762 0.028670345 -0.05505755 0.09214592 0.071744755 0.12804271 0.09767991 0.14547417 0.010300123 0.0006127245 0.10134441 -0.06440916 0.03813471 0.0705086 -0.088315874 0.124943264 -0.04572267 -0.006030197 0.110584445 -0.013845547 -0.00044844975 -0.12803777 0.13005842 0.11948606 0.12695542 0.08420448 -0.048926752 -0.033310205 -0.13768415 -0.017931232 -0.0052263443 0.09288545 -0.06572032 0.007006993 -0.041486718 0.060836263 -0.10759203 -0.054928806 -0.09352874
vint -0.089493014 0.081900105 -0.14093775 -0.084550604 -0.14174928 -0.12097505 -0.12960154 0.1046634 -0.06480088 -0.036496025 0.06851744 -0.06206156 0.020112915 0.024201129 -0.1489112 -0.096414365 0.033630136 0.12672688 0.08666475 -0.061520588 -0.022567982 -0.028855149 -0.08546904 0.07057848 0.10517945 0.014556673 -0.14750397 0.008430485 -0.0039806347 0.012149535 0.07828345 0.11892144 0.00825272 0.122713916 0.09079513 -0.09096725 -0.0708801 0.031592496 0.08256132 0.092325665 -0.11627602 0.029042363 -0.07655129 -0.15743993 -0.13611719 0.091873325 0.021245733 0.05411129 -0.12109894 0.08706889 -0.066601284 0.08988665 -0.107589714 -0.015867297 -0.13069019 -0.034242842 0.1421763 0.068345584 0.13523546 0.09357132 0.11263209 0.15099758 -0.059073955 0.0766247 0.079868704 0.053844552 0.00815464 0.10470338 0.06456383 0.101280786 -0.034086566 -0.10233413 -0.09973876 -0.035625897 0.13507238 0.05118327 0.026047511 0.023171496 -0.032341857 0.024327125 0.063803285 0.088925 0.14743336 -0.04624991 -0.062887095 0.0063866638 -0.08205444 0.0017120206 -0.012218364 -0.10511594 -0.09503943 0.071226835 0.12419247 0.03363025 -0.0492935 -0.09743293 0.032182403 0.032016482 -0.09916572 -0.018937096 -0.0708394 0.013916432 -0.14867006 -0.044600975 0.11603784 0.075135686 -0.022156192 0.07132 -0.032020394 -0.015694585 -0.13513285 -0.030554734 0.0062539447 -0.062342547 -0.06909902 -0.15677541 0.1388405 0.051669385 0.067256816 -0.12962502 -0.06556903 -0.10562644 0.11211136 -0.12728776 0.15268837 0.015671205 -0.08098665 0.15348376
ok 0.06446948 -0.07022949 -0.015324894 -0.13834177 0.03229773 -0.14055473 0.03926628 -0.13942182 0.15486461 0.10969501 0.0050082435 0.108881995 0.10856256 0.005164133 -0.12791908 0.06017787 0.124159016 0.1027878 -0.04275775 0.047130942 -0.09777307 0.110184215 0.10581857 0.10124078 -0.118139334 0.1189824 -0.07840743 0.033048864 -0.1449418 0.13735451 0.04169738 0.0710164 0.108364716 0.06531254 -0.04321829 -0.018488098 0.14477096 -0.1522705 0.14625111 -0.009397013 -0.10460644 -0.04843547 -0.040679652 -0.02854314 0.13128372 -0.10710924 0.031200068 -0.1106314 -0.052900974 -0.021487283 0.08308751 -0.09563291 0.12948693 0.0016103305 0.14392193 0.040539082 0.09620884 -0.09133108 -0.050279796 -0.04692041 -0.12735209 -0.04286865 0.041865252 -0.11213939 0.008519277 -0.07747409 0.030835224 0.036557786 -0.12552984 0.08314454 0.12284107 -0.1424533 0.14645611 0.13664141 -0.053342205 -0.09311469 -0.11792145 -0.07125308 -0.046876654 0.033822134 -0.010778833 -0.09013572 -0.10314123 -0.08922735 0.11018224 -0.08612262 -0.013420673 0.03587617 0.09557176 -0.09676042 -0.11026142 0.023281453 0.12580694 -0.121604264 0.085190035 0.028089907 -0.13017991 0.15331602 -0.0386873 0.06034562 -0.14035027 0.052252933 -0.06533041 0.109985545 0.08885936 0.057816118 0.12963964 0.08947786 0.12676527 0.08822719 -0.1442181 -0.09515367 0.07177554 -0.019748101 -0.016282402 -0.14433302 0.038744684 -0.10067826 -0.13716237 -0.13161975 0.12590909 0.039235797 0.12182249 -0.036183115 -0.086964674 0.14200595 0.04227301 -0.046288706
fabs -0.15293112 -0.042687066 0.081894934 -0.00073234 0.10169311 0.11639409 -0.14572693 0.14219338 -0.026361903 -0.028274613 -0.04580161 0.093773216 0.0723913 0.13692869 0.11839742 -0.06459336 -0.12745224 0.046904813 0.14816037 -0.13751237 -0.07168792 -0.010439114 -0.11516064 0.07617893 0.12862526 -0.037588697 0.06326326 -0.057364803 0.0003844442 -0.042086646 0.011520692 -0.028860329 -0.071042694 -0.0032317445 -0.07304124 0.05095244 0.029087003 0.11261501 -0.050890554 -0.1014931 -0.13837902 -0.028806247 0.028360095 0.05431905 -0.0066140466 0.017718272 0.068592064 0.11514702 -0.09945934 0.08268666 0.12667905 -0.044047333 -0.13799168 0.07254342 0.051121168 0.02197148 0.06600954 -0.123690374 0.055318877 0.115944 0.085934035 -0.018113941 -0.14976472 -0.02728639 -0.13768728 -0.15317039 0.035215452 -0.087223195 -0.076491505 0.14114377 0.02264419 -0.012604622 0.043316483 -0.15031837 -0.061375402 -0.020165991 0.032561984 0.12135887 -0.11848401 -0.0023408055 -0.0129033 -0.1070344 -0.010707681 -0.058412053 -0.13859837 0.07970922 0.022402259 -0.105733834 0.0038662893 -0.13562237 -0.15467781 -0.10205891 0.016108546 -0.14759432 0.13983184 0.01218316 -0.05424132 0.11835886 0.01971497 -0.060045287 0.036411192 0.074244566 0.11685687 0.08127038 -0.10837037 0.09171065 -0.039307866 0.14527084 0.075812146 0.0258021 0.006090909 0.15140434 0.07779786 0.07994821 -0.095591955 -0.076186284 -0.054149564 -0.091907665 -0.10525772 0.10037637 0.092819564 -0.108638145 0.14571014 0.06405262 0.0006447168 -0.06620969 -0.08486631 0.02694454
char|[|fstr|max|] 0.122558884 -0.0674459 0.14815001 0.072145805 0.03471931 0.13753428 0.06420533 -0.0013528094 0.08514739 0.112810396 -0.15015513 -0.07563938 -0.115143254 0.14950244 0.08337497 0.10148287 -0.020188753 -0.10524057 0.057719395 0.08678789 -0.038611017 0.09527398 -0.022147018 -0.02314277 0.08786646 -0.05091899 0.005805083 -0.036021408 -0.14193587 0.0721925 0.124609224 -0.059075978 -0.009606849 -0.13957109 -0.0657638 -0.12407148 -0.035726853 0.13184324 0.15546097 -0.061685577 -0.12140821 -0.063315034 0.08620552 0.037129577 -0.14055552 0.054691255 -0.007075349 -0.10066665 0.109293886 0.115933955 0.113970526 0.13026913 -0.103376426 0.12553453 -0.108400375 0.15560493 -0.0370615 -0.025001543 0.115957595 -0.12343549 -0.032958653 -0.008726061 -0.058268897 -0.01921906 0.12520869 0.06446173 0.052134138 0.116413295 -0.10772857 -0.118680716 0.009845123 -0.105948426 -0.07057781 -0.10918616 0.027558079 -0.047647536 0.14329207 -0.104318656 0.034539986 -0.0867668 0.11989646 -0.15254235 0.09325493 0.14200893 0.13508157 -0.12538901 -0.08568794 0.15037507 -0.11621255 -0.051838 0.057676725 -0.10474502 0.1397659 0.14270091 0.03652033 0.032360516 -0.14243273 -0.109443545 -0.085807905 -0.12720482 0.1057323 0.029388217 0.120928936 0.078202486 -0.01276511 -0.15366268 0.10794719 -0.119713455 -0.11345952 -0.079229064 0.12412787 -0.08642883 -0.09338461 0.019326704 0.03522149 -0.042832255 -0.1484891 -0.10570118 -0.05732871 0.044038713 0.07157105 -0.13306186 0.13409787 0.060973126 0.14122641 0.0696753 0.030562434 0.0870176
static|int -0.1547691 -0.022923209 -0.108288504 -0.026857596 -0.08646239 0.024457714 0.08762485 0.018581608 0.08336591 0.074784674 0.12639922 0.11732684 -0.011793238 0.008142181 -0.06687688 0.14084469 -0.06672235 0.029972728 0.14235142 0.09068993 0.08826357 0.075431235 -0.13236149 -0.0702597 -0.075836904 0.05653571 -0.101028025 0.017406037 -0.03926828 0.078525044 0.038068324 -0.13728973 -0.045000322 0.05218667 0.122806214 -0.065129206 0.08417715 -0.032150943 0.017506368 -0.09397617 -0.045733143 -0.04630475 -0.15525305 0.031136733 0.102589615 0.027887974 -0.13126965 -0.088209875 0.13600947 0.09640086 -0.09457117 0.13317947 -0.06418126 -0.14518479 -0.13716303 0.044313155 -0.074759975 -0.06421967 0.10343526 0.0625067 -0.04405988 0.113212004 -0.052405793 -0.067378975 -0.016191777 -0.0005340264 -0.07324802 -0.051787965 0.14716846 -0.008883471 -0.13880567 0.058348153 -0.15331972 -0.0785124 0.14143753 -0.062371306 0.1148619 0.12467869 0.14866936 0.13421057 -0.011771035 -0.071076564 -0.036268417 -0.09902856 0.07617142 -0.06718988 -0.03754294 0.0012054855 0.12035149 0.009741813 0.106279634 0.055527303 -0.063611954 -0.11194262 -0.08687651 0.07701937 0.0019204104 0.082098015 0.09397622 -0.12038951 0.12916154 -0.023838168 -0.08888644 -0.074601084 -0.13524793 0.124393076 -0.03445349 -0.016735304 -0.06242876 -0.032076895 0.0047129896 -0.0043431735 0.1109069 0.1446629 -0.15342654 0.031821966 0.10485106 0.117518835 0.03648782 -0.060125306 -0.007242298 0.02576717 -0.067671 -0.09389087 0.1579902 0.0805901 0.064343154 -0.0114929695
anonymous -0.051697828 -0.10711062 -0.1392554 -0.07961223 -0.1510176 -0.0062755006 -0.087217495 0.075434506 0.12742901 0.13845295 -0.07426597 0.0086314045 -0.034287103 -0.054891415 0.05221846 0.048418842 -0.05001516 -0.05912349 0.13334894 0.03119793 0.017417723 -0.15543064 0.036717903 0.048355497 0.05153784 -0.10657976 -0.13357365 -0.06654516 -0.04665968 0.018478636 0.1149387 0.013056942 0.11021826 -0.055886336 -0.05508699 0.13655134 0.053789735 -0.024842102 0.019201227 0.09772496 0.1254699 0.028290674 0.09375833 -0.060335558 0.05496316 -0.09001049 -0.02715259 -0.14827651 -0.15314403 -0.01172198 -0.10002681 -0.09886916 0.13210182 0.0152281085 0.07582456 0.04864951 -0.054459576 -0.12642802 -0.11199992 0.097617544 0.0026306442 -0.08618886 -0.14064564 -0.13495545 0.030515062 0.050250996 -0.11572309 -0.011984514 0.051098213 -0.13255545 0.06916724 -0.006997971 0.13868824 0.044330336 0.12859166 0.021301642 0.006490486 -0.1264803 -0.15462646 0.11225975 -0.01967768 -0.13981959 -0.07262037 -0.06032619 -0.13812982 -0.07668418 0.10976258 -0.042188633 -0.09783657 0.08606141 -0.12289257 0.120279334 -0.07399586 0.053164683 -0.01736268 -0.009753792 -0.15179442 -0.09897375 -0.059996687 0.03243461 -0.08930838 0.039775584 0.024880309 0.04748009 -0.069666944 -0.053616498 -0.019247813 0.13313161 0.010029348 -0.13548449 -0.084095314 -0.057704993 -0.13499305 -0.039789744 0.047597323 0.06528185 0.038683202 -0.030589376 0.059317492 0.016694037 -0.020458128 -0.102695145 0.05270053 -0.112879455 0.11876712 -0.09729757 0.046265606 0.107892945
vllong 0.07542278 -0.15834804 -0.10707893 0.07763655 -0.07298343 0.11353393 -0.09677804 -0.0496032 0.05401285 0.10732597 -0.08796287 0.031203091 -0.07064422 0.08919536 -0.093843706 0.14001076 -0.00011429872 -0.14724402 -0.12919933 -0.07725814 0.12049593 -0.023125622 -0.053515993 0.06310678 -0.08191223 0.042894915 0.013463978 0.10757649 -0.061633367 0.105465434 0.055049814 0.14730833 0.12249893 0.08479005 -0.13506687 0.031031631 0.069376975 0.02528499 0.069776125 0.12572993 -0.059575986 0.013117268 0.08135504 -0.14450954 -0.112040326 -0.13382415 0.072993174 -0.09972939 0.040013094 0.05485461 -0.007063097 0.111132495 -0.005825047 -0.1401596 0.016710047 -0.056068312 -0.03842557 0.11208452 0.039614644 0.059121378 0.06395482 0.012004889 0.093290135 -0.013262005 -0.001847755 0.09335745 0.12343413 0.04233433 -0.14743784 -0.0051022717 -0.07633444 -0.15752305 0.09185475 0.02449399 -0.099078156 -0.11623106 0.033971816 -0.021399498 -0.10206121 -0.021748539 0.078408614 0.14081722 0.14081633 -0.08327495 -0.109134376 0.13591011 0.15600091 0.10011778 0.011793369 -0.056616902 -0.09200256 0.13411582 0.06535715 -0.11026134 -0.041087303 -0.06466217 0.08353752 0.045452688 -0.03815954 0.111756526 0.05313495 -0.0036276884 -0.0180825 0.06520144 -0.037678517 -0.04965625 0.11059275 -0.067233 -0.020542594 0.026098294 -0.08995031 0.1348017 0.044248275 0.0941015 0.067049295 0.037691664 -0.14429602 0.1295232 0.1120858 0.12742396 -0.096822694 -0.081998855 0.119220495 0.13840492 -0.11193851 0.10962126 -0.13106887 0.06185768
puts 0.09638607 0.12233012 0.10623824 -0.03053906 -0.14178154 0.036069486 -0.088343956 -0.1418324 0.09755946 -0.06552726 -0.14292325 0.0036536432 0.024029423 0.07314274 0.030619565 -0.050559398 0.098941624 -0.14361192 0.0703647 -0.07991223 -0.021998677 -0.026252976 -0.07545299 -0.06376083 -0.040213406 -0.010924034 -0.123994134 -0.04002979 -0.13796861 -0.024172768 0.1423193 -0.089271076 -0.054570563 -0.013972076 0.1289292 -0.050141152 -0.021316193 0.00830993 -0.01804575 -0.014477702 -0.10555193 -0.1467537 -0.073431954 0.043996915 -0.14152542 -0.029215515 0.09813548 -0.031930737 0.1502268 0.012155685 -0.017821608 -0.08673435 -0.08288231 -0.114144325 -0.016214423 -0.04268762 0.14773165 0.049693458 -0.10291203 -0.13518678 -0.13289967 -0.14165583 -0.00020496416 -0.00494771 0.0012110819 -0.05855942 0.03423811 -0.05796626 -0.10931454 -0.09018609 0.070376515 -0.0061712917 0.07786591 0.081249386 -0.09350711 0.10582298 0.12544462 0.13034038 -0.06966241 -0.005917682 0.047836695 -0.062992066 0.09255009 0.026117971 0.051970694 -0.051381 -0.0108059505 0.021108251 -0.047468077 0.026440931 -0.014426775 0.10141593 -0.13881911 0.032705147 0.08745842 -0.05760004 -0.013880931 -0.09989798 0.08930667 -0.07680298 0.09322177 -0.0706424 -0.007133032 0.14598896 -0.06096354 -0.078251794 -0.061911557 -0.048571933 -0.108878456 -0.10213413 0.072510175 0.025057506 -0.062431 -0.060345814 0.13374826 0.018631717 -0.07000545 0.089233235 0.11579001 0.1380704 0.12945321 0.14832178 -0.06374261 -0.14905767 -0.032570187 -0.082223 0.05177139 -0.073115796
c 0.042989 -0.011630584 0.13237289 0.07961672 0.07540148 0.13614427 -0.04644299 0.09996008 -0.03436118 -0.09124765 -0.026650539 -0.016680697 0.010814228 0.09574797 0.06271376 0.06568961 -0.08146244 -0.057428557 0.004474085 -0.10766614 0.118531324 -0.121159464 -0.06705749 -0.12733978 -0.038485926 -0.13811164 -0.12771577 -0.12741946 -0.067722484 0.11866008 0.0288941 0.09335909 0.05616852 0.053098656 -0.106838375 0.011205996 -0.12174216 -0.089969784 -0.08747562 -0.12149757 0.05090859 0.033193335 -0.13361579 0.06291128 -0.05890058 -0.08728802 -0.08049201 -0.044455912 -0.0067157513 -0.13629887 -0.08933359 -0.12290821 -0.049929384 0.047593344 0.0792314 0.13616337 -0.12539269 0.0055271694 0.07102716 -0.039491583 -0.075866036 -0.041157648 0.0064325575 -0.030380974 0.11184027 0.1412681 -0.11620258 -0.01641743 0.0008478103 0.14548829 -0.058450196 0.009601461 -0.032824457 -0.052737728 0.049361598 0.12012994 0.089510396 -0.06549473 -0.039488677 0.13405256 0.09624742 -0.044501275 -0.05938147 -0.0978541 -0.13017747 0.05991818 -0.07183838 -0.15220457 -0.12965141 0.04863593 -0.037055172 -0.07509064 0.02892337 0.13316974 0.11251003 0.111005135 -0.0074743154 -0.13820979 -0.024869727 0.09675607 0.004783695 0.14250873 0.10124759 0.07737439 -0.08221824 -0.13587713 0.10383558 -0.020810843 0.048942115 -0.14220183 0.123407006 0.13845542 -0.011864318 -0.12831612 -0.13610208 -0.031331584 -0.01839636 0.043048244 -0.14361063 -0.012582074 0.047849298 0.06718804 0.035381284 -0.059601057 0.12531024 0.14719096 -0.02079804 0.14262463
real -0.053368676 -0.1081556 0.08054681 -0.087797426 -0.05453492 0.10930705 -0.031244278 -0.092026785 0.0531888 0.13704969 0.082816 0.065101765 -0.037522815 -0.013017906 -0.14657123 -0.0954993 -0.016377436 0.03675802 -0.09767732 -0.07047095 -0.059889268 -0.09710816 -0.036276355 0.09518342 -0.03031509 0.007487492 0.121803574 -0.11112331 -0.072917506 -0.14206205 -0.13047235 0.07513309 -0.010008106 0.06788386 0.02525191 0.024072438 0.09293751 -0.035393517 -0.11402853 -0.044075098 0.03321615 -0.13971056 0.14394577 -0.07261585 0.08710547 -0.07999725 -0.11289847 0.11159528 0.11237172 0.12308795 0.008010529 0.10279459 0.1264144 -0.084053166 -0.019733934 0.04003028 -0.10247295 0.13054438 0.1093773 -0.04870432 0.04206993 0.0114753675 0.09994226 0.10815907 0.0125574 0.083567224 0.15024132 0.017557804 -0.04448643 0.020719277 -0.098054856 -0.116637886 0.008974302 0.049938574 0.11928984 0.07596128 0.11078448 0.08815894 -0.13478379 0.06277651 -0.046443377 -0.14531219 0.020185402 -0.14226967 -0.040041078 -0.031906806 0.085409254 0.034500252 -0.074174285 -0.10042922 0.07471545 -0.014832133 0.010302285 0.006386523 -0.14393932 0.15482168 -0.14687082 0.13747817 -0.022510393 0.11405206 -0.118006445 0.13509642 -0.07717503 -0.011762585 -0.12376229 0.13176996 0.013094564 0.08276419 0.0816951 -0.011300881 -0.109394476 -0.025933294 -0.0119247725 -0.10437471 0.022608373 -0.027174352 -0.10995616 -0.04819266 0.015287701 0.029869331 0.013445779 -0.059295002 -0.016751282 0.014111443 -0.08935193 -0.118580475 -0.11467454 0.051472586
fe|exc 0.026705654 0.14475162 -0.008071581 -0.057642426 -0.12587483 -0.09718679 -0.10543964 0.019625895 -0.038561117 0.11857767 0.0065037017 0.15421446 -0.038397163 -0.042058524 -0.06917436 -0.10099989 -0.13657068 -0.04377196 -0.12037296 0.13755038 -0.07488608 -0.045841403 0.10118863 0.015551617 0.13720311 -0.12712 -0.07675797 -0.14187519 0.026778584 0.03673426 0.06021617 -0.1063741 -0.12972039 0.017864766 -0.07774976 -0.051571377 -0.109842695 0.0061841775 -0.114617296 -0.047269154 0.03539016 0.12512523 0.024179667 -0.10371916 -0.072868764 -0.01064373 -0.074823685 -0.15343046 0.06655035 0.09320824 0.13550802 -0.011582676 0.14187622 0.012671443 -0.012940096 -0.09363059 0.04644739 0.09803006 0.030371629 0.050386272 -0.051203523 -0.13962631 -0.11135065 0.1430003 -0.043548007 -0.01161168 0.02627423 -0.051871225 0.10743562 -0.051150046 0.06445678 0.14468792 -0.13751885 -0.0074109356 -0.0039732265 0.01516906 -0.069769956 0.045742825 0.008176214 -0.12894338 0.010654644 -0.06392419 -0.03656486 0.054503623 0.0032408745 0.04462388 0.14270929 -0.032789372 0.07880655 -0.1425739 -0.049186043 -0.05587667 0.010843475 -0.0066691046 -0.12665974 -0.07504693 0.09655687 -0.04314531 0.122672625 -0.10106308 0.056031637 0.09978604 -0.036185015 -0.14309372 0.14559892 -0.10113855 -0.1450996 -0.045154616 0.0679527 -0.032370407 -0.09031875 0.03270471 -0.042652853 0.030389752 -0.03927423 0.13094573 0.037907995 -0.038226742 0.11937355 -0.050918736 0.14103782 -0.10445502 -0.12950213 -0.010822689 0.07802084 -0.14058895 0.0996292 -0.01107569
test|name -0.12475247 0.094613105 -0.072839275 -0.019215817 -0.025558952 -0.054307878 -0.15054192 -0.09368312 -0.0099395 0.033031676 -0.06015965 -0.14463528 -0.11694012 -0.037239462 0.14275287 0.030716108 -0.056400657 -0.038885314 -0.14462742 -0.102717556 -0.15118898 -0.053734917 0.07376316 -0.015340375 -0.121550396 -0.029967293 -0.070015185 0.03475957 -0.015263426 -0.049507733 -0.073548116 0.017707072 0.09966511 0.08820989 0.09609317 0.016800554 0.011719764 -0.09042887 -0.026978942 -0.09285269 -0.12591384 0.13497375 0.047927428 -0.123915516 -0.13900532 0.11159074 -0.08716109 0.14177735 -0.049008865 0.064714864 0.1428692 -0.096057616 -0.036208425 -0.039013024 0.09686079 -0.1359997 0.15178844 0.13014935 0.041247502 0.14101107 -0.017789628 0.114617296 0.02162385 -0.0035877295 0.0012650057 0.14894566 -0.1188226 -0.04268048 0.09903922 0.1361568 0.15188445 -0.094490044 0.03564651 0.13614374 -0.0461961 -0.12828691 -0.15398498 -0.011144987 -0.05040512 -0.09648227 -0.105714 0.1508417 -0.14230339 -0.097922124 -0.11937674 -0.030869175 -0.07491583 0.07508014 0.034754474 -0.11839995 -0.01934427 0.13758995 0.14643899 0.10307135 0.0147119835 -0.13051431 0.036244147 -0.05633816 0.08844669 -0.14687072 -0.10662013 0.15344976 -0.009448023 -0.032081045 0.031134663 0.10198904 0.14668721 0.104251996 -0.09878933 -0.07916497 0.047731884 -0.12757427 -0.13682084 0.023380091 -0.14269423 -0.05149165 -0.023182916 -0.04910984 0.091507375 -0.11777952 -0.12391266 -0.06710835 -0.039726887 0.09238281 -0.054323 0.0096095 -0.08276703 0.10879432
exceptions 0.026463782 0.11346702 0.08768402 0.14246401 0.097241655 0.04465878 0.12693642 -0.011800319 -0.0024357624 -0.12496035 -0.047501445 0.15657446 0.015111285 0.112846754 0.13112442 0.024026668 -0.10476738 0.08762255 0.008064244 0.035824604 0.013138257 -0.14898433 -0.05793566 0.03125812 0.00422425 0.10686743 -0.02987312 0.010581743 0.10736848 0.06258398 0.13095757 0.11355608 0.12460283 0.024802383 0.06497637 0.021254761 0.086928956 0.024805218 -0.12098732 0.07385746 -0.028767332 0.10809396 0.05814118 0.13072498 0.10783865 -0.14966236 0.04055676 -0.10825432 0.12958482 0.1349213 0.036446266 0.03347687 -0.14993899 -0.10205398 0.060313232 -0.020433618 0.042056423 0.035865847 -0.009657374 -0.07000277 -0.09264484 0.063401006 -0.13920213 0.118995085 0.11427898 0.02760588 -0.031020038 0.06478612 -0.14938238 0.043476645 -0.101168096 -0.050494377 -0.026371978 0.07489847 -0.14508697 -0.09422412 0.05510061 0.093651526 -0.05674725 -0.13674025 -0.07696689 0.116012 -0.13873625 -0.10172516 0.078172654 -0.030088149 -0.14612955 0.10599851 -0.018536689 -0.06562303 0.09809707 0.0987526 0.15359956 -0.013896056 0.07875791 0.02722193 -0.014221018 -0.0941848 -0.056716774 -0.053898003 0.14489406 0.12632014 -0.00019439624 0.11086297 -0.055265434 0.088288836 -0.043390278 0.11847195 -0.033522114 -0.034998037 -0.13047054 0.085994855 -0.08959104 0.041638363 0.12269616 0.0873832 0.113841385 -0.09257768 0.08998558 -0.014592765 0.08996262 -0.09121116 -0.03423775 0.11377351 -0.124961935 -0.11820782 -0.11984247 0.062040713
builtin|expect -0.033071794 -0.0074245436 -0.06154477 0.054665472 -0.14557362 -0.005449734 -0.06158626 0.065040775 -0.124386914 -0.03494665 0.12810269 -0.058355603 0.114242025 0.14706127 0.13076553 -0.119846836 0.013588962 -0.1310774 -0.070288084 -0.0019147387 0.015341604 -0.10000083 -0.072619066 0.15041946 -0.070702165 -0.12585177 -0.122429706 0.064023495 0.100707546 0.057619333 0.09690693 0.09574881 0.1440305 0.049065016 -0.024541734 0.15157941 -0.07096839 0.117073 0.11762147 -0.110893175 -0.13929844 0.0045121303 0.119644 -0.028247688 0.012402984 -0.03179579 -0.0651504 0.07110743 0.108954705 0.005651342 -0.06419228 0.068406455 -0.1493464 -0.005922298 0.026041623 -0.012917632 -0.076961495 -0.10689705 -0.006427768 -0.08476673 0.10632975 -0.12808508 0.14169267 0.13479312 -0.09323544 0.0234408 0.10016128 -0.06989752 -0.07447557 0.09509535 -0.00326931 0.14813614 -0.075172044 0.074150465 -0.036805518 0.121528156 -0.034868795 0.12880987 -0.03829305 -0.14460121 0.067068964 0.09335824 0.0783679 -0.03544725 0.024763852 0.044802733 -0.10531692 -0.019474933 0.050919406 0.10748626 -0.09694981 0.097581394 -0.047209397 -0.13871202 -0.0441616 -0.15377802 0.114384554 -0.1433924 -0.11833523 0.0864839 -0.13793775 0.0120180715 0.0003932361 -0.025759242 0.07097824 -0.054293275 0.04123088 0.0814676 0.03382658 -0.13229448 -0.08294687 0.12719165 -0.033651635 -0.12633088 -0.08350481 -0.13731857 -0.06642986 0.11132767 0.124019735 -0.040182896 -0.14136256 -0.13538675 -0.12950355 -0.10847709 0.051767252 -0.046432555 -0.029877817 0.028700747
const|int 0.047835782 -0.14162879 0.055553988 -0.112043545 0.1297855 0.15773234 -0.11854523 0.114259616 -0.1214779 -0.09280369 -0.060241923 -0.024668459 -0.10885515 -0.09549613 -0.13644855 -0.11266222 -0.08558937 -0.030744506 -0.015968041 -0.09428123 0.09701843 0.046001043 -0.11380293 -0.06787572 0.055383172 0.0599574 0.033655226 0.024709586 -0.06749154 0.09914567 0.1555812 0.03388882 -0.03996393 0.014988916 -0.08608158 0.018012134 0.025419405 -0.00048526708 -0.057871353 0.024795366 0.09052465 -0.10945682 -0.019774659 -0.13556634 -0.030558558 0.113979034 0.08664135 -0.037742663 0.013050494 0.07438928 -0.14195146 -0.119563006 0.10629894 -0.050367143 -0.15508083 0.04434892 0.114494175 -0.0011492437 0.14150038 0.08141741 -0.1450908 -0.14274338 0.0015768118 -0.05864179 -0.100696795 0.019835182 0.122416094 0.10946013 -0.12655896 0.036775798 0.007265083 0.10705761 -0.028344346 0.03681958 -0.0813495 -0.13769323 0.13495445 0.029177738 -0.0865295 0.03925878 -0.01757321 -0.0758284 0.00020835572 -0.015199863 0.008385662 0.114198364 0.036791805 -0.11872105 -0.05392201 0.0037389367 -0.12839116 0.065650955 0.048790846 -0.10962396 0.06335082 0.040751673 -0.11109565 0.04374048 0.15454255 0.020435285 0.035079792 0.08808174 0.12303755 0.12539873 -0.099605195 -0.08153181 0.12402165 0.13477089 -0.13806899 -0.06606091 0.14262676 -0.025079997 0.0309787 0.009224752 0.018095547 0.058750864 0.12468617 -0.013304577 -0.016705925 -0.14405176 -0.0048548933 0.090025805 0.039697997 0.03261793 0.09017723 0.13931818 0.07070525 -0.033163033
bool -0.028470242 0.13650903 0.13114735 -0.07909304 0.10082211 -0.09512341 0.14577202 0.06406885 -0.018832386 -0.14354487 -0.09251199 -0.013515388 -0.14386016 -0.12009878 0.1318595 -0.09588636 0.017523315 0.13009492 -0.050621074 -0.13767374 -0.112364225 -0.028231915 0.036056448 0.06832815 0.11948481 -0.14257272 0.031490877 0.11824213 0.12017613 -0.016068641 0.08992917 0.004721002 0.12359167 0.029450107 -0.14314614 -0.05592681 0.08527782 -0.0014246135 0.06696295 0.06806151 -0.09943328 -0.1340436 0.046485726 -0.15198606 -0.11816276 -0.13888136 -0.11924356 0.021532036 0.109536506 0.013062135 -0.0042958986 -0.031759363 -0.15547241 -0.11597552 -0.10665133 0.107741386 0.0039473563 -0.045784675 0.07206864 0.10598026 -0.12884462 -0.09892882 0.123655185 0.090040624 0.05834639 -0.061758555 -0.061540537 -0.008594379 -0.06019407 -0.06199215 0.12798993 -0.116992064 -0.12618586 -0.13556829 0.11896068 -0.09751999 0.058940373 -0.06763395 0.12518916 0.030361818 -0.093681626 0.06519528 0.1435366 -0.11084913 -0.13922732 -0.0489167 0.107527554 -0.08810939 0.12417091 -0.035742097 0.030270077 0.09439911 0.078410394 -0.11680727 0.057191093 0.055359676 -0.0021939906 -0.10867478 0.06418967 0.07260904 -0.06085465 0.027822798 0.0832233 -0.13700119 0.0876213 -0.12686102 0.09942597 -0.06587731 0.034266394 -0.117050275 0.035035588 -0.020515675 -0.110693425 0.014970084 -0.02852717 -0.041556556 -0.1465368 0.04709653 -0.065713644 -0.014116159 0.10653138 -0.023508545 0.07387248 0.07939043 0.041043557 -0.04486554 -0.04813355 -0.04970669
expected -0.022175837 -0.041849434 -0.14601274 0.12691271 -0.10527091 -0.11701622 -0.08428846 0.07688514 -0.08554125 0.0597726 0.055896778 -0.078686036 -7.472385e-05 0.117170125 -0.007338642 -0.044276662 -0.15162496 -0.028553296 0.03483953 0.11073022 -0.11704986 0.013647687 0.13048905 -0.02587464 0.0743037 0.087218896 -0.021567462 0.089830875 0.0142679 -0.10186747 0.04447029 0.033468176 0.11078483 0.08362219 -0.08305923 0.0047174515 -0.09055213 -0.039254975 -0.016763607 -0.04022832 0.055033363 -0.14870588 -0.07844352 -0.1102641 0.093728855 0.112253614 0.09717133 -0.11776413 -0.13045904 0.023371829 0.009189896 0.15203245 -0.036497526 0.03379205 0.06947251 -0.13979271 -0.012441824 0.025554046 0.07832256 -0.058434237 0.13365418 0.07371246 -0.09203971 -0.06715302 0.117343225 0.099930346 0.08723477 -0.10962086 0.033289887 0.011487412 -0.09017583 0.03593366 -0.14257099 -0.05541549 -0.092442974 0.008759311 0.080008104 -0.06722184 0.11905079 -0.105677776 -0.08374892 0.11080664 -0.06569746 -0.106855564 -0.114510596 0.029109659 0.1402056 0.004468714 0.10466281 -0.02389981 -0.050073456 -0.09867689 0.06832312 -0.1512665 -0.06647588 0.13315462 -0.0107007 -0.14325419 -0.038510118 0.10600332 -0.048056256 -0.004599977 0.09952139 -0.07305324 0.14419924 0.048058957 -0.08356325 0.13847536 -0.047483314 0.05150806 -0.011369099 0.100668125 0.10040374 -0.047830198 -0.12548356 -0.088744916 0.019722069 0.061416775 -0.052579593 0.09597175 -0.004519539 0.1532759 -0.008588145 -0.0038315963 0.14221741 -0.002013194 -0.061824724 0.08600142
int|t 0.15174533 0.1221338 0.13737768 0.05907506 0.12683427 -0.08267435 -0.07908613 -0.037525125 -0.0021705364 -0.06312998 -0.035886407 0.01588517 0.03823716 0.043889944 -0.14097083 -0.025825461 0.08068859 0.027730025 0.10554583 -0.019858325 -0.13818851 0.12434642 -0.13544257 -0.056354307 -0.06531105 -0.012996744 -0.0437114 -0.023083966 0.09095773 0.05631908 0.1367501 -0.06403669 -0.05953305 0.096175775 0.034350514 -0.1356728 0.059932325 0.12814367 0.07128913 0.0074244495 -0.08930596 -0.075547986 0.0030670692 0.10220145 -0.13637204 0.018336449 -0.09535796 0.00014446082 0.08615294 0.0032839826 -0.05314078 -0.051927127 -0.058770534 0.10246343 0.05711351 0.13867015 -0.13553467 0.004694982 0.05333515 -0.13773373 0.12987264 0.08564798 0.04953866 0.07211501 0.014876609 -0.08743419 0.03513499 0.040901225 -0.0038344518 -0.13512617 -0.0747075 -0.06758313 -0.03883147 0.12521805 -0.1521806 -0.06433654 0.09706447 0.11287055 -0.12680887 0.0140906125 -0.15348497 0.09772967 -0.0905013 0.1355679 -0.099495605 0.123401836 -0.015909074 -0.06659172 -0.04692326 -0.10825126 -0.07662927 -0.1228255 -0.13707398 -0.10692992 -0.123758174 0.14718983 0.07670444 -0.12785244 0.043237593 -0.06600901 -0.030256089 -0.09228294 -0.06764165 0.15272778 0.11220147 -0.045398563 0.0767677 -0.015045147 0.14122668 -0.09285183 -0.14781882 0.106638074 -0.052722745 0.012794189 0.10276575 0.019291738 -0.1407319 -0.040564273 0.13332815 0.111661084 0.1459172 -0.11300638 -0.017062863 0.13201907 0.072071075 0.14373907 0.06099145 0.11194818
glibc|unlikely -0.1468508 0.09273806 -0.095016144 0.039988395 -0.122763634 0.13792153 -0.002944124 -0.004628216 -0.12498906 -0.08091138 0.063503556 0.09744488 -0.05372276 -0.090879224 -0.061288834 0.039963037 -0.14671473 0.0021190674 0.07737653 0.1339892 0.07879484 0.06472974 -0.0069059515 -0.09885764 -0.066733435 -0.048905198 -0.06532032 0.11993909 -0.10837753 0.124241866 0.11834949 0.017056644 -0.107371554 -0.08410698 0.032738697 0.008917877 0.06668699 0.015040482 -0.112463005 0.13735472 -0.022042556 0.10344607 0.1170593 0.116346076 0.07052832 -0.052816316 0.04420208 -0.039647043 0.05160905 0.0465785 0.09458688 -0.09826974 0.09406272 -0.08413034 -0.13139452 -0.05454835 0.042801425 -0.09948657 -0.13361543 -0.14729224 -0.02032621 -0.1429927 0.056332037 -0.039096933 -0.051366773 0.05483507 0.046763435 0.11008701 0.13242121 -0.10796107 0.05384724 -0.086858205 0.08010981 -0.07843637 0.07989522 -0.12666073 0.10773344 0.12210033 0.048538577 -0.10189958 0.1129494 -0.06632487 -0.08318838 0.0960022 0.116769314 -0.0014249706 0.15407297 -0.057702426 0.095348805 -0.10592443 0.08018394 -0.080986895 -0.062478736 -0.05161226 -0.077628165 -0.07650239 -0.058741674 -0.02239614 -0.0067949677 0.11868541 0.026095126 -0.016008185 -0.03283405 -0.010402008 0.058255803 0.02291829 0.0745304 -0.036879882 0.14634763 -0.035266172 -0.05006093 0.12616955 0.09362476 0.08275572 -0.05829174 -0.011639016 0.070608966 -0.06813671 0.11523056 0.04305201 0.029367564 -0.011418994 -0.14012922 0.11325262 -0.080088384 -0.011208576 0.08338331 0.045421027
break 0.12070201 -0.020470865 -0.078282826 0.019553043 -0.04163282 0.049325533 -0.079247355 -0.09987392 0.035626244 0.021764243 0.08207532 0.12804425 0.14696853 -0.088308334 0.09098974 -0.08481598 -0.10583232 0.016518943 -0.09599238 0.11732707 0.062089868 -0.06418784 0.026990728 -0.073171586 -0.04255673 0.013035294 -0.0775953 0.12034467 -0.101676226 -0.041424286 0.069057435 0.022669343 -0.0006560929 -0.07974765 -0.11563064 -0.052083623 0.05764482 -0.051171456 0.11182401 -0.14378922 -0.03611635 0.011379757 0.061963223 0.12260152 -0.05041374 -0.060110435 0.025733978 0.14441693 -0.05342038 -0.02668841 -0.090905786 0.098776154 -0.12667151 0.14982156 0.12702206 -0.023173533 0.13532142 0.07357817 -0.13173977 -0.031780805 -0.069798395 0.13745931 -0.03186832 -0.07804037 0.01804178 -0.032252777 0.15477923 -0.04621278 0.0950748 -0.03748794 0.15080553 -0.084411606 0.0402915 -0.13556567 -0.12519936 -0.006181649 -0.036542792 0.1448673 0.082153894 -0.056844264 0.005809051 0.1456718 0.0044709463 0.11796337 0.024439858 0.020184038 -0.029948635 0.06377821 -0.014801346 0.06157857 -0.02679144 -0.056173623 0.06994508 0.07252601 -0.15519968 0.102361575 -0.08278806 -0.054141425 -0.0047321194 0.14600627 0.07482434 0.11507961 -0.10724598 -0.12513223 -0.046700053 -0.052737445 0.09495656 -0.07686622 -0.07262396 -0.04460439 -0.14155672 -0.03805541 -0.035325874 0.030278165 -0.07479364 0.040982153 0.085778885 -0.062203664 0.026000595 0.1008292 0.021625187 0.08561854 -0.10265858 -0.044482175 -0.09354219 0.0055400487 0.14556643 -0.03876985
exception -0.0312986 0.087078206 -0.09181652 -0.04653619 -0.04372022 0.118370876 -0.040726386 -0.009083201 -0.1405755 0.08564779 -0.03353498 -0.04389297 0.085774414 0.15333414 0.04226052 -0.10336773 -0.12591767 -0.06643293 0.13824809 -0.012827078 -0.07435084 0.048365436 -0.040180773 0.067979105 -0.12412238 0.0037541825 -0.106462225 0.09552491 -0.04088301 0.03308214 -0.06265105 -0.086359374 -0.033881888 0.09451272 -0.045270946 -0.08218929 -0.07685338 -0.08218612 -0.014947839 0.14170225 0.13326189 0.021292612 -0.04141449 -0.03454189 0.02544642 -0.12710662 0.15060584 -0.053932533 -0.08938324 0.10332698 -0.11874727 0.050176755 -0.14463623 -0.0099137 -0.05362107 -0.06424432 -0.0063249045 -0.042516913 -0.061744433 -0.12054427 -0.10996094 -0.106891796 0.012446962 -0.11206008 -0.12937036 0.075011015 -0.058681153 0.05073382 0.14824022 -0.15567492 -0.09649408 -0.018375535 0.03812051 -0.081444666 -0.15216215 -0.018702717 -0.038940243 0.12614228 -0.10330503 0.033942565 0.07079119 0.05322297 -0.0075874655 0.037119392 -0.0006978614 0.120399125 -0.078374885 0.12393888 -0.107608736 -0.13765855 0.01631687 -0.0035096793 -0.011199899 -0.08126087 -0.076194994 -0.08888036 0.022743512 0.05152351 -0.048060786 0.052507136 0.059722804 0.04335557 0.012374208 -0.09358723 -0.09762673 0.12070704 0.058177806 0.15379512 -0.026972141 -0.11578072 -0.022934929 -0.1152741 -0.036347173 -0.1553699 0.0142521 -0.055218488 -0.07467856 -0.11698935 -0.024579994 -0.13415211 0.12533814 0.011201912 -0.0364616 0.12434875 -0.013994965 -0.012917445 0.017288428 -0.07325594
assert|exact -0.076360025 0.09803888 0.041208487 -0.087609045 0.12823783 0.07343852 -0.11084467 0.008096686 0.10723529 0.07362679 0.005704347 0.10571085 0.00955024 0.13124683 -0.05891839 -0.05608836 -0.08282776 -0.051840387 -0.062927455 -0.017603142 -0.08799809 -0.053047374 0.11030334 0.069055066 -0.0008095539 0.08011129 0.15470958 0.11650671 0.001422941 0.1375425 -0.042822253 0.013422897 -0.036987893 0.06556279 -0.055640586 0.0027968339 -0.027959561 -0.053732295 -0.13620618 -0.12374833 0.0257458 -0.007510304 0.057815153 0.07554905 0.12767944 0.12176348 0.11370495 0.048373826 0.10957353 -0.10627498 0.12269779 -0.08608792 -0.09305459 0.050795022 0.15433219 0.04552327 -0.104021505 0.07976878 0.03874145 -0.09411775 -0.11272526 -0.056637116 0.037375126 0.07583823 0.09079584 -0.021392375 0.101790376 0.08138384 0.08104451 0.111488655 0.104183644 -0.14614458 0.07423301 -0.0005303109 0.040930003 0.0696427 0.066515945 -0.12657624 0.13021718 0.016593326 0.07272496 0.10968559 -0.15796065 -0.04043096 -0.02880141 0.042808864 0.12916934 -0.04744213 -0.009215943 0.029562628 -0.0034215227 -0.0446184 -0.10300319 0.053666286 0.017470349 0.10901329 0.108586416 -0.10279789 0.13262816 -0.044080887 0.036168877 0.017058445 0.012200663 -0.03695879 0.050294556 0.10500809 0.08453839 0.084967285 0.039377134 -0.10687023 -0.063782886 -0.12684189 0.012394619 0.0038331328 0.027717344 0.01002972 -0.09861481 0.11106721 -0.042173393 0.112895764 0.12165791 0.028617362 0.12213544 -0.08620633 0.014406992 0.08669488 0.09762048 -0.009106171
tmp 0.08372058 0.10112348 -0.02017215 0.018431045 -0.13470976 0.14051692 0.014917635 -0.046643537 0.026094478 -0.02550661 -0.13941568 -0.058063354 0.12660998 -0.067521445 -0.14010996 -0.073450655 0.026181163 -0.049007617 0.1265363 -0.07443466 -0.057999242 -0.15396458 -0.09179343 -0.063621685 0.0331508 -0.08606217 0.006091409 0.10213733 0.13173504 0.06589845 0.15381671 0.014242725 0.12826398 0.0756376 -0.0037684836 0.11153755 -0.009989585 -0.13058352 0.06914189 0.07208347 0.108546525 -0.0058921096 0.12340693 0.066199474 0.11141391 0.0076630274 0.008848495 0.08514511 0.12327766 -0.032275505 0.007862164 -0.066330306 0.11842163 0.07606397 -0.07717609 0.15556268 0.13450752 0.084609166 0.070719644 -0.0040153516 -0.053613666 -0.08564803 0.109003685 0.08074642 -0.024884803 -0.069857605 0.067061566 0.058581434 0.088489525 -0.063514434 -0.011975992 -0.12265139 -0.122849695 -0.070874855 -0.13199934 0.14547043 -0.06572162 0.13867709 0.08944488 0.04850647 0.08064319 -0.13982153 -0.13923153 -0.08152794 0.047389038 0.05821559 -0.1010761 0.042184073 -0.038180135 0.11355215 0.10678726 -0.14483574 0.017047586 -0.13301304 0.10984763 0.0023063717 -0.10671312 0.051839642 -0.018017774 -0.092310734 0.03255876 0.11479399 0.035723858 -0.021262154 0.09824316 0.10607563 0.056134187 0.121718034 0.13610692 0.050196476 -0.14767972 0.06834142 0.08924601 0.14268759 0.002133249 -0.073820494 0.0076316167 0.06840641 0.04463945 -0.057814922 0.03823406 0.1467769 0.007638713 -0.051763598 0.07742308 -0.04626872 0.15004541 -0.08650512
ldexp 0.15534802 0.022668084 -0.110627644 -0.033513363 -0.10658175 -0.11476656 -0.036055643 0.14358917 -0.13275364 0.10356193 -0.015504619 -0.028982595 -0.07136285 0.057918504 0.12143966 0.07634584 -0.013084317 -0.07412632 -0.08432427 -0.10198392 0.042670522 0.002069212 0.016156899 -0.079240136 -0.022992844 -0.082729936 0.14346695 -0.12382889 0.080532365 0.046271283 -0.12111897 -0.1395512 -0.11870741 -0.114984065 -0.12731344 0.1046355 -0.13634336 -0.022680793 0.13412069 -0.030886684 0.10273925 0.06689099 0.14015377 -0.12712379 -0.06745181 0.09185135 0.13526669 0.13349167 0.01724204 -0.10726333 0.10440301 -0.050709892 0.11181781 -0.07419245 -0.117858306 0.14630331 0.09571581 0.09199558 0.099142596 0.13190186 0.0489242 -0.15155198 0.09384621 0.091069706 -0.13414885 -0.0460516 -0.009754501 -0.07408707 -0.07569162 0.13996105 0.046847258 -0.016492136 0.07576856 0.12398028 -0.04874058 0.09066579 -0.08836148 -0.09514141 0.04930988 0.00498507 0.043623567 -0.013424764 -0.12300704 0.03521162 -0.09732551 0.13642836 0.026581638 0.023888864 -0.15799144 -0.1078033 -0.12966314 -0.02978425 0.024427535 -0.009219681 0.01951432 0.040372822 0.028324595 0.0400384 -0.009937599 0.04440256 -0.12283418 -0.037466336 0.13300137 -0.06175326 -0.08999232 0.07444069 -0.10229608 -0.068385534 -0.019631451 -0.014065867 0.107010685 -0.15753411 0.07458323 0.07624316 0.05374604 0.07992796 0.1285666 0.112705894 -0.12855554 -0.063384034 0.019397505 -0.14086072 -0.13567536 0.14140184 -0.04729731 -0.035646163 0.08534406 -0.074124195
cfloat 0.0657641 0.07203037 -0.1253873 -0.13986264 -0.041703783 0.15029642 -0.011436649 -0.14775454 0.10870241 -0.0002796828 0.082026295 -0.13767715 0.09436957 -0.10779101 0.034875873 -0.0056722835 0.124464385 0.03101892 -0.10828595 -0.1428029 0.09016256 -0.15842184 -0.039914697 0.14884037 -0.100676544 -0.13650207 -0.1012848 -0.079925865 0.002702314 -0.1456279 0.09699609 -0.11009652 0.08167804 -0.032249585 -0.09496766 -0.13046616 0.022403535 0.07775055 0.090716824 0.0040632477 -0.020685678 0.08554298 -0.058472782 0.024635267 0.04340002 -0.060471747 -0.020237135 -0.15783648 -0.06556354 0.1351518 0.036317017 0.0389377 0.12197256 -0.103334986 -0.09318855 0.073080376 0.13940105 -0.118991345 0.08780123 -0.06090027 -0.031145783 0.004523517 -0.12038974 0.00010857021 -0.14378214 -0.006304627 0.10725191 0.05620527 -0.0015691952 -0.12336217 -0.14708062 0.12246322 -0.1068093 -0.06708603 -0.12100256 -0.019947844 -0.12279958 -0.051566344 0.07977562 -0.1154473 -0.04186145 -0.04933141 0.004393153 -0.103338644 -0.10066789 -0.14999261 0.0041825147 -0.010570032 0.12609957 0.0838483 0.14372686 0.028087724 -0.08872048 -0.13561806 0.12223759 -0.0525652 -0.13108331 -0.048084114 0.05029885 -0.113261804 -0.152831 -0.025926022 0.031714242 0.08718832 -0.06671295 0.103958935 0.014325998 0.02108832 -0.068518534 -0.12812455 -0.14229564 -0.07679 -0.12821783 0.048480537 0.13480906 0.039556738 0.010910718 0.009981797 0.05099713 0.021637969 0.082758114 0.0059136297 0.1061642 -0.02343155 -0.06476918 0.068676665 0.034973055 0.05796413
set|errno 0.15098459 0.035023037 -0.1416755 0.07598036 0.12698995 0.08231595 -0.03913389 0.08770067 -0.048348743 -0.032712273 0.082165815 0.016724048 0.11067095 -0.14562097 -0.027136803 0.015561909 0.14425331 0.01622221 -0.041123167 0.09390198 0.12493972 0.10437086 0.045867704 -0.13753822 0.13877428 0.0033053856 -0.027723754 -0.061308578 -0.0730429 0.048579838 0.14377867 -0.111326896 -0.017179126 0.10211855 -0.10582339 -0.064296 0.02474762 0.06846451 -0.03999447 0.050168518 -0.11558111 0.121144 -0.08496134 -0.11506266 -0.06871682 -0.006965291 0.1075562 0.1140081 -0.042552315 -0.13411248 0.04517688 0.083404556 0.07176782 0.004737935 -0.07389593 0.038320605 -0.15399946 0.14595787 0.027555449 -0.07853872 0.089433275 -0.11388599 0.011670432 0.14234042 0.0148522565 0.054750204 0.02375665 -0.03887946 -0.13630755 -0.11042218 -0.124805346 0.12463562 -0.04844686 -0.08806454 0.07086551 -0.14445469 0.12579884 -0.10416869 -0.065853044 -0.09822731 0.06506512 -0.14461923 0.14256346 -0.058435902 -0.055482566 -0.0017464114 -0.019255966 0.00322469 -0.12112158 0.01672144 -0.010053841 0.1434429 0.09767287 -0.05126149 -0.014154708 0.10128539 0.12651406 0.07261293 -0.028761284 -0.08158062 0.13151893 0.1179961 0.07008702 0.009672956 0.14012049 -0.12881589 -0.1225541 -0.041052997 0.08361936 -0.103838705 0.003546474 0.03474443 -0.08755121 0.02675349 0.094659336 -0.07226774 -0.0715912 0.11474011 -0.11067626 0.005145673 0.043979064 -0.050818194 0.1256604 0.07117711 -0.14862828 -0.075862 0.04304404 -0.01647155
isfinite 0.070218906 0.085874535 0.1284051 0.095995285 0.04390596 0.027755 -0.08838216 -0.06705146 -0.087675184 -0.0415466 0.034156773 -0.094955444 0.14029647 -0.13178322 0.06083706 0.107603535 -0.10850806 -0.10197355 0.092743404 -0.048685312 0.035871904 0.04821934 -0.14858481 0.051297914 0.12698467 -0.07168648 0.14252606 0.15797897 -0.010844698 0.078186974 0.08596534 -0.06915779 -0.07128792 0.06410856 0.060024884 -0.13382126 0.067388915 0.031928707 -0.018555095 -0.10798773 -0.106267326 0.13197067 -0.065678775 0.038973324 0.08971621 0.0035735278 0.07970842 -0.09628513 -0.092586525 -0.14785275 -0.13916029 0.00882625 0.11011893 0.10539046 -0.13826524 0.026740123 0.05219031 -0.103267476 -0.04613128 -0.0819954 0.15481713 -0.096883565 -0.10658727 0.11366419 0.102015056 0.12725176 -0.07575372 -0.088959366 -0.054915514 -0.14051595 -0.058764204 -0.009764687 -0.120830566 -0.10718818 0.14410442 -0.09464563 -0.1233352 0.037861414 0.025047971 -0.035268087 0.11016414 -0.13540605 0.016185543 0.11354766 0.005389133 -0.09676622 0.1157636 0.03017708 -0.03183202 0.08997116 -0.032279357 0.096935384 0.013277704 0.004143558 0.07662235 -0.12691204 0.12975597 -0.06624417 0.12943786 -0.11705527 0.13752826 0.04049187 0.07174064 -0.029518388 0.042972736 -0.029009031 0.079942286 0.12454912 0.09850583 0.032270174 0.14975518 0.10134559 0.08114775 -0.118536726 -0.066750534 0.11756057 -0.033737376 -0.003322548 0.029012347 -0.08357084 0.0010277187 0.067686364 -0.094995685 -0.11892415 -0.14008658 0.102881365 -0.062983535 -0.11306405
feraiseexcept 0.086191386 0.01263013 0.1264431 0.069082126 0.15545206 -0.00091344654 0.11473054 0.008572591 0.035511393 -0.025260888 0.028832309 -3.5135192e-05 0.06830734 -0.06418773 0.03171797 -0.06966754 -0.031666823 0.08582101 -0.060548674 0.11935036 -0.06429912 0.007745661 0.10904257 -0.0823791 -0.119150594 -0.0050176657 0.032830052 -0.0024752524 -0.07624084 0.14203653 0.09310212 -0.089321606 -0.13636492 -0.08470286 -0.14499472 -0.042162716 -0.049416237 -0.091902204 -0.122289896 -0.13185915 -0.0012151342 -0.10384642 0.013719079 0.06883596 -0.0012473183 -0.08164137 -0.010156791 0.0043585137 0.053668212 0.058125913 -0.13774994 0.10428089 -0.1476045 0.092194 0.107143424 -0.1336437 -0.071724646 -0.04255297 -0.13691875 -0.093945295 0.03085079 -0.07819697 -0.008955163 0.08637108 0.0954209 -0.07914282 -0.06578019 -0.11660681 0.08679255 -0.018058263 -0.016092885 0.14215145 0.07439034 -0.09124611 0.0042316644 -0.010645385 0.12245616 0.100799225 -0.073678166 0.12808773 0.15334614 0.041038476 -0.0844829 -0.0070436737 -0.064500615 -0.08463539 0.025878998 -0.1324314 0.05857927 -0.02583697 0.13385871 -0.12864913 -0.10471993 0.041077312 -0.06358246 0.10203493 -0.11454933 0.09579722 0.10173877 -0.028118633 -0.060979113 -0.016719632 -0.124192104 -0.04174066 -0.0344466 0.00032265414 -0.033417486 0.046605986 -0.04384331 0.08642793 0.09441896 0.033132896 -0.074609876 0.09321227 -0.010990907 -0.100056574 -0.017230041 0.066102 -0.106074266 -0.097135015 0.072731294 -0.090504594 -0.047325224 -0.104709506 0.096496455 0.14995272 0.078351185 0.011676916
test|set 0.0071743224 0.086703666 0.12375866 0.033856865 0.02797374 0.051333364 -0.07974907 0.001963751 -0.014390256 0.14371783 -0.0490594 0.13757181 0.13292713 0.10231953 -0.08462483 0.04948861 0.053949673 0.011773849 -0.12518096 -0.03157021 0.14407504 0.11329957 -0.070779555 -0.082825795 -0.06287963 -0.12394697 -0.07323427 -0.014784031 0.09124194 -0.07741834 -0.025003528 0.027422562 0.08592 -0.068856925 0.084906794 0.13234928 -0.05557156 0.11089277 0.12192247 0.02650249 0.11272391 -0.10700552 -0.12515438 -0.05836451 0.13074814 -0.06786601 0.1289011 -0.1001487 -0.13931146 -0.041059896 -0.088314086 0.08579638 0.11690863 -0.057061072 0.09608791 -0.034072522 -0.027461737 -0.06948147 0.038788397 0.034457136 -0.12061951 0.11079295 0.1391983 0.01727353 0.0074531017 -0.06833238 -0.01221294 0.12891755 -0.006181087 0.14091147 0.091198 0.1273697 0.09696667 0.10346598 0.10834178 0.11860365 0.012884404 -0.045490645 0.10312508 -0.11818022 -0.04869008 -0.15238594 0.035113245 -0.017436309 0.07236998 -0.09353878 0.104085736 -0.0863664 -0.11491018 0.06683378 0.054429937 -0.008419835 0.00054634805 -0.12440802 0.054914963 -0.040863875 -0.06005049 -0.040289294 0.12983494 -0.13301526 -0.10757959 -0.15746896 -0.12779105 -0.02692323 0.14352392 -0.09227839 -0.044859625 -0.08622537 0.13579808 0.08780736 -0.025818903 -0.09197396 -0.058581356 0.09520138 -0.0005402199 0.03973987 0.097085044 -0.07456965 0.12538335 -0.102318615 0.0051795784 -0.032487646 0.00902237 0.0709545 -0.11823196 0.060392156 -0.15373473 -0.083963595
. -0.059039492 0.027869485 0.08895917 -0.140357 -0.030618185 0.010290168 0.123540245 -0.0411992 -0.09522786 -0.07900905 -0.0042216233 -0.06848361 -0.07593425 0.13152717 -0.003623255 0.15156549 0.120139025 0.021825928 0.038171154 -0.14744917 0.0935295 0.07645794 -0.023844799 0.089819394 0.020059535 0.14641877 0.10276565 0.045129716 0.06473539 0.07562369 -0.07299754 -0.044505395 0.05484758 0.14262329 0.14114223 0.0043092677 0.042562287 -0.09831087 0.028950194 -0.15659574 0.12900724 0.1306594 -0.119864926 0.14261502 -0.13810654 0.037714284 -0.04487174 0.13267916 0.12444807 0.031744145 0.13374913 -0.08783817 -0.034116495 -0.052546367 0.12706596 -0.11107658 0.047534097 0.08413667 -0.1559453 0.07752334 -0.07354847 -0.14763996 0.14294463 -0.017457139 -0.1009511 -0.11947976 0.15392748 -0.1338013 0.078936554 0.009434249 0.043087147 -0.15495943 -0.027744263 -0.120637774 -0.08286437 -0.047646504 -0.1326704 0.004812803 0.10103918 0.1335203 -0.10960627 -0.13515995 0.027119694 -0.014764538 0.11187197 -3.371702e-05 0.13598086 0.11486027 0.13142282 0.12453309 0.05688839 0.09017116 0.053678457 -0.12072625 0.05372779 0.012675421 0.038239986 -0.0054948744 -0.15788198 -0.15337549 -0.12454365 0.12421544 -0.105295554 -0.11341606 -0.08506081 -0.0038000187 0.005281349 0.10571728 -0.11193381 -0.08226086 -0.012224268 0.12533066 -0.15443814 -0.063496664 -0.11095848 0.005799606 0.07099035 0.027974386 0.025418358 -0.13911042 -0.051019985 -0.014375654 -0.12755254 0.10703838 -0.021128165 -0.014211073 0.10246714 0.12584743
fp|format 0.012847966 0.054000504 0.09638359 -0.098830074 0.06611005 0.02432844 -0.023528581 -0.081745386 0.06303706 0.08318236 0.13780993 -0.08614632 -0.15250105 -0.050771806 0.06566317 -0.023087092 -0.09697048 -0.023735052 -0.039953712 0.09414038 0.019068357 0.12507513 -0.014634613 -0.1076753 -0.13669784 0.01604351 -0.010940539 0.127876 -0.020881582 -0.09347597 0.09726447 -0.110483 0.09872001 -0.13232782 -0.060496073 -0.09450746 0.1413233 -0.12291233 0.1344545 0.037045844 0.05144635 0.05154469 -0.047988553 -0.035952322 -0.0387652 0.0950536 -0.12501827 0.09494351 -0.13018672 -0.009473972 0.03543157 0.157457 0.120057695 -0.1403201 -0.03440042 -0.043918703 -0.085455604 -0.075999916 -0.08282388 0.12065912 -0.09494261 0.057342127 0.057360966 -0.020896168 -0.030697461 -0.019360986 0.14600155 0.114098474 -0.02154876 -0.040205285 0.15684003 0.050645318 -0.04624704 0.12992711 -0.14675689 -0.05443125 -0.11940923 0.0017118109 -0.09265627 0.028157376 0.072865374 0.026335957 0.0053494815 0.106650114 -0.09271788 0.038242552 0.06356713 -0.13139825 0.107205264 0.07963079 0.11768079 0.11766671 0.012591206 -0.100537516 -0.07665146 0.115991 -0.13831176 -0.07240231 0.011258682 0.04307173 0.06627143 0.05687082 -0.1377762 0.08244305 -0.134519 -0.14614116 0.13792749 -0.10298238 -0.07656694 0.081860624 0.018448565 -0.09232032 -0.0017043649 -0.12480539 0.081180446 0.07320803 0.034414697 -0.034397017 -0.12668124 0.046871655 0.14007647 0.08522488 -0.03527341 -0.12559684 0.022268383 0.04774876 0.04280397 0.114328876
flag|name 0.06507368 0.14447547 -0.11980247 -0.10400004 0.0039446787 -0.15030493 0.009356265 0.032715376 0.080459975 0.07905175 -0.12925595 0.033275805 0.119800106 0.14559007 -0.13007863 -0.10113556 0.13231754 0.007870688 -0.004252656 -0.11917521 -0.03975136 0.024541713 -0.10832019 0.037911806 0.102387965 -0.08287848 -0.012951773 0.00232543 0.103981435 0.10845808 -0.02179491 -0.07954091 -0.039120037 -0.10341353 0.00031821118 -0.0834744 0.12929286 0.075629175 -0.12603231 -0.1556489 -0.15669437 0.13065206 -0.032730278 0.091700375 0.15862972 -0.017995533 0.08344721 -0.035987724 0.120317586 -0.026179489 -0.06061784 0.10762996 -0.00074720796 0.037193075 0.10293925 -0.045988716 -0.048516843 0.0752448 -0.017767806 0.114672385 -0.13564785 -0.15394549 -0.08305592 0.12652919 -0.048228674 0.07049609 -0.15612684 0.027154464 -0.05227267 -0.08908685 -0.07866418 -0.020992773 0.07976816 -0.0019023679 -0.04303462 -0.10198493 0.09902065 -0.064176135 0.15276255 -0.05107042 0.022771876 -0.016866216 0.012900858 -0.010482462 -0.14695556 0.02590253 -0.0051995404 -0.0925027 0.030301332 -0.027123205 -0.15520917 0.016907545 -0.037842296 -0.018495347 0.029708557 0.06686372 -0.1280846 0.036344618 0.038222633 0.0806297 0.09633551 -0.10231056 -0.08554424 0.016568387 0.118347816 -0.14590013 -0.05730965 0.088929474 0.089129925 0.07023166 0.06837131 0.0904253 -0.09430557 -0.009662287 -0.102097146 0.010300844 0.13823046 0.13159943 -0.011895053 0.013062775 -0.08599431 -0.11596175 -0.040405385 0.052533887 0.012679084 -0.07252414 -0.15638025 -0.0019261378
expm 0.073996335 0.14333989 -0.044124994 -0.060840815 0.04619058 -0.15194772 0.09973394 -0.0854322 -0.016801564 0.13860886 -0.106660105 -0.008729275 0.09961053 0.011871111 -0.110653594 -0.0061518485 0.06827621 -0.077098295 -0.08283871 -0.06312413 -0.027828243 0.14752333 -0.09996249 0.04468643 0.15572782 -0.09313008 0.032517936 0.04468904 -0.012835532 -0.0494462 -0.03350569 0.120327935 -0.02293777 -0.006261857 0.09376304 -0.08201319 0.12849256 0.011133441 0.109776765 -0.09222472 -0.15620913 0.027179081 -0.07701691 -0.05193496 0.063472904 -0.12220823 -0.053489234 0.07116423 -0.07786656 0.09965909 -0.09259886 -0.124698736 0.14494067 0.13664724 -0.12529962 -0.08004247 -0.12856725 0.14429432 0.044038977 0.085028455 0.06238295 0.022954473 -0.123477824 -0.10133311 -0.13378409 -0.07522433 0.0036505824 0.09644735 -0.0052421447 0.057454452 0.14401355 0.023713244 0.0014824201 -0.14300947 0.002071974 -0.02826903 -0.052752703 0.11481989 0.13030656 0.13237716 -0.108246416 -0.010610945 0.06022893 -0.14140704 0.14591907 -0.1461989 -0.11974139 -0.05113799 0.023256227 0.024376776 0.09395169 0.1397534 -0.09347503 -0.09443644 -0.094775684 -0.09392262 -0.1510019 0.14732164 -0.08547291 0.022314921 0.12511076 -0.13603629 -0.035641205 0.0017750557 -0.08270511 -0.15591782 0.14190665 -0.013320243 -0.01326958 0.1105249 0.060289092 -0.13325153 0.12252394 0.009863019 -0.1263703 -0.11044993 -0.019103395 -0.13539906 -0.04464214 -0.08029504 0.13329045 0.1309603 0.1329686 0.019092208 -0.06935085 0.010074798 0.1411173 0.12309775
excepts 0.024902526 -0.14219338 0.099044494 0.070992224 -0.09068422 0.0011973066 0.030200519 0.07480691 -0.037903305 0.0820666 0.09061863 0.047939125 -0.03979283 -0.06868759 -0.07793141 0.061223365 0.1110278 0.14573435 0.09270381 0.1325874 -0.14881736 0.0018045648 -0.10965988 0.038541283 0.08665107 0.12372681 -0.065153465 0.13470863 0.058009304 0.03546322 0.03465369 -0.1091055 -0.15349364 -0.101240605 0.09083061 -0.05195099 -0.07287311 -0.057700597 -0.1531958 0.06861182 0.12060679 -0.12907164 0.072351046 0.11482925 -0.11368238 -0.10397756 0.047552586 0.005327943 0.0991587 0.1235024 0.01452874 0.091052875 -0.0104176765 -0.08432335 -0.14768626 -0.07407021 -0.04647903 -0.124709964 0.02137401 0.074649595 -0.0690224 0.048464354 0.14445554 -0.044251338 0.04003974 0.10667334 0.1114435 0.022427015 -0.029319623 -0.034889046 -0.005277473 -0.049966678 0.034703106 0.10555971 0.057853397 0.044782605 -0.13562672 -0.08751618 0.11502836 -0.07839936 -0.005357518 0.09925918 -0.07694608 -0.10223253 0.0048266514 0.15196308 -0.12224885 0.14572857 -0.037096083 0.07606579 0.046049513 -0.0441182 0.07362814 -0.09146327 0.073114455 0.106117666 0.08542675 0.11001041 -0.08651491 0.07902618 0.090551004 -0.14600445 0.01305777 -0.06646234 -0.12870373 0.13925634 -0.03808525 0.007791168 -0.113952205 0.037389852 -0.13629632 0.015708618 -0.108285785 -0.067551136 0.01177393 -0.030123373 0.08907348 -0.054446235 0.035741083 0.040381234 -0.102385886 -0.13174126 -0.095087186 0.08257185 0.13516295 0.012804289 -0.13730371 0.023563182
